{"learner":{"attributes":{"scikit_learn":"{\"_estimator_type\": \"classifier\"}"},"feature_names":["filing_on_time_rate","upi_trend_slope","cashflow_volatility_score","top_buyer_concentration_pct","payroll_consistency_score"],"feature_types":["float","float","float","float","float"],"gradient_booster":{"model":{"cats":{"enc":[],"feature_segments":[],"sorted_idx":[]},"gbtree_model_param":{"num_parallel_tree":"1","num_trees":"100"},"iteration_indptr":[0,1,2,3,4,5,6,7,8,9,10,11,12,13,14,15,16,17,18,19,20,21,22,23,24,25,26,27,28,29,30,31,32,33,34,35,36,37,38,39,40,41,42,43,44,45,46,47,48,49,50,51,52,53,54,55,56,57,58,59,60,61,62,63,64,65,66,67,68,69,70,71,72,73,74,75,76,77,78,79,80,81,82,83,84,85,86,87,88,89,90,91,92,93,94,95,96,97,98,99,100],"tree_info":[0,0,0,0,0,0,0,0,0,0,0,0,0,0,0,0,0,0,0,0,0,0,0,0,0,0,0,0,0,0,0,0,0,0,0,0,0,0,0,0,0,0,0,0,0,0,0,0,0,0,0,0,0,0,0,0,0,0,0,0,0,0,0,0,0,0,0,0,0,0,0,0,0,0,0,0,0,0,0,0,0,0,0,0,0,0,0,0,0,0,0,0,0,0,0,0,0,0,0,0],"trees":[{"base_weights":[1.8016518E-8,-1.0044165E0,1.4115287E0,-1.2431403E0,-1.0594975E-1,-9.0419805E-1,2.1620314E0,-1.3853405E-1,-6.8943806E-2,-9.1135465E-2,7.654564E-2,2.0013345E-2,-1.17711E-1,2.771077E-1,6.1287046E-3],"categories":[],"categories_nodes":[],"categories_segments":[],"categories_sizes":[],"default_left":[0,0,0,0,0,0,0,0,0,0,0,0,0,0,0],"id":0,"left_children":[1,3,5,7,9,11,13,-1,-1,-1,-1,-1,-1,-1,-1],"loss_changes":[7.646467E1,6.6269054E0,4.0924297E1,9.9777603E-1,6.1073833E0,2.1021576E0,2.1874E1,0E0,0E0,0E0,0E0,0E0,0E0,0E0,0E0],"parents":[2147483647,0,0,1,1,2,2,3,3,4,4,5,5,6,6],"right_children":[2,4,6,8,10,12,14,-1,-1,-1,-1,-1,-1,-1,-1],"split_conditions":[7.5E-1,3.6E-2,-3.4E-2,5.83E-1,5E-1,6.2E-2,6.29E-1,-1.3853405E-1,-6.8943806E-2,-9.1135465E-2,7.654564E-2,2.0013345E-2,-1.17711E-1,2.771077E-1,6.1287046E-3],"split_indices":[0,1,1,0,0,2,3,0,0,0,0,0,0,0,0],"split_type":[0,0,0,0,0,0,0,0,0,0,0,0,0,0,0],"sum_hessian":[5.193333E1,3.0510832E1,2.1422499E1,2.3802776E1,6.7080555E0,5.193333E0,1.6229166E1,1.7743889E1,6.0588884E0,3.462222E0,3.2458332E0,1.0819445E0,4.1113887E0,1.2334167E1,3.895E0],"tree_param":{"num_deleted":"0","num_feature":"5","num_nodes":"15","size_leaf_vector":"1"}},{"base_weights":[-5.407166E-3,-9.4769925E-1,1.2210708E0,-1.1826923E0,-9.8795354E-2,-7.5651175E-1,1.8711871E0,-1.324602E-1,-6.454018E-2,-8.650631E-2,6.9177784E-2,4.3672964E-2,-1.1474996E-1,2.3750126E-1,5.6304466E-3],"categories":[],"categories_nodes":[],"categories_segments":[],"categories_sizes":[],"default_left":[0,0,0,0,0,0,0,0,0,0,0,0,0,0,0],"id":1,"left_children":[1,3,5,7,9,11,13,-1,-1,-1,-1,-1,-1,-1,-1],"loss_changes":[6.208033E1,5.9424496E0,3.1423935E1,9.5199585E-1,5.2487535E0,3.5275342E0,1.6191704E1,0E0,0E0,0E0,0E0,0E0,0E0,0E0,0E0],"parents":[2147483647,0,0,1,1,2,2,3,3,4,4,5,5,6,6],"right_children":[2,4,6,8,10,12,14,-1,-1,-1,-1,-1,-1,-1,-1],"split_conditions":[7.5E-1,3.6E-2,-3.2E-2,5.83E-1,5E-1,6.4E-2,6.29E-1,-1.324602E-1,-6.454018E-2,-8.650631E-2,6.9177784E-2,4.3672964E-2,-1.1474996E-1,2.3750126E-1,5.6304466E-3],"split_indices":[0,1,1,0,0,2,3,0,0,0,0,0,0,0,0],"split_type":[0,0,0,0,0,0,0,0,0,0,0,0,0,0,0],"sum_hessian":[5.171532E1,2.9374474E1,2.2340845E1,2.2698023E1,6.67645E0,5.486836E0,1.685401E1,1.6796402E1,5.901622E0,3.3424945E0,3.3339553E0,1.3252782E0,4.1615577E0,1.2950279E1,3.9037306E0],"tree_param":{"num_deleted":"0","num_feature":"5","num_nodes":"15","size_leaf_vector":"1"}},{"base_weights":[-8.908453E-3,-8.972331E-1,1.0837388E0,-1.2309431E-1,-3.080686E-1,-8.146319E-1,1.6127123E0,3.0165572E-2,-1.1569037E-1,1.6471246E-2,-1.0784006E-1,2.0164481E-1,5.1733474E-3],"categories":[],"categories_nodes":[],"categories_segments":[],"categories_sizes":[],"default_left":[0,0,0,0,0,0,0,0,0,0,0,0,0],"id":2,"left_children":[1,3,5,-1,7,9,11,-1,-1,-1,-1,-1,-1],"loss_changes":[5.1392433E1,5.361595E0,2.5160196E1,0E0,6.503815E0,1.6860626E0,1.1811672E1,0E0,0E0,0E0,0E0,0E0,0E0],"parents":[2147483647,0,0,1,1,2,2,4,4,5,5,6,6],"right_children":[2,4,6,-1,8,10,12,-1,-1,-1,-1,-1,-1],"split_conditions":[7.5E-1,5E-1,-3.4E-2,-1.2309431E-1,2.82E-1,6.2E-2,6.29E-1,3.0165572E-2,-1.1569037E-1,1.6471246E-2,-1.0784006E-1,2.0164481E-1,5.1733474E-3],"split_indices":[0,0,1,0,2,2,3,0,0,0,0,0,0],"split_type":[0,0,0,0,0,0,0,0,0,0,0,0,0],"sum_hessian":[5.0945953E1,2.819897E1,2.2746983E1,1.7306856E1,1.0892115E1,4.8394017E0,1.7907581E1,6.7140145E0,4.1781E0,1.1065278E0,3.7328742E0,1.3995869E1,3.911713E0],"tree_param":{"num_deleted":"0","num_feature":"5","num_nodes":"13","size_leaf_vector":"1"}},{"base_weights":[-1.22494325E-2,-8.504924E-1,9.763749E-1,-1.124581E0,-1.15981475E-1,-6.873171E-1,1.4716849E0,-1.1980798E-1,-4.192461E-2,-8.470453E-2,6.0864743E-2,3.773224E-2,-1.06866054E-1,1.8470962E-1,4.753893E-3],"categories":[],"categories_nodes":[],"categories_segments":[],"categories_sizes":[],"default_left":[0,0,0,0,0,0,0,0,0,0,0,0,0,0,0],"id":3,"left_children":[1,3,5,7,9,11,13,-1,-1,-1,-1,-1,-1,-1,-1],"loss_changes":[4.2977142E1,5.518011E0,2.0624983E1,5.5098915E-1,5.1453013E0,2.896881E0,9.88826E0,0E0,0E0,0E0,0E0,0E0,0E0,0E0,0E0],"parents":[2147483647,0,0,1,1,2,2,3,3,4,4,5,5,6,6],"right_children":[2,4,6,8,10,12,14,-1,-1,-1,-1,-1,-1,-1,-1],"split_conditions":[7.5E-1,3.2E-2,-3.2E-2,6.67E-1,5E-1,6.4E-2,6.29E-1,-1.1980798E-1,-4.192461E-2,-8.470453E-2,6.0864743E-2,3.773224E-2,-1.06866054E-1,1.8470962E-1,4.753893E-3],"split_indices":[0,1,1,0,0,2,3,0,0,0,0,0,0,0,0],"split_type":[0,0,0,0,0,0,0,0,0,0,0,0,0,0,0],"sum_hessian":[4.9858406E1,2.70569E1,2.2801506E1,1.93174E1,7.7395005E0,5.1421013E0,1.7659405E1,1.686174E1,2.4556596E0,3.768549E0,3.9709513E0,1.3588872E0,3.7832139E0,1.3740392E1,3.919014E0],"tree_param":{"num_deleted":"0","num_feature":"5","num_nodes":"15","size_leaf_vector":"1"}},{"base_weights":[-1.4302724E-2,-8.0802053E-1,8.9188945E-1,-1.0804893E0,-1.0918174E-1,-7.407273E-1,1.3133755E0,-1.15529515E-1,-3.947676E-2,4.428738E-2,-1.0120916E-1,1.3471904E-2,-9.983447E-2,1.6390216E-1,4.368892E-3],"categories":[],"categories_nodes":[],"categories_segments":[],"categories_sizes":[],"default_left":[0,0,0,0,0,0,0,0,0,0,0,0,0,0,0],"id":4,"left_children":[1,3,5,7,9,11,13,-1,-1,-1,-1,-1,-1,-1,-1],"loss_changes":[3.6303516E1,5.0035343E0,1.7194986E1,5.30838E-1,4.763609E0,1.369652E0,7.824703E0,0E0,0E0,0E0,0E0,0E0,0E0,0E0,0E0],"parents":[2147483647,0,0,1,1,2,2,3,3,4,4,5,5,6,6],"right_children":[2,4,6,8,10,12,14,-1,-1,-1,-1,-1,-1,-1,-1],"split_conditions":[7.5E-1,3.2E-2,-3.4E-2,6.67E-1,2.79E-1,6.2E-2,6.29E-1,-1.15529515E-1,-3.947676E-2,4.428738E-2,-1.0120916E-1,1.3471904E-2,-9.983447E-2,1.6390216E-1,4.368892E-3],"split_indices":[0,1,1,0,2,2,3,0,0,0,0,0,0,0,0],"split_type":[0,0,0,0,0,0,0,0,0,0,0,0,0,0,0],"sum_hessian":[4.8471405E1,2.5897005E1,2.2574398E1,1.823952E1,7.6574864E0,4.4766755E0,1.8097723E1,1.5828039E1,2.4114807E0,5.0682006E0,2.589286E0,1.1262984E0,3.3503773E0,1.4172029E1,3.9256945E0],"tree_param":{"num_deleted":"0","num_feature":"5","num_nodes":"15","size_leaf_vector":"1"}},{"base_weights":[-1.722383E-2,-7.6833874E-1,8.202895E-1,-1.1175405E0,-2.169024E-1,-6.300633E-1,1.2325522E0,-1.166088E-1,-4.370165E-2,3.375655E-2,-1.0585256E-1,3.2866195E-2,-1.004733E-1,1.5541397E-1,4.015441E-3],"categories":[],"categories_nodes":[],"categories_segments":[],"categories_sizes":[],"default_left":[0,0,0,0,0,0,0,0,0,0,0,0,0,0,0],"id":5,"left_children":[1,3,5,7,9,11,13,-1,-1,-1,-1,-1,-1,-1,-1],"loss_changes":[3.0823915E1,4.7296114E0,1.4634824E1,4.7397614E-3,5.6081166E0,2.4106112E0,6.9877014E0,0E0,0E0,0E0,0E0,0E0,0E0,0E0,0E0],"parents":[2147483647,0,0,1,1,2,2,3,3,4,4,5,5,6,6],"right_children":[2,4,6,8,10,12,14,-1,-1,-1,-1,-1,-1,-1,-1],"split_conditions":[7.5E-1,5E-1,-3.2E-2,4.1E-2,2.82E-1,6.4E-2,6.29E-1,-1.166088E-1,-4.370165E-2,3.375655E-2,-1.0585256E-1,3.2866195E-2,-1.004733E-1,1.5541397E-1,4.015441E-3],"split_indices":[0,0,1,1,2,2,3,0,0,0,0,0,0,0,0],"split_type":[0,0,0,0,0,0,0,0,0,0,0,0,0,0,0],"sum_hessian":[4.6997387E1,2.4820227E1,2.217716E1,1.4568194E1,1.0252031E1,4.7916574E0,1.7385502E1,1.2932122E1,1.6360724E0,6.541411E0,3.7106209E0,1.3809085E0,3.410749E0,1.3453692E1,3.9318101E0],"tree_param":{"num_deleted":"0","num_feature":"5","num_nodes":"15","size_leaf_vector":"1"}},{"base_weights":[-2.0063432E-2,-7.323984E-1,7.611094E-1,-1.0135818E0,-6.635054E-2,-5.986675E-1,1.1427616E0,-1.0897639E-1,-3.7313476E-2,-7.7298515E-2,5.7861954E-2,3.080504E-2,-9.705821E-2,1.4495304E-1,3.6908952E-3],"categories":[],"categories_nodes":[],"categories_segments":[],"categories_sizes":[],"default_left":[0,0,0,0,0,0,0,0,0,0,0,0,0,0,0],"id":6,"left_children":[1,3,5,7,9,11,13,-1,-1,-1,-1,-1,-1,-1,-1],"loss_changes":[2.6382444E1,4.574341E0,1.2426014E1,4.402218E-1,4.287996E0,2.1924462E0,6.056513E0,0E0,0E0,0E0,0E0,0E0,0E0,0E0,0E0],"parents":[2147483647,0,0,1,1,2,2,3,3,4,4,5,5,6,6],"right_children":[2,4,6,8,10,12,14,-1,-1,-1,-1,-1,-1,-1,-1],"split_conditions":[7.5E-1,3.2E-2,-3.2E-2,6.67E-1,5E-1,6.4E-2,6.29E-1,-1.0897639E-1,-3.7313476E-2,-7.7298515E-2,5.7861954E-2,3.080504E-2,-9.705821E-2,1.4495304E-1,3.6908952E-3],"split_indices":[0,1,1,0,0,2,3,0,0,0,0,0,0,0,0],"split_type":[0,0,0,0,0,0,0,0,0,0,0,0,0,0,0],"sum_hessian":[4.5409733E1,2.3784023E1,2.162571E1,1.6356897E1,7.427126E0,4.614878E0,1.7010832E1,1.3991073E1,2.365825E0,3.449425E0,3.977701E0,1.3922722E0,3.2226062E0,1.30734215E1,3.9374104E0],"tree_param":{"num_deleted":"0","num_feature":"5","num_nodes":"15","size_leaf_vector":"1"}},{"base_weights":[-2.1389911E-2,-9.8129123E-1,5.048437E-1,-1.0667875E-1,-2.5377948E-2,-7.641866E-1,8.8792527E-1,1.741266E-2,-9.546556E-2,1.3536908E-1,-4.508703E-4],"categories":[],"categories_nodes":[],"categories_segments":[],"categories_sizes":[],"default_left":[0,0,0,0,0,0,0,0,0,0,0],"id":7,"left_children":[1,3,5,-1,-1,7,9,-1,-1,-1,-1],"loss_changes":[2.3083473E1,7.352762E-1,1.5040786E1,0E0,0E0,1.4865694E0,9.631044E0,0E0,0E0,0E0,0E0],"parents":[2147483647,0,0,1,1,2,2,5,5,6,6],"right_children":[2,4,6,-1,-1,8,10,-1,-1,-1,-1],"split_conditions":[5.83E-1,4.1E-2,-3.2E-2,-1.0667875E-1,-2.5377948E-2,5.6E-2,4.69E-1,1.741266E-2,-9.546556E-2,1.3536908E-1,-4.508703E-4],"split_indices":[0,1,1,0,0,2,3,0,0,0,0],"split_type":[0,0,0,0,0,0,0,0,0,0,0],"sum_hessian":[4.371714E1,1.5173839E1,2.8543303E1,1.3160844E1,2.0129952E0,6.3877683E0,2.2155535E1,1.0923402E0,5.2954283E0,1.4218159E1,7.9373755E0],"tree_param":{"num_deleted":"0","num_feature":"5","num_nodes":"11","size_leaf_vector":"1"}},{"base_weights":[-2.2538435E-2,-6.735253E-1,6.7693037E-1,-9.572537E-1,-5.1847506E-2,-1.5833761E-1,1.2117323E0,-1.0062069E-1,-1.2879542E-2,4.4359364E-2,-9.263429E-2,5.878978E-2,-1.0461124E-1,1.3192329E-1,5.2358128E-2],"categories":[],"categories_nodes":[],"categories_segments":[],"categories_sizes":[],"default_left":[0,0,0,0,0,0,0,0,0,0,0,0,0,0,0],"id":8,"left_children":[1,3,5,7,9,11,13,-1,-1,-1,-1,-1,-1,-1,-1],"loss_changes":[2.0115694E1,3.983303E0,9.711771E0,5.0477123E-1,3.9732797E0,6.7120914E0,2.7897453E-1,0E0,0E0,0E0,0E0,0E0,0E0,0E0,0E0],"parents":[2147483647,0,0,1,1,2,2,3,3,4,4,5,5,6,6],"right_children":[2,4,6,8,10,12,14,-1,-1,-1,-1,-1,-1,-1,-1],"split_conditions":[7.5E-1,3.2E-2,-3E-3,8.61E-1,2.79E-1,4.8E-1,3.51E-1,-1.0062069E-1,-1.2879542E-2,4.4359364E-2,-9.263429E-2,5.878978E-2,-1.0461124E-1,1.3192329E-1,5.2358128E-2],"split_indices":[0,1,1,3,2,3,2,0,0,0,0,0,0,0,0],"split_type":[0,0,0,0,0,0,0,0,0,0,0,0,0,0,0],"sum_hessian":[4.217554E1,2.1864042E1,2.03115E1,1.464184E1,7.2222023E0,8.2032995E0,1.21082E1,1.3622349E1,1.0194913E0,4.924815E0,2.297387E0,4.64046E0,3.562839E0,9.679096E0,2.429104E0],"tree_param":{"num_deleted":"0","num_feature":"5","num_nodes":"15","size_leaf_vector":"1"}},{"base_weights":[-2.2376833E-2,-9.2797345E-1,4.4946483E-1,-1.065125E-1,-3.837708E-1,-7.106204E-1,7.938645E-1,-8.32329E-2,1.5548551E-2,-6.8772555E-4,-9.825961E-2,1.2233653E-1,3.4806022E-4],"categories":[],"categories_nodes":[],"categories_segments":[],"categories_sizes":[],"default_left":[0,0,0,0,0,0,0,0,0,0,0,0,0],"id":9,"left_children":[1,3,5,-1,7,9,11,-1,-1,-1,-1,-1,-1],"loss_changes":[1.822934E1,6.8138695E-1,1.1783017E1,0E0,1.2187035E0,1.3245523E0,7.506321E0,0E0,0E0,0E0,0E0,0E0,0E0],"parents":[2147483647,0,0,1,1,2,2,4,4,5,5,6,6],"right_children":[2,4,6,-1,8,10,12,-1,-1,-1,-1,-1,-1],"split_conditions":[5.83E-1,3.6E-2,-3.2E-2,-1.065125E-1,6.67E-1,6.4E-2,4.69E-1,-8.32329E-2,1.5548551E-2,-6.8772555E-4,-9.825961E-2,1.2233653E-1,3.4806022E-4],"split_indices":[0,1,1,0,4,2,3,0,0,0,0,0,0],"split_type":[0,0,0,0,0,0,0,0,0,0,0,0,0],"sum_hessian":[4.0685757E1,1.3605766E1,2.7079988E1,1.0102486E1,3.50328E0,5.955605E0,2.1124384E1,1.6157823E0,1.8874977E0,1.9458808E0,4.009724E0,1.3331907E1,7.792476E0],"tree_param":{"num_deleted":"0","num_feature":"5","num_nodes":"13","size_leaf_vector":"1"}},{"base_weights":[-2.5347076E-2,-8.993473E-1,4.1602585E-1,-1.0420027E-1,-3.65358E-1,-4.322516E-1,8.359149E-1,-7.9398885E-2,2.0298919E-2,6.2200356E-2,-8.4578075E-2,1.07568346E-1,-5.5602384E-3],"categories":[],"categories_nodes":[],"categories_segments":[],"categories_sizes":[],"default_left":[0,0,0,0,0,0,0,0,0,0,0,0,0],"id":10,"left_children":[1,3,5,-1,7,9,11,-1,-1,-1,-1,-1,-1],"loss_changes":[1.5881426E1,6.7092323E-1,1.0118639E1,0E0,1.2453524E0,4.7677298E0,4.0495586E0,0E0,0E0,0E0,0E0,0E0,0E0],"parents":[2147483647,0,0,1,1,2,2,4,4,5,5,6,6],"right_children":[2,4,6,-1,8,10,12,-1,-1,-1,-1,-1,-1],"split_conditions":[5.83E-1,3.6E-2,-6E-3,-1.0420027E-1,2.5E-1,5.7E-2,3.51E-1,-7.9398885E-2,2.0298919E-2,6.2200356E-2,-8.4578075E-2,1.07568346E-1,-5.5602384E-3],"split_indices":[0,1,1,0,0,2,2,0,0,0,0,0,0],"split_type":[0,0,0,0,0,0,0,0,0,0,0,0,0],"sum_hessian":[3.919928E1,1.2805132E1,2.6394146E1,9.354672E0,3.4504592E0,8.729335E0,1.7664812E1,1.7406775E0,1.7097818E0,2.3173432E0,6.411992E0,1.3758078E1,3.9067345E0],"tree_param":{"num_deleted":"0","num_feature":"5","num_nodes":"13","size_leaf_vector":"1"}},{"base_weights":[-2.6670218E-2,-6.0924816E-1,5.8916694E-1,-8.8976824E-1,-6.284959E-2,-6.8833053E-1,8.470366E-1,-1.0116771E-2,-9.462046E-2,3.81754E-2,-8.818599E-2,-8.2552545E-2,-1.759485E-2,1.13525964E-1,-1.3979052E-3],"categories":[],"categories_nodes":[],"categories_segments":[],"categories_sizes":[],"default_left":[0,0,0,0,0,0,0,0,0,0,0,0,0,0,0],"id":11,"left_children":[1,3,5,7,9,11,13,-1,-1,-1,-1,-1,-1,-1,-1],"loss_changes":[1.4294343E1,3.0787983E0,6.970745E0,5.0232506E-1,3.2547867E0,1.2246215E-1,4.1309223E0,0E0,0E0,0E0,0E0,0E0,0E0,0E0,0E0],"parents":[2147483647,0,0,1,1,2,2,3,3,4,4,5,5,6,6],"right_children":[2,4,6,8,10,12,14,-1,-1,-1,-1,-1,-1,-1,-1],"split_conditions":[7.5E-1,3.2E-2,-3.8E-2,1.71E-1,2.79E-1,9.17E-1,6.29E-1,-1.0116771E-2,-9.462046E-2,3.81754E-2,-8.818599E-2,-8.2552545E-2,-1.759485E-2,1.13525964E-1,-1.3979052E-3],"split_indices":[0,1,1,3,2,0,3,0,0,0,0,0,0,0,0],"split_type":[0,0,0,0,0,0,0,0,0,0,0,0,0,0,0],"sum_hessian":[3.78418E1,1.9451502E1,1.8390297E1,1.2437624E1,7.0138783E0,2.8083444E0,1.5581952E1,1.01716E0,1.14204645E1,4.8920755E0,2.1218026E0,1.7331306E0,1.0752137E0,1.143545E1,4.1465025E0],"tree_param":{"num_deleted":"0","num_feature":"5","num_nodes":"15","size_leaf_vector":"1"}},{"base_weights":[-2.904763E-2,-8.571208E-1,3.7216133E-1,-1.0047882E-1,-3.532847E-1,-7.038968E-1,6.458406E-1,-8.011264E-2,1.6968448E-2,1.4757045E-2,-9.3675375E-2,9.3403034E-2,-2.208656E-2],"categories":[],"categories_nodes":[],"categories_segments":[],"categories_sizes":[],"default_left":[0,0,0,0,0,0,0,0,0,0,0,0,0],"id":12,"left_children":[1,3,5,-1,7,9,11,-1,-1,-1,-1,-1,-1],"loss_changes":[1.2751867E1,5.7625866E-1,8.083758E0,0E0,1.1615844E0,1.2745821E0,5.495201E0,0E0,0E0,0E0,0E0,0E0,0E0],"parents":[2147483647,0,0,1,1,2,2,4,4,5,5,6,6],"right_children":[2,4,6,-1,8,10,12,-1,-1,-1,-1,-1,-1],"split_conditions":[5.83E-1,3.6E-2,-3.4E-2,-1.0047882E-1,6.67E-1,5.6E-2,3.27E-1,-8.011264E-2,1.6968448E-2,1.4757045E-2,-9.3675375E-2,9.3403034E-2,-2.208656E-2],"split_indices":[0,1,1,0,4,2,2,0,0,0,0,0,0],"split_type":[0,0,0,0,0,0,0,0,0,0,0,0,0],"sum_hessian":[3.6422466E1,1.1516566E1,2.4905901E1,8.137347E0,3.3792186E0,4.7312984E0,2.0174603E1,1.5338413E0,1.8453772E0,1.0946932E0,3.6366055E0,1.5081989E1,5.092613E0],"tree_param":{"num_deleted":"0","num_feature":"5","num_nodes":"13","size_leaf_vector":"1"}},{"base_weights":[-3.26106E-2,-5.685453E-1,5.3185004E-1,-9.321833E-1,-1.4944673E-1,-1.7350821E-1,9.9860895E-1,-1.00794375E-1,-3.0145952E-2,2.8337216E-2,-9.207796E-2,4.7949776E-2,-9.639272E-2,1.6288154E-2,1.0685843E-1],"categories":[],"categories_nodes":[],"categories_segments":[],"categories_sizes":[],"default_left":[0,0,0,0,0,0,0,0,0,0,0,0,0,0,0],"id":13,"left_children":[1,3,5,7,9,11,13,-1,-1,-1,-1,-1,-1,-1,-1],"loss_changes":[1.1241151E1,2.7611356E0,6.1415095E0,1.7394829E-1,3.6102743E0,4.6279216E0,4.725628E-1,0E0,0E0,0E0,0E0,0E0,0E0,0E0,0E0],"parents":[2147483647,0,0,1,1,2,2,3,3,4,4,5,5,6,6],"right_children":[2,4,6,8,10,12,14,-1,-1,-1,-1,-1,-1,-1,-1],"split_conditions":[7.5E-1,5E-1,-3E-3,8.33E-1,2.82E-1,4.8E-1,5.4E-2,-1.00794375E-1,-3.0145952E-2,2.8337216E-2,-9.207796E-2,4.7949776E-2,-9.639272E-2,1.6288154E-2,1.0685843E-1],"split_indices":[0,0,1,4,2,3,2,0,0,0,0,0,0,0,0],"split_type":[0,0,0,0,0,0,0,0,0,0,0,0,0,0,0],"sum_hessian":[3.515955E1,1.803179E1,1.712776E1,8.999211E0,9.032578E0,7.070782E0,1.0056977E1,7.500234E0,1.498977E0,6.1911507E0,2.841427E0,4.087363E0,2.9834192E0,1.0341111E0,9.022866E0],"tree_param":{"num_deleted":"0","num_feature":"5","num_nodes":"15","size_leaf_vector":"1"}},{"base_weights":[-3.458332E-2,-8.068871E-1,3.183638E-1,-9.701925E-2,-3.0180302E-1,-4.0513465E-1,6.7135847E-1,-7.354945E-2,2.2875005E-2,5.0757624E-2,-7.829016E-2,8.818232E-2,-5.0897296E-3],"categories":[],"categories_nodes":[],"categories_segments":[],"categories_sizes":[],"default_left":[0,0,0,0,0,0,0,0,0,0,0,0,0],"id":14,"left_children":[1,3,5,-1,7,9,11,-1,-1,-1,-1,-1,-1],"loss_changes":[9.788643E0,6.352205E-1,6.584552E0,0E0,1.1347618E0,3.4069755E0,2.6272945E0,0E0,0E0,0E0,0E0,0E0,0E0],"parents":[2147483647,0,0,1,1,2,2,4,4,5,5,6,6],"right_children":[2,4,6,-1,8,10,12,-1,-1,-1,-1,-1,-1],"split_conditions":[5.83E-1,3.6E-2,-6E-3,-9.701925E-2,2.5E-1,5.7E-2,3.51E-1,-7.354945E-2,2.2875005E-2,5.0757624E-2,-7.829016E-2,8.818232E-2,-5.0897296E-3],"split_indices":[0,1,1,0,0,2,2,0,0,0,0,0,0],"split_type":[0,0,0,0,0,0,0,0,0,0,0,0,0],"sum_hessian":[3.3968365E1,1.0251133E1,2.3717232E1,7.050642E0,3.2004905E0,7.728722E0,1.5988508E1,1.5484544E0,1.6520362E0,2.1618707E0,5.5668516E0,1.2209687E1,3.7788215E0],"tree_param":{"num_deleted":"0","num_feature":"5","num_nodes":"13","size_leaf_vector":"1"}},{"base_weights":[-3.5625253E-2,-5.3676975E-1,4.8682263E-1,-8.2169324E-1,-4.4252604E-2,-1.4896546E-1,9.1099876E-1,-8.83265E-2,-1.1542417E-2,3.5140615E-2,-8.1537716E-2,4.506291E-2,-9.16007E-2,5.0971724E-2,1.1585295E-1],"categories":[],"categories_nodes":[],"categories_segments":[],"categories_sizes":[],"default_left":[0,0,0,0,0,0,0,0,0,0,0,0,0,0,0],"id":15,"left_children":[1,3,5,7,9,11,13,-1,-1,-1,-1,-1,-1,-1,-1],"loss_changes":[9.118159E0,2.4532967E0,4.743635E0,3.84336E-1,2.5927918E0,3.9527535E0,4.414339E-1,0E0,0E0,0E0,0E0,0E0,0E0,0E0,0E0],"parents":[2147483647,0,0,1,1,2,2,3,3,4,4,5,5,6,6],"right_children":[2,4,6,8,10,12,14,-1,-1,-1,-1,-1,-1,-1,-1],"split_conditions":[7.5E-1,3.2E-2,-3E-3,8.44E-1,2.79E-1,4.8E-1,5.83E-1,-8.83265E-2,-1.1542417E-2,3.5140615E-2,-8.1537716E-2,4.506291E-2,-9.16007E-2,5.0971724E-2,1.1585295E-1],"split_indices":[0,1,1,3,2,3,4,0,0,0,0,0,0,0,0],"split_type":[0,0,0,0,0,0,0,0,0,0,0,0,0,0,0],"sum_hessian":[3.282776E1,1.6741499E1,1.608626E1,1.0182513E1,6.5589867E0,6.697035E0,9.389224E0,9.135485E0,1.0470278E0,4.6945424E0,1.864444E0,3.9903204E0,2.7067142E0,4.749247E0,4.639977E0],"tree_param":{"num_deleted":"0","num_feature":"5","num_nodes":"15","size_leaf_vector":"1"}},{"base_weights":[-3.4615435E-2,-8.777786E-1,2.522553E-1,-9.648486E-2,-2.2965692E-2,-4.1315216E-1,5.733427E-1,5.4355036E-2,-7.28574E-2,7.7951215E-2,-1.1357047E-2],"categories":[],"categories_nodes":[],"categories_segments":[],"categories_sizes":[],"default_left":[0,0,0,0,0,0,0,0,0,0,0],"id":16,"left_children":[1,3,5,-1,-1,7,9,-1,-1,-1,-1],"loss_changes":[8.154916E0,2.6089287E-1,5.6315846E0,0E0,0E0,3.0514133E0,2.559834E0,0E0,0E0,0E0,0E0],"parents":[2147483647,0,0,1,1,2,2,5,5,6,6],"right_children":[2,4,6,-1,-1,8,10,-1,-1,-1,-1],"split_conditions":[5E-1,8.33E-1,-6E-3,-9.648486E-2,-2.2965692E-2,5.3E-2,3.51E-1,5.4355036E-2,-7.28574E-2,7.7951215E-2,-1.1357047E-2],"split_indices":[0,4,1,0,0,2,2,0,0,0,0],"split_type":[0,0,0,0,0,0,0,0,0,0,0],"sum_hessian":[3.1799448E1,7.549705E0,2.4249743E1,6.2247725E0,1.3249327E0,7.7995563E0,1.6450186E1,1.7545625E0,6.0449934E0,1.2548951E1,3.9012346E0],"tree_param":{"num_deleted":"0","num_feature":"5","num_nodes":"11","size_leaf_vector":"1"}},{"base_weights":[-3.5041586E-2,-5.057994E-1,4.5045558E-1,-7.836698E-1,-5.0180573E-2,-5.927586E-2,6.648237E-1,-1.1340908E-2,-8.476324E-2,3.1853203E-2,-7.859769E-2,9.576406E-2,-4.100911E-3],"categories":[],"categories_nodes":[],"categories_segments":[],"categories_sizes":[],"default_left":[0,0,0,0,0,0,0,0,0,0,0,0,0],"id":17,"left_children":[1,3,5,7,9,-1,11,-1,-1,-1,-1,-1,-1],"loss_changes":[7.4975867E0,2.0648365E0,4.0141773E0,3.4353876E-1,2.2483788E0,0E0,2.912065E0,0E0,0E0,0E0,0E0,0E0,0E0],"parents":[2147483647,0,0,1,1,2,2,3,3,4,4,6,6],"right_children":[2,4,6,8,10,-1,12,-1,-1,-1,-1,-1,-1],"split_conditions":[7.5E-1,3.2E-2,-3.8E-2,2.07E-1,2.79E-1,-5.927586E-2,6.29E-1,-1.1340908E-2,-8.476324E-2,3.1853203E-2,-7.859769E-2,9.576406E-2,-4.100911E-3],"split_indices":[0,1,1,3,2,0,3,0,0,0,0,0,0],"split_type":[0,0,0,0,0,0,0,0,0,0,0,0,0],"sum_hessian":[3.0807903E1,1.5620151E1,1.5187752E1,9.255465E0,6.3646865E0,2.2880251E0,1.2899727E1,1.047875E0,8.207589E0,4.6177783E0,1.7469084E0,8.865213E0,4.034514E0],"tree_param":{"num_deleted":"0","num_feature":"5","num_nodes":"13","size_leaf_vector":"1"}},{"base_weights":[-3.640365E-2,-8.4557885E-1,2.2852428E-1,-9.393372E-2,-1.9736307E-2,-3.867962E-1,5.215162E-1,4.397437E-2,-7.2321095E-2,7.454076E-2,-2.4012942E-3],"categories":[],"categories_nodes":[],"categories_segments":[],"categories_sizes":[],"default_left":[0,0,0,0,0,0,0,0,0,0,0],"id":18,"left_children":[1,3,5,-1,-1,7,9,-1,-1,-1,-1],"loss_changes":[6.776445E0,2.8787947E-1,4.5144625E0,0E0,0E0,2.623313E0,2.0492406E0,0E0,0E0,0E0,0E0],"parents":[2147483647,0,0,1,1,2,2,5,5,6,6],"right_children":[2,4,6,-1,-1,8,10,-1,-1,-1,-1],"split_conditions":[5E-1,8.33E-1,-6E-3,-9.393372E-2,-1.9736307E-2,5.7E-2,3.1E-1,4.397437E-2,-7.2321095E-2,7.454076E-2,-2.4012942E-3],"split_indices":[0,4,1,0,0,2,2,0,0,0,0],"split_type":[0,0,0,0,0,0,0,0,0,0,0],"sum_hessian":[2.9709118E1,6.7871733E0,2.2921946E1,5.5371637E0,1.2500098E0,7.2905974E0,1.5631348E1,2.0201437E0,5.2704535E0,1.08230505E1,4.8082967E0],"tree_param":{"num_deleted":"0","num_feature":"5","num_nodes":"11","size_leaf_vector":"1"}},{"base_weights":[-3.6710177E-2,-4.7821492E-1,4.1932216E-1,-7.4826723E-1,-5.4653656E-2,-2.1622E-3,9.3891346E-1,-9.36871E-3,-8.147888E-2,2.8857922E-2,-7.5503446E-2,4.3198183E-2,-6.377337E-2,1.0956829E-1,1.779123E-2],"categories":[],"categories_nodes":[],"categories_segments":[],"categories_sizes":[],"default_left":[0,0,0,0,0,0,0,0,0,0,0,0,0,0,0],"id":19,"left_children":[1,3,5,7,9,11,13,-1,-1,-1,-1,-1,-1,-1,-1],"loss_changes":[6.2028794E0,1.7451422E0,3.3302805E0,3.3542633E-1,1.9386595E0,2.8660903E0,6.1737776E-1,0E0,0E0,0E0,0E0,0E0,0E0,0E0,0E0],"parents":[2147483647,0,0,1,1,2,2,3,3,4,4,5,5,6,6],"right_children":[2,4,6,8,10,12,14,-1,-1,-1,-1,-1,-1,-1,-1],"split_conditions":[7.5E-1,3.2E-2,8E-3,2.07E-1,2.79E-1,4.8E-1,3.64E-1,-9.36871E-3,-8.147888E-2,2.8857922E-2,-7.5503446E-2,4.3198183E-2,-6.377337E-2,1.0956829E-1,1.779123E-2],"split_indices":[0,1,1,3,2,3,2,0,0,0,0,0,0,0,0],"split_type":[0,0,0,0,0,0,0,0,0,0,0,0,0,0,0],"sum_hessian":[2.8811962E1,1.4614443E1,1.419752E1,8.456302E0,6.158141E0,8.388631E0,5.808889E0,1.0022644E0,7.454037E0,4.527389E0,1.630752E0,5.1744266E0,3.2142045E0,4.451972E0,1.3569167E0],"tree_param":{"num_deleted":"0","num_feature":"5","num_nodes":"15","size_leaf_vector":"1"}},{"base_weights":[-3.5412792E-2,-8.1436086E-1,2.0989646E-1,-9.149388E-2,-1.6810669E-2,-6.001223E-1,4.0132403E-1,6.698484E-3,-8.188407E-2,6.268846E-2,-2.1701872E-2],"categories":[],"categories_nodes":[],"categories_segments":[],"categories_sizes":[],"default_left":[0,0,0,0,0,0,0,0,0,0,0],"id":20,"left_children":[1,3,5,-1,-1,7,9,-1,-1,-1,-1],"loss_changes":[5.6916237E0,3.0927372E-1,3.7711115E0,0E0,0E0,7.4831057E-1,2.7880569E0,0E0,0E0,0E0,0E0],"parents":[2147483647,0,0,1,1,2,2,5,5,6,6],"right_children":[2,4,6,-1,-1,8,10,-1,-1,-1,-1],"split_conditions":[5E-1,8.33E-1,-3.4E-2,-9.149388E-2,-1.6810669E-2,5.6E-2,3.27E-1,6.698484E-3,-8.188407E-2,6.268846E-2,-2.1701872E-2],"split_indices":[0,4,1,0,0,2,2,0,0,0,0],"split_type":[0,0,0,0,0,0,0,0,0,0,0],"sum_hessian":[2.7891565E1,6.124445E0,2.176712E1,4.939883E0,1.1845615E0,3.7527049E0,1.8014416E1,1.0978678E0,2.654837E0,1.3189357E1,4.825059E0],"tree_param":{"num_deleted":"0","num_feature":"5","num_nodes":"11","size_leaf_vector":"1"}},{"base_weights":[-3.8457133E-2,-4.5282707E-1,3.8947088E-1,-7.149596E-1,-5.6114536E-2,-1.1932784E-2,8.9392364E-1,-7.8170784E-2,-1.0690413E-2,2.6519675E-2,-7.2630964E-2,3.8452204E-2,-5.9202906E-2,1.0672078E-1,1.7265623E-2],"categories":[],"categories_nodes":[],"categories_segments":[],"categories_sizes":[],"default_left":[0,0,0,0,0,0,0,0,0,0,0,0,0,0,0],"id":21,"left_children":[1,3,5,7,9,11,13,-1,-1,-1,-1,-1,-1,-1,-1],"loss_changes":[5.160054E0,1.4928541E0,2.9192593E0,2.732334E-1,1.6892953E0,2.2942538E0,6.1291933E-1,0E0,0E0,0E0,0E0,0E0,0E0,0E0,0E0],"parents":[2147483647,0,0,1,1,2,2,3,3,4,4,5,5,6,6],"right_children":[2,4,6,8,10,12,14,-1,-1,-1,-1,-1,-1,-1,-1],"split_conditions":[7.5E-1,3.2E-2,8E-3,8.34E-1,2.79E-1,4.8E-1,7.28E-1,-7.8170784E-2,-1.0690413E-2,2.6519675E-2,-7.2630964E-2,3.8452204E-2,-5.9202906E-2,1.0672078E-1,1.7265623E-2],"split_indices":[0,1,1,3,2,3,3,0,0,0,0,0,0,0,0],"split_type":[0,0,0,0,0,0,0,0,0,0,0,0,0,0,0],"sum_hessian":[2.7105558E1,1.3741371E1,1.3364187E1,7.791099E0,5.9502726E0,7.985947E0,5.3782406E0,6.7631044E0,1.0279943E0,4.430473E0,1.5197998E0,4.9441266E0,3.0418205E0,3.9496987E0,1.4285418E0],"tree_param":{"num_deleted":"0","num_feature":"5","num_nodes":"15","size_leaf_vector":"1"}},{"base_weights":[-3.70282E-2,-7.8352934E-1,1.8937752E-1,-8.910202E-2,-1.4140673E-2,-5.713919E-1,3.6723375E-1,6.3234316E-3,-7.9117246E-2,5.731055E-2,-1.8827379E-2],"categories":[],"categories_nodes":[],"categories_segments":[],"categories_sizes":[],"default_left":[0,0,0,0,0,0,0,0,0,0,0],"id":22,"left_children":[1,3,5,-1,-1,7,9,-1,-1,-1,-1],"loss_changes":[4.7590275E0,3.2561588E-1,3.151012E0,0E0,0E0,6.790905E-1,2.1923869E0,0E0,0E0,0E0,0E0],"parents":[2147483647,0,0,1,1,2,2,5,5,6,6],"right_children":[2,4,6,-1,-1,8,10,-1,-1,-1,-1],"split_conditions":[5E-1,8.33E-1,-3.4E-2,-8.910202E-2,-1.4140673E-2,5.6E-2,3.27E-1,6.3234316E-3,-7.9117246E-2,5.731055E-2,-1.8827379E-2],"split_indices":[0,4,1,0,0,2,2,0,0,0,0],"split_type":[0,0,0,0,0,0,0,0,0,0,0],"sum_hessian":[2.6279963E1,5.5429873E0,2.0736975E1,4.4161158E0,1.1268718E0,3.5100946E0,1.7226881E1,1.0861301E0,2.4239645E0,1.2545737E1,4.6811438E0],"tree_param":{"num_deleted":"0","num_feature":"5","num_nodes":"11","size_leaf_vector":"1"}},{"base_weights":[-3.9949924E-2,-3.5008964E-1,4.7276124E-1,-6.316007E-2,-9.5875E-2,-3.3221673E-2,7.0491874E-1,-6.6610925E-2,2.5930176E-2,2.7412936E-2,1.04770206E-1],"categories":[],"categories_nodes":[],"categories_segments":[],"categories_sizes":[],"default_left":[0,0,0,0,0,0,0,0,0,0,0],"id":23,"left_children":[1,3,5,7,-1,-1,9,-1,-1,-1,-1],"loss_changes":[4.3929114E0,2.9327645E0,2.1863027E0,2.645651E0,0E0,0E0,9.573102E-1,0E0,0E0,0E0,0E0],"parents":[2147483647,0,0,1,1,2,2,3,3,6,6],"right_children":[2,4,6,8,-1,-1,10,-1,-1,-1,-1],"split_conditions":[8.33E-1,2.82E-1,-3.2E-2,5E-1,-9.5875E-2,-3.3221673E-2,5.83E-1,-6.6610925E-2,2.5930176E-2,2.7412936E-2,1.04770206E-1],"split_indices":[0,2,1,0,0,0,4,0,0,0,0],"split_type":[0,0,0,0,0,0,0,0,0,0,0],"sum_hessian":[2.5585417E1,1.613968E1,9.445736E0,1.1718985E1,4.4206963E0,2.0179038E0,7.4278326E0,3.7121644E0,8.006821E0,4.0888853E0,3.3389475E0],"tree_param":{"num_deleted":"0","num_feature":"5","num_nodes":"11","size_leaf_vector":"1"}},{"base_weights":[-3.8953405E-2,-3.337441E-1,4.4211832E-1,-6.1461613E-2,-9.3504965E-2,-1.115069E-1,7.6892006E-1,-6.4151235E-2,2.3600055E-2,5.5063184E-2,-5.5465322E-2,1.7865352E-2,1.08924344E-1],"categories":[],"categories_nodes":[],"categories_segments":[],"categories_sizes":[],"default_left":[0,0,0,0,0,0,0,0,0,0,0,0,0],"id":24,"left_children":[1,3,5,7,-1,9,11,-1,-1,-1,-1,-1,-1],"loss_changes":[3.8262198E0,2.6691666E0,1.9467504E0,2.3139532E0,0E0,1.6819754E0,1.0522966E0,0E0,0E0,0E0,0E0,0E0,0E0],"parents":[2147483647,0,0,1,1,2,2,3,3,5,5,6,6],"right_children":[2,4,6,8,-1,10,12,-1,-1,-1,-1,-1,-1],"split_conditions":[8.33E-1,2.82E-1,-3E-3,5E-1,-9.3504965E-2,6.4E-2,5.83E-1,-6.4151235E-2,2.3600055E-2,5.5063184E-2,-5.5465322E-2,1.7865352E-2,1.08924344E-1],"split_indices":[0,2,1,0,0,2,4,0,0,0,0,0,0],"split_type":[0,0,0,0,0,0,0,0,0,0,0,0,0],"sum_hessian":[2.4939806E1,1.5653758E1,9.286048E0,1.15334215E1,4.120337E0,3.6913812E0,5.5946665E0,3.5175624E0,8.015859E0,1.3827533E0,2.3086278E0,2.5160384E0,3.078628E0],"tree_param":{"num_deleted":"0","num_feature":"5","num_nodes":"13","size_leaf_vector":"1"}},{"base_weights":[-3.6842044E-2,-6.268415E-1,1.852303E-1,-8.886918E-2,-1.535131E-1,-5.3173316E-1,3.6052623E-1,-5.9529316E-2,3.24977E-2,4.037086E-3,-7.4945234E-2,7.4828885E-2,1.4343276E-3],"categories":[],"categories_nodes":[],"categories_segments":[],"categories_sizes":[],"default_left":[0,0,0,0,0,0,0,0,0,0,0,0,0],"id":25,"left_children":[1,3,5,-1,7,9,11,-1,-1,-1,-1,-1,-1],"loss_changes":[3.4295635E0,7.489817E-1,2.597913E0,0E0,9.868409E-1,5.490929E-1,2.1343687E0,0E0,0E0,0E0,0E0,0E0,0E0],"parents":[2147483647,0,0,1,1,2,2,4,4,5,5,6,6],"right_children":[2,4,6,-1,8,10,12,-1,-1,-1,-1,-1,-1],"split_conditions":[5.83E-1,6.67E-1,-3.4E-2,-8.886918E-2,3.5E-2,5.6E-2,3.92E-1,-5.9529316E-2,3.24977E-2,4.037086E-3,-7.4945234E-2,7.4828885E-2,1.4343276E-3],"split_indices":[0,4,1,0,1,2,3,0,0,0,0,0,0],"split_type":[0,0,0,0,0,0,0,0,0,0,0,0,0],"sum_hessian":[2.428918E1,6.1437745E0,1.8145405E1,3.3905497E0,2.753225E0,3.1654234E0,1.4979982E1,1.3046037E0,1.4486213E0,1.0971084E0,2.068315E0,6.5177984E0,8.462184E0],"tree_param":{"num_deleted":"0","num_feature":"5","num_nodes":"13","size_leaf_vector":"1"}},{"base_weights":[-3.8839757E-2,-3.1537303E-1,4.0882272E-1,3.912808E-1,-5.140428E-1,8.0143465E-3,8.3744025E-1,-2.693607E-2,7.715795E-2,-7.5710714E-2,-1.24410745E-2,2.6446877E-2,-4.21396E-2,9.7218215E-2,2.3840234E-2],"categories":[],"categories_nodes":[],"categories_segments":[],"categories_sizes":[],"default_left":[0,0,0,0,0,0,0,0,0,0,0,0,0,0,0],"id":26,"left_children":[1,3,5,7,9,11,13,-1,-1,-1,-1,-1,-1,-1,-1],"loss_changes":[3.1794639E0,2.4188962E0,1.6846011E0,1.2214414E0,1.1145036E0,7.8289765E-1,1.5145135E-1,0E0,0E0,0E0,0E0,0E0,0E0,0E0,0E0],"parents":[2147483647,0,0,1,1,2,2,3,3,4,4,5,5,6,6],"right_children":[2,4,6,8,10,12,14,-1,-1,-1,-1,-1,-1,-1,-1],"split_conditions":[8.33E-1,2.44E-1,5E-3,5.83E-1,3.2E-2,1.99E-1,7.28E-1,-2.693607E-2,7.715795E-2,-7.5710714E-2,-1.24410745E-2,2.6446877E-2,-4.21396E-2,9.7218215E-2,2.3840234E-2],"split_indices":[0,3,1,0,1,2,3,0,0,0,0,0,0,0,0],"split_type":[0,0,0,0,0,0,0,0,0,0,0,0,0,0,0],"sum_hessian":[2.3642092E1,1.4797058E1,8.845033E0,3.0344036E0,1.1762654E1,5.0972223E0,3.7478108E0,1.2151685E0,1.8192352E0,6.662962E0,5.0996923E0,3.4317868E0,1.6654356E0,2.5510876E0,1.1967232E0],"tree_param":{"num_deleted":"0","num_feature":"5","num_nodes":"15","size_leaf_vector":"1"}},{"base_weights":[-3.3185538E-2,-5.8902925E-1,1.7054E-1,-8.603368E-2,-1.24057315E-1,-4.5739675E-1,3.5069984E-1,-5.9018712E-2,3.2888737E-2,2.22541E-3,-7.4987195E-2,7.8106664E-2,-1.5532974E-3],"categories":[],"categories_nodes":[],"categories_segments":[],"categories_sizes":[],"default_left":[0,0,0,0,0,0,0,0,0,0,0,0,0],"id":27,"left_children":[1,3,5,-1,7,9,11,-1,-1,-1,-1,-1,-1],"loss_changes":[2.8240454E0,7.353792E-1,2.239284E0,0E0,9.601497E-1,6.52299E-1,2.3519692E0,0E0,0E0,0E0,0E0,0E0,0E0],"parents":[2147483647,0,0,1,1,2,2,4,4,5,5,6,6],"right_children":[2,4,6,-1,8,10,12,-1,-1,-1,-1,-1,-1],"split_conditions":[5.83E-1,6.67E-1,-3.2E-2,-8.603368E-2,2.5E-1,6.4E-2,3.92E-1,-5.9018712E-2,3.2888737E-2,2.22541E-3,-7.4987195E-2,7.8106664E-2,-1.5532974E-3],"split_indices":[0,4,1,0,0,2,3,0,0,0,0,0,0],"split_type":[0,0,0,0,0,0,0,0,0,0,0,0,0],"sum_hessian":[2.3051598E1,5.675447E0,1.737615E1,3.0471568E0,2.6282902E0,3.5308251E0,1.38453245E1,1.1459653E0,1.4823247E0,1.6874187E0,1.8434063E0,5.844566E0,8.000759E0],"tree_param":{"num_deleted":"0","num_feature":"5","num_nodes":"13","size_leaf_vector":"1"}},{"base_weights":[-3.5445202E-2,-2.9337043E-1,3.8270277E-1,-3.4487892E-2,-8.9271724E-2,-5.6468183E-3,7.9974276E-1,-4.8475716E-2,2.922054E-2,2.2957698E-2,-3.914219E-2,9.348256E-2,2.0969467E-2],"categories":[],"categories_nodes":[],"categories_segments":[],"categories_sizes":[],"default_left":[0,0,0,0,0,0,0,0,0,0,0,0,0],"id":28,"left_children":[1,3,5,7,-1,9,11,-1,-1,-1,-1,-1,-1],"loss_changes":[2.6429331E0,2.3088293E0,1.5246027E0,1.8436592E0,0E0,6.209853E-1,1.6525292E-1,0E0,0E0,0E0,0E0,0E0,0E0],"parents":[2147483647,0,0,1,1,2,2,3,3,5,5,6,6],"right_children":[2,4,6,8,-1,10,12,-1,-1,-1,-1,-1,-1],"split_conditions":[8.33E-1,2.82E-1,5E-3,6E-3,-8.9271724E-2,1.99E-1,3.82E-1,-4.8475716E-2,2.922054E-2,2.2957698E-2,-3.914219E-2,9.348256E-2,2.0969467E-2],"split_indices":[0,2,1,1,0,2,2,0,0,0,0,0,0],"split_type":[0,0,0,0,0,0,0,0,0,0,0,0,0],"sum_hessian":[2.2464422E1,1.4078698E1,8.385725E0,1.0570435E1,3.5082629E0,4.8530254E0,3.5326998E0,4.2411647E0,6.3292704E0,3.2663093E0,1.5867162E0,2.3991325E0,1.1335673E0],"tree_param":{"num_deleted":"0","num_feature":"5","num_nodes":"13","size_leaf_vector":"1"}},{"base_weights":[-3.3408E-2,-6.624313E-1,1.3129522E-1,-1.441625E-2,-7.8540094E-2,-2.1394962E-1,4.341235E-1,1.5298225E-2,-5.4822695E-2,6.173895E-2,-1.6401066E-2],"categories":[],"categories_nodes":[],"categories_segments":[],"categories_sizes":[],"default_left":[0,0,0,0,0,0,0,0,0,0,0],"id":29,"left_children":[1,3,5,-1,-1,7,9,-1,-1,-1,-1],"loss_changes":[2.463426E0,2.006669E-1,2.080688E0,0E0,0E0,1.2557545E0,1.2477317E0,0E0,0E0,0E0,0E0],"parents":[2147483647,0,0,1,1,2,2,5,5,6,6],"right_children":[2,4,6,-1,-1,8,10,-1,-1,-1,-1],"split_conditions":[5E-1,5.9E-2,6E-3,-1.441625E-2,-7.8540094E-2,3.59E-1,3.64E-1,1.5298225E-2,-5.4822695E-2,6.173895E-2,-1.6401066E-2],"split_indices":[0,2,1,0,0,3,2,0,0,0,0],"split_type":[0,0,0,0,0,0,0,0,0,0,0],"sum_hessian":[2.1938248E1,3.9252458E0,1.8013E1,1.169328E0,2.7559178E0,8.554166E0,9.458836E0,4.33645E0,4.2177153E0,7.215761E0,2.2430744E0],"tree_param":{"num_deleted":"0","num_feature":"5","num_nodes":"11","size_leaf_vector":"1"}},{"base_weights":[-3.4853254E-2,-3.5258174E-1,2.8547934E-1,-6.0776764E-1,-5.4312665E-3,-4.5963433E-2,4.5147353E-1,-6.8076365E-2,-1.00159375E-2,2.5123043E-2,-6.009843E-2,7.252287E-2,-3.1068071E-3],"categories":[],"categories_nodes":[],"categories_segments":[],"categories_sizes":[],"default_left":[0,0,0,0,0,0,0,0,0,0,0,0,0],"id":30,"left_children":[1,3,5,7,9,-1,11,-1,-1,-1,-1,-1,-1],"loss_changes":[2.3898757E0,1.0366659E0,1.6611454E0,1.8217945E-1,1.0654479E0,0E0,1.3588371E0,0E0,0E0,0E0,0E0,0E0,0E0],"parents":[2147483647,0,0,1,1,2,2,3,3,4,4,6,6],"right_children":[2,4,6,8,10,-1,12,-1,-1,-1,-1,-1,-1],"split_conditions":[7.5E-1,3.2E-2,-3.8E-2,7.45E-1,2.79E-1,-4.5963433E-2,6.29E-1,-6.8076365E-2,-1.00159375E-2,2.5123043E-2,-6.009843E-2,7.252287E-2,-3.1068071E-3],"split_indices":[0,1,1,3,2,0,3,0,0,0,0,0,0],"split_type":[0,0,0,0,0,0,0,0,0,0,0,0,0],"sum_hessian":[2.1492123E1,1.0739377E1,1.0752746E1,5.756854E0,4.9825225E0,1.6367469E0,9.115998E0,4.7348447E0,1.0220093E0,3.885968E0,1.0965548E0,5.495411E0,3.6205876E0],"tree_param":{"num_deleted":"0","num_feature":"5","num_nodes":"13","size_leaf_vector":"1"}},{"base_weights":[-3.6278002E-2,-2.7488005E-1,3.489425E-1,3.8777947E-1,-4.6532193E-1,-1.5489775E-2,7.4864846E-1,-2.1536594E-2,7.0676625E-2,-2.1660894E-2,-8.575051E-2,1.8713906E-2,-3.442091E-2,9.107909E-2,1.7821543E-2],"categories":[],"categories_nodes":[],"categories_segments":[],"categories_sizes":[],"default_left":[0,0,0,0,0,0,0,0,0,0,0,0,0,0,0],"id":31,"left_children":[1,3,5,7,9,11,13,-1,-1,-1,-1,-1,-1,-1,-1],"loss_changes":[2.1112664E0,1.9597411E0,1.2974057E0,8.6270845E-1,9.268451E-1,4.3722174E-1,2.2893023E-1,0E0,0E0,0E0,0E0,0E0,0E0,0E0,0E0],"parents":[2147483647,0,0,1,1,2,2,3,3,4,4,5,5,6,6],"right_children":[2,4,6,8,10,12,14,-1,-1,-1,-1,-1,-1,-1,-1],"split_conditions":[8.33E-1,2.44E-1,5E-3,5.83E-1,2.82E-1,1.99E-1,7.28E-1,-2.1536594E-2,7.0676625E-2,-2.1660894E-2,-8.575051E-2,1.8713906E-2,-3.442091E-2,9.107909E-2,1.7821543E-2],"split_indices":[0,3,1,0,2,2,3,0,0,0,0,0,0,0,0],"split_type":[0,0,0,0,0,0,0,0,0,0,0,0,0,0,0],"sum_hessian":[2.092637E1,1.309925E1,7.827121E0,2.6928897E0,1.040636E1,4.597026E0,3.230095E0,1.0439035E0,1.6489862E0,7.317865E0,3.0884948E0,3.1104116E0,1.4866141E0,2.050567E0,1.179528E0],"tree_param":{"num_deleted":"0","num_feature":"5","num_nodes":"15","size_leaf_vector":"1"}},{"base_weights":[-3.1886086E-2,-6.2231314E-1,1.1839474E-1,-7.636719E-2,-1.0621614E-2,-2.0505536E-1,4.011362E-1,4.471879E-3,-5.9428383E-2,5.745837E-2,-1.5693616E-2],"categories":[],"categories_nodes":[],"categories_segments":[],"categories_sizes":[],"default_left":[0,0,0,0,0,0,0,0,0,0,0],"id":32,"left_children":[1,3,5,-1,-1,7,9,-1,-1,-1,-1],"loss_changes":[1.978884E0,2.4836767E-1,1.7243555E0,0E0,0E0,9.051152E-1,1.0502987E0,0E0,0E0,0E0,0E0],"parents":[2147483647,0,0,1,1,2,2,5,5,6,6],"right_children":[2,4,6,-1,-1,8,10,-1,-1,-1,-1],"split_conditions":[5E-1,4.91E-1,6E-3,-7.636719E-2,-1.0621614E-2,4.8E-1,3.64E-1,4.471879E-3,-5.9428383E-2,5.745837E-2,-1.5693616E-2],"split_indices":[0,3,1,0,0,3,2,0,0,0,0],"split_type":[0,0,0,0,0,0,0,0,0,0,0],"sum_hessian":[2.0471973E1,3.5162485E0,1.6955725E1,2.383659E0,1.1325895E0,8.036688E0,8.919037E0,5.434434E0,2.6022542E0,6.781711E0,2.1373258E0],"tree_param":{"num_deleted":"0","num_feature":"5","num_nodes":"11","size_leaf_vector":"1"}},{"base_weights":[-3.424829E-2,-2.6376817E-1,3.3395717E-1,-3.331261E-2,-8.34362E-2,-2.740017E-2,5.2807796E-1,-4.1609153E-2,2.3158422E-2,8.550084E-3,8.6799465E-2],"categories":[],"categories_nodes":[],"categories_segments":[],"categories_sizes":[],"default_left":[0,0,0,0,0,0,0,0,0,0,0],"id":33,"left_children":[1,3,5,7,-1,-1,9,-1,-1,-1,-1],"loss_changes":[1.8711464E0,1.7547371E0,1.1529107E0,1.181048E0,0E0,0E0,9.5132756E-1,0E0,0E0,0E0,0E0],"parents":[2147483647,0,0,1,1,2,2,3,3,6,6],"right_children":[2,4,6,8,-1,-1,10,-1,-1,-1,-1],"split_conditions":[8.33E-1,2.82E-1,-3.2E-2,6E-3,-8.34362E-2,-2.740017E-2,5.83E-1,-4.1609153E-2,2.3158422E-2,8.550084E-3,8.6799465E-2],"split_indices":[0,2,1,1,0,0,4,0,0,0,0],"split_type":[0,0,0,0,0,0,0,0,0,0,0],"sum_hessian":[2.0098679E1,1.2555735E1,7.542944E0,9.697443E0,2.858291E0,1.7259651E0,5.816979E0,3.7327743E0,5.964669E0,3.0705748E0,2.7464042E0],"tree_param":{"num_deleted":"0","num_feature":"5","num_nodes":"11","size_leaf_vector":"1"}},{"base_weights":[-3.3324268E-2,-5.137298E-1,1.3534525E-1,-8.194967E-2,-2.7146308E-2,-3.8937777E-1,2.9032806E-1,-2.309335E-2,1.9235035E-2,6.3397805E-3,-7.029214E-2,8.8793114E-2,6.66802E-3],"categories":[],"categories_nodes":[],"categories_segments":[],"categories_sizes":[],"default_left":[0,0,0,0,0,0,0,0,0,0,0,0,0],"id":34,"left_children":[1,3,5,-1,7,9,11,-1,-1,-1,-1,-1,-1],"loss_changes":[1.7506918E0,8.1092525E-1,1.4262087E0,0E0,1.8734717E-1,6.278968E-1,1.6834192E0,0E0,0E0,0E0,0E0,0E0,0E0],"parents":[2147483647,0,0,1,1,2,2,4,4,5,5,6,6],"right_children":[2,4,6,-1,8,10,12,-1,-1,-1,-1,-1,-1],"split_conditions":[5.83E-1,6.67E-1,-3.2E-2,-8.194967E-2,3.7E-2,6.4E-2,2.6E-1,-2.309335E-2,1.9235035E-2,6.3397805E-3,-7.029214E-2,8.8793114E-2,6.66802E-3],"split_indices":[0,4,1,0,1,2,3,0,0,0,0,0,0],"split_type":[0,0,0,0,0,0,0,0,0,0,0,0,0],"sum_hessian":[1.9747448E1,4.59998E0,1.5147469E1,2.4046948E0,2.195285E0,3.1089957E0,1.2038473E1,1.1113602E0,1.0839248E0,1.5984873E0,1.5105083E0,2.4695199E0,9.5689535E0],"tree_param":{"num_deleted":"0","num_feature":"5","num_nodes":"13","size_leaf_vector":"1"}},{"base_weights":[-3.336376E-2,-3.0619106E-1,2.4127975E-1,-5.4737365E-1,6.8150894E-3,-4.9622465E-2,6.2748855E-1,-2.6139578E-2,-7.621707E-2,2.7851565E-2,-5.2887667E-2,4.771987E-2,-2.4955912E-2,8.8444814E-2,-4.3752725E-4],"categories":[],"categories_nodes":[],"categories_segments":[],"categories_sizes":[],"default_left":[0,0,0,0,0,0,0,0,0,0,0,0,0,0,0],"id":35,"left_children":[1,3,5,7,9,11,13,-1,-1,-1,-1,-1,-1,-1,-1],"loss_changes":[1.5998604E0,8.082587E-1,1.2341919E0,1.7126882E-1,9.661089E-1,8.600312E-1,7.627188E-1,0E0,0E0,0E0,0E0,0E0,0E0,0E0,0E0],"parents":[2147483647,0,0,1,1,2,2,3,3,4,4,5,5,6,6],"right_children":[2,4,6,8,10,12,14,-1,-1,-1,-1,-1,-1,-1,-1],"split_conditions":[7.5E-1,3.2E-2,8E-3,5.83E-1,4.5E-2,5.3E-2,7.28E-1,-2.6139578E-2,-7.621707E-2,2.7851565E-2,-5.2887667E-2,4.771987E-2,-2.4955912E-2,8.8444814E-2,-4.3752725E-4],"split_indices":[0,1,1,4,1,2,3,0,0,0,0,0,0,0,0],"split_type":[0,0,0,0,0,0,0,0,0,0,0,0,0,0,0],"sum_hessian":[1.9365376E1,9.657186E0,9.70819E0,5.031482E0,4.6257033E0,6.0344234E0,3.6737666E0,3.109062E0,1.9224205E0,3.3876064E0,1.238097E0,1.2786107E0,4.7558126E0,2.3274992E0,1.3462673E0],"tree_param":{"num_deleted":"0","num_feature":"5","num_nodes":"15","size_leaf_vector":"1"}},{"base_weights":[-3.134559E-2,-5.7336754E-1,1.0130438E-1,-7.289083E-2,-4.8970603E-3,-4.3347874E-1,2.2564557E-1,4.355762E-3,-6.49089E-2,6.907971E-2,4.7928663E-3],"categories":[],"categories_nodes":[],"categories_segments":[],"categories_sizes":[],"default_left":[0,0,0,0,0,0,0,0,0,0,0],"id":36,"left_children":[1,3,5,-1,-1,7,9,-1,-1,-1,-1],"loss_changes":[1.4974595E0,2.9759943E-1,1.2237892E0,0E0,0E0,3.9203686E-1,1.1569738E0,0E0,0E0,0E0,0E0],"parents":[2147483647,0,0,1,1,2,2,5,5,6,6],"right_children":[2,4,6,-1,-1,8,10,-1,-1,-1,-1],"split_conditions":[5E-1,4.91E-1,-3.4E-2,-7.289083E-2,-4.8970603E-3,5.6E-2,2.6E-1,4.355762E-3,-6.49089E-2,6.907971E-2,4.7928663E-3],"split_indices":[0,3,1,0,0,2,3,0,0,0,0],"split_type":[0,0,0,0,0,0,0,0,0,0,0],"sum_hessian":[1.9019346E1,3.0862381E0,1.5933108E1,2.0794587E0,1.0067793E0,2.5367053E0,1.3396403E1,1.0380362E0,1.4986689E0,2.90524E0,1.0491163E1],"tree_param":{"num_deleted":"0","num_feature":"5","num_nodes":"11","size_leaf_vector":"1"}},{"base_weights":[-3.2122567E-2,-2.3827589E-1,2.9336756E-1,-1.4276369E-2,-8.0480054E-2,-1.9364813E-2,6.418905E-1,-3.65123E-2,2.167484E-2,-2.9242942E-2,1.99595E-2,8.278688E-2,1.1122636E-2],"categories":[],"categories_nodes":[],"categories_segments":[],"categories_sizes":[],"default_left":[0,0,0,0,0,0,0,0,0,0,0,0,0],"id":37,"left_children":[1,3,5,7,-1,9,11,-1,-1,-1,-1,-1,-1],"loss_changes":[1.3923979E0,1.589797E0,8.942707E-1,8.9462197E-1,0E0,3.7137005E-1,2.8844368E-1,0E0,0E0,0E0,0E0,0E0,0E0],"parents":[2147483647,0,0,1,1,2,2,3,3,5,5,6,6],"right_children":[2,4,6,8,-1,10,12,-1,-1,-1,-1,-1,-1],"split_conditions":[8.33E-1,2.82E-1,5E-3,6E-3,-8.0480054E-2,3.2E-1,7.28E-1,-3.65123E-2,2.167484E-2,-2.9242942E-2,1.99595E-2,8.278688E-2,1.1122636E-2],"split_indices":[0,2,1,1,0,3,3,0,0,0,0,0,0],"split_type":[0,0,0,0,0,0,0,0,0,0,0,0,0],"sum_hessian":[1.8709064E1,1.161837E1,7.090695E0,9.060942E0,2.5574276E0,4.235018E0,2.8556771E0,3.3670735E0,5.6938686E0,1.7353388E0,2.4996789E0,1.6998725E0,1.1558046E0],"tree_param":{"num_deleted":"0","num_feature":"5","num_nodes":"13","size_leaf_vector":"1"}},{"base_weights":[-3.0075552E-2,-4.6759063E-1,1.19164586E-1,-7.840613E-2,1.1351589E-3,-3.9495358E-1,2.4386506E-1,5.2214325E-3,-6.1537206E-2,6.679609E-2,8.161317E-3],"categories":[],"categories_nodes":[],"categories_segments":[],"categories_sizes":[],"default_left":[0,0,0,0,0,0,0,0,0,0,0],"id":38,"left_children":[1,3,5,-1,-1,7,9,-1,-1,-1,-1],"loss_changes":[1.3245867E0,7.8885686E-1,1.0763816E0,0E0,0E0,3.6388355E-1,8.345992E-1,0E0,0E0,0E0,0E0],"parents":[2147483647,0,0,1,1,2,2,5,5,6,6],"right_children":[2,4,6,-1,-1,8,10,-1,-1,-1,-1],"split_conditions":[5.83E-1,6.67E-1,-3.4E-2,-7.840613E-2,1.1351589E-3,5.6E-2,2.6E-1,5.2214325E-3,-6.1537206E-2,6.679609E-2,8.161317E-3],"split_indices":[0,4,1,0,0,2,3,0,0,0,0],"split_type":[0,0,0,0,0,0,0,0,0,0,0],"sum_hessian":[1.8432884E1,4.1458097E0,1.4287074E1,2.1127195E0,2.0330904E0,2.3658543E0,1.192122E1,1.033098E0,1.3327562E0,2.4363217E0,9.484898E0],"tree_param":{"num_deleted":"0","num_feature":"5","num_nodes":"11","size_leaf_vector":"1"}},{"base_weights":[-3.0753551E-2,-5.349822E-1,8.8651866E-2,-6.753027E-2,-8.4546525E-3,-2.6995328E-1,2.4920002E-1,1.885257E-2,-6.888206E-2,-5.58733E-2,3.7845336E-2],"categories":[],"categories_nodes":[],"categories_segments":[],"categories_sizes":[],"default_left":[0,0,0,0,0,0,0,0,0,0,0],"id":39,"left_children":[1,3,5,-1,-1,7,9,-1,-1,-1,-1],"loss_changes":[1.199748E0,1.8350685E-1,1.0075871E0,0E0,0E0,1.1920098E0,1.4438751E0,0E0,0E0,0E0,0E0],"parents":[2147483647,0,0,1,1,2,2,5,5,6,6],"right_children":[2,4,6,-1,-1,8,10,-1,-1,-1,-1],"split_conditions":[5E-1,7.5E-1,-6E-3,-6.753027E-2,-8.4546525E-3,6.8E-2,5.5E-2,1.885257E-2,-6.888206E-2,-5.58733E-2,3.7845336E-2],"split_indices":[0,4,1,0,0,2,2,0,0,0,0],"split_type":[0,0,0,0,0,0,0,0,0,0,0],"sum_hessian":[1.8139116E1,2.8066647E0,1.5332451E1,1.7593641E0,1.0473005E0,4.5308228E0,1.0801628E1,2.425673E0,2.1051497E0,1.0314562E0,9.770172E0],"tree_param":{"num_deleted":"0","num_feature":"5","num_nodes":"11","size_leaf_vector":"1"}},{"base_weights":[-3.5938907E-2,-2.7934346E-1,2.0711316E-1,-9.944136E-2,-6.976049E-2,-4.866158E-2,5.5327386E-1,-7.220846E-2,1.448035E-2,1.9681865E-2,-4.6132255E-2,8.227368E-2,-5.1896633E-3],"categories":[],"categories_nodes":[],"categories_segments":[],"categories_sizes":[],"default_left":[0,0,0,0,0,0,0,0,0,0,0,0,0],"id":40,"left_children":[1,3,5,7,-1,9,11,-1,-1,-1,-1,-1,-1],"loss_changes":[1.1762252E0,6.733826E-1,9.152514E-1,1.3315907E0,0E0,7.683961E-1,7.5110066E-1,0E0,0E0,0E0,0E0,0E0,0E0],"parents":[2147483647,0,0,1,1,2,2,3,3,5,5,6,6],"right_children":[2,4,6,8,-1,10,12,-1,-1,-1,-1,-1,-1],"split_conditions":[7.5E-1,2.82E-1,8E-3,5.6E-2,-6.976049E-2,5.83E-1,3.64E-1,-7.220846E-2,1.448035E-2,1.9681865E-2,-4.6132255E-2,8.227368E-2,-5.1896633E-3],"split_indices":[0,2,1,2,0,3,2,0,0,0,0,0,0],"split_type":[0,0,0,0,0,0,0,0,0,0,0,0,0],"sum_hessian":[1.7904156E1,8.870988E0,9.033169E0,7.0684595E0,1.8025284E0,5.6890273E0,3.3441412E0,1.4403187E0,5.628141E0,3.8950331E0,1.793994E0,2.0651047E0,1.2790366E0],"tree_param":{"num_deleted":"0","num_feature":"5","num_nodes":"13","size_leaf_vector":"1"}},{"base_weights":[-3.7212115E-2,-2.227054E-1,2.5307006E-1,3.9626184E-1,-4.0119323E-1,-7.7013366E-2,5.29809E-1,4.698944E-3,5.6238104E-2,1.1010969E-2,-5.6593467E-2,2.6442355E-2,-5.9473198E-2,-2.31745E-2,8.4138684E-2],"categories":[],"categories_nodes":[],"categories_segments":[],"categories_sizes":[],"default_left":[0,0,0,0,0,0,0,0,0,0,0,0,0,0,0],"id":41,"left_children":[1,3,5,7,9,11,13,-1,-1,-1,-1,-1,-1,-1,-1],"loss_changes":[1.05581E0,1.4688854E0,7.446083E-1,1.5673906E-1,8.793589E-1,9.3271023E-1,1.219564E0,0E0,0E0,0E0,0E0,0E0,0E0,0E0,0E0],"parents":[2147483647,0,0,1,1,2,2,3,3,4,4,5,5,6,6],"right_children":[2,4,6,8,10,12,14,-1,-1,-1,-1,-1,-1,-1,-1],"split_conditions":[8.33E-1,2.44E-1,5.83E-1,5E-3,5.9E-2,1.93E-1,-2E-3,4.698944E-3,5.6238104E-2,1.1010969E-2,-5.6593467E-2,2.6442355E-2,-5.9473198E-2,-2.31745E-2,8.4138684E-2],"split_indices":[0,3,4,1,2,2,1,0,0,0,0,0,0,0,0],"split_type":[0,0,0,0,0,0,0,0,0,0,0,0,0,0,0],"sum_hessian":[1.7561476E1,1.0856718E1,6.704757E0,2.156884E0,8.699834E0,3.3868117E0,3.3179455E0,1.1086878E0,1.0481962E0,2.2008245E0,6.4990096E0,2.3356779E0,1.051134E0,1.0377394E0,2.2802062E0],"tree_param":{"num_deleted":"0","num_feature":"5","num_nodes":"15","size_leaf_vector":"1"}},{"base_weights":[-3.178026E-2,-4.9748823E-1,7.628648E-2,-6.498663E-2,-5.357771E-3,-1.6087204E-1,2.816645E-1,4.7785044E-3,-4.9984306E-2,4.529386E-2,-2.1395218E-2],"categories":[],"categories_nodes":[],"categories_segments":[],"categories_sizes":[],"default_left":[0,0,0,0,0,0,0,0,0,0,0],"id":42,"left_children":[1,3,5,-1,-1,7,9,-1,-1,-1,-1],"loss_changes":[9.569434E-1,2.068097E-1,8.0943286E-1,0E0,0E0,5.8385795E-1,8.4143394E-1,0E0,0E0,0E0,0E0],"parents":[2147483647,0,0,1,1,2,2,5,5,6,6],"right_children":[2,4,6,-1,-1,8,10,-1,-1,-1,-1],"split_conditions":[5E-1,4.77E-1,6E-3,-6.498663E-2,-5.357771E-3,4.8E-1,3.64E-1,4.7785044E-3,-4.9984306E-2,4.529386E-2,-2.1395218E-2],"split_indices":[0,3,1,0,0,3,2,0,0,0,0],"split_type":[0,0,0,0,0,0,0,0,0,0,0],"sum_hessian":[1.7260214E1,2.5721483E0,1.46880665E1,1.5694547E0,1.0026937E0,6.9171953E0,7.7708707E0,4.8133297E0,2.1038656E0,5.8391137E0,1.9317567E0],"tree_param":{"num_deleted":"0","num_feature":"5","num_nodes":"11","size_leaf_vector":"1"}},{"base_weights":[-3.4247756E-2,-2.58225E-1,1.9144274E-1,-4.8656386E-1,2.7808405E-2,-3.614005E-2,3.2234207E-1,-2.0359702E-2,-7.103457E-2,3.6437705E-2,-3.8223173E-2,5.765388E-2,-5.545804E-3],"categories":[],"categories_nodes":[],"categories_segments":[],"categories_sizes":[],"default_left":[0,0,0,0,0,0,0,0,0,0,0,0,0],"id":43,"left_children":[1,3,5,7,9,-1,11,-1,-1,-1,-1,-1,-1],"loss_changes":[9.602811E-1,6.3200796E-1,8.075519E-1,1.9224632E-1,8.499579E-1,0E0,8.242427E-1,0E0,0E0,0E0,0E0,0E0,0E0],"parents":[2147483647,0,0,1,1,2,2,3,3,4,4,6,6],"right_children":[2,4,6,8,10,-1,12,-1,-1,-1,-1,-1,-1],"split_conditions":[7.5E-1,3.2E-2,-3.8E-2,5.83E-1,1.67E-1,-3.614005E-2,6.29E-1,-2.0359702E-2,-7.103457E-2,3.6437705E-2,-3.8223173E-2,5.765388E-2,-5.545804E-3],"split_indices":[0,1,1,4,2,0,3,0,0,0,0,0,0],"split_type":[0,0,0,0,0,0,0,0,0,0,0,0,0],"sum_hessian":[1.7018873E1,8.469506E0,8.549368E0,4.3198895E0,4.1496167E0,1.2996196E0,7.249748E0,2.7510514E0,1.5688379E0,2.3401446E0,1.8094721E0,4.019351E0,3.2303975E0],"tree_param":{"num_deleted":"0","num_feature":"5","num_nodes":"13","size_leaf_vector":"1"}},{"base_weights":[-3.571289E-2,-1.19833186E-1,5.235817E-2,-2.2490579E-1,3.6212736E-1,-5.8118748E-3,-5.7873953E-2,-1.694662E-2,7.393467E-2],"categories":[],"categories_nodes":[],"categories_segments":[],"categories_sizes":[],"default_left":[0,0,0,0,0,0,0,0,0],"id":44,"left_children":[1,3,-1,5,7,-1,-1,-1,-1],"loss_changes":[8.957713E-1,9.0206957E-1,0E0,7.879221E-1,7.837472E-1,0E0,0E0,0E0,0E0],"parents":[2147483647,0,0,1,1,3,3,4,4],"right_children":[2,4,-1,6,8,-1,-1,-1,-1],"split_conditions":[1E0,4.3E-2,5.235817E-2,2.82E-1,6.67E-1,-5.8118748E-3,-5.7873953E-2,-1.694662E-2,7.393467E-2],"split_indices":[0,1,0,2,4,0,0,0,0],"split_type":[0,0,0,0,0,0,0,0,0],"sum_hessian":[1.6705927E1,1.5204802E1,1.5011249E0,1.2921194E1,2.2836075E0,9.573009E0,3.3481863E0,1.1764511E0,1.1071565E0],"tree_param":{"num_deleted":"0","num_feature":"5","num_nodes":"9","size_leaf_vector":"1"}},{"base_weights":[-2.9902225E-2,-4.1254005E-1,9.705657E-2,-7.413862E-2,5.325442E-3,-3.163668E-1,2.2020671E-1,7.456335E-3,-6.3148685E-2,7.866444E-2,2.4625855E-3],"categories":[],"categories_nodes":[],"categories_segments":[],"categories_sizes":[],"default_left":[0,0,0,0,0,0,0,0,0,0,0],"id":45,"left_children":[1,3,5,-1,-1,7,9,-1,-1,-1,-1],"loss_changes":[8.941817E-1,7.396248E-1,7.8303933E-1,0E0,0E0,4.9379975E-1,1.2419473E0,0E0,0E0,0E0,0E0],"parents":[2147483647,0,0,1,1,2,2,5,5,6,6],"right_children":[2,4,6,-1,-1,8,10,-1,-1,-1,-1],"split_conditions":[5.83E-1,6.67E-1,-3.2E-2,-7.413862E-2,5.325442E-3,6.4E-2,2.6E-1,7.456335E-3,-6.3148685E-2,7.866444E-2,2.4625855E-3],"split_indices":[0,4,1,0,0,2,3,0,0,0,0],"split_type":[0,0,0,0,0,0,0,0,0,0,0],"sum_hessian":[1.658245E1,3.5708768E0,1.3011574E1,1.7463279E0,1.8245491E0,2.626221E0,1.0385353E1,1.5128268E0,1.1133941E0,1.8898659E0,8.495487E0],"tree_param":{"num_deleted":"0","num_feature":"5","num_nodes":"11","size_leaf_vector":"1"}},{"base_weights":[-2.987168E-2,-5.967027E-2,5.2377522E-2,-2.105785E-1,2.7732524E-1,-3.8267564E-2,1.6821368E-2,4.3348964E-2,-2.0165492E-2],"categories":[],"categories_nodes":[],"categories_segments":[],"categories_sizes":[],"default_left":[0,0,0,0,0,0,0,0,0],"id":46,"left_children":[1,-1,3,5,7,-1,-1,-1,-1],"loss_changes":[8.393914E-1,0E0,1.0081829E0,5.8401924E-1,7.6700336E-1,0E0,0E0,0E0,0E0],"parents":[2147483647,0,0,2,2,3,3,4,4],"right_children":[2,-1,4,6,8,-1,-1,-1,-1],"split_conditions":[2.5E-1,-5.967027E-2,6E-3,9.17E-1,3.64E-1,-3.8267564E-2,1.6821368E-2,4.3348964E-2,-2.0165492E-2],"split_indices":[0,0,1,0,2,0,0,0,0],"split_type":[0,0,0,0,0,0,0,0,0],"sum_hessian":[1.6334051E1,1.2772061E0,1.5056846E1,6.9714003E0,8.085445E0,4.786494E0,2.1849065E0,6.169081E0,1.9163638E0],"tree_param":{"num_deleted":"0","num_feature":"5","num_nodes":"9","size_leaf_vector":"1"}},{"base_weights":[-3.071024E-2,-2.4100794E-1,1.8127972E-1,-6.92124E-2,-7.517807E-2,-4.5376398E-2,4.9156514E-1,5.9384365E-2,-3.327712E-2,4.2451557E-2,-2.393626E-2,7.832878E-2,-7.5703724E-3],"categories":[],"categories_nodes":[],"categories_segments":[],"categories_sizes":[],"default_left":[0,0,0,0,0,0,0,0,0,0,0,0,0],"id":47,"left_children":[1,3,5,-1,7,9,11,-1,-1,-1,-1,-1,-1],"loss_changes":[8.0770224E-1,6.2367016E-1,6.626563E-1,0E0,1.5291537E0,6.646771E-1,7.0932907E-1,0E0,0E0,0E0,0E0,0E0,0E0],"parents":[2147483647,0,0,1,1,2,2,4,4,5,5,6,6],"right_children":[2,4,6,-1,8,10,12,-1,-1,-1,-1,-1,-1],"split_conditions":[7.5E-1,5.6E-2,8E-3,-6.92124E-2,6E-2,5.3E-2,7.28E-1,5.9384365E-2,-3.327712E-2,4.2451557E-2,-2.393626E-2,7.832878E-2,-7.5703724E-3],"split_indices":[0,2,1,0,2,2,3,0,0,0,0,0,0],"split_type":[0,0,0,0,0,0,0,0,0,0,0,0,0],"sum_hessian":[1.6137625E1,8.032431E0,8.105194E0,1.305986E0,6.7264442E0,5.1771607E0,2.9280334E0,1.5070288E0,5.219415E0,1.1655277E0,4.011633E0,1.6821624E0,1.2458708E0],"tree_param":{"num_deleted":"0","num_feature":"5","num_nodes":"13","size_leaf_vector":"1"}},{"base_weights":[-2.5269737E-2,-5.7366084E-2,5.2227154E-2,-1.8430918E-1,2.540203E-1,-5.971076E-2,-1.837632E-3,4.0329453E-2,-1.979003E-2],"categories":[],"categories_nodes":[],"categories_segments":[],"categories_sizes":[],"default_left":[0,0,0,0,0,0,0,0,0],"id":48,"left_children":[1,-1,3,5,7,-1,-1,-1,-1],"loss_changes":[7.486825E-1,0E0,7.9783505E-1,5.2488226E-1,6.8095994E-1,0E0,0E0,0E0,0E0],"parents":[2147483647,0,0,2,2,3,3,4,4],"right_children":[2,-1,4,6,8,-1,-1,-1,-1],"split_conditions":[2.5E-1,-5.7366084E-2,6E-3,6.67E-1,3.64E-1,-5.971076E-2,-1.837632E-3,4.0329453E-2,-1.979003E-2],"split_indices":[0,0,1,0,2,0,0,0,0],"split_type":[0,0,0,0,0,0,0,0,0],"sum_hessian":[1.5911656E1,1.1774311E0,1.4734225E1,6.823063E0,7.9111624E0,1.2112628E0,5.6117997E0,6.027735E0,1.883427E0],"tree_param":{"num_deleted":"0","num_feature":"5","num_nodes":"9","size_leaf_vector":"1"}},{"base_weights":[-2.9010154E-2,-1.0901318E-1,4.8738968E-2,-2.0868312E-1,3.3930492E-1,2.3049774E-2,-3.1627763E-2,-1.6561558E-2,6.8170376E-2],"categories":[],"categories_nodes":[],"categories_segments":[],"categories_sizes":[],"default_left":[0,0,0,0,0,0,0,0,0],"id":49,"left_children":[1,3,-1,5,7,-1,-1,-1,-1],"loss_changes":[7.4487454E-1,7.5513536E-1,0E0,6.942156E-1,6.603112E-1,0E0,0E0,0E0,0E0],"parents":[2147483647,0,0,1,1,3,3,4,4],"right_children":[2,4,-1,6,8,-1,-1,-1,-1],"split_conditions":[1E0,4.3E-2,4.8738968E-2,2.43E-1,6.67E-1,2.3049774E-2,-3.1627763E-2,-1.6561558E-2,6.8170376E-2],"split_indices":[0,1,0,3,4,0,0,0,0],"split_type":[0,0,0,0,0,0,0,0,0],"sum_hessian":[1.5743723E1,1.4314893E1,1.428831E0,1.2148551E1,2.1663418E0,2.1658146E0,9.982736E0,1.0840495E0,1.0822922E0],"tree_param":{"num_deleted":"0","num_feature":"5","num_nodes":"9","size_leaf_vector":"1"}},{"base_weights":[-2.0785278E-2,-5.581863E-2,5.3657528E-2,-1.6939504E-1,2.4260224E-1,-5.7563808E-2,-1.1917516E-3,-1.2023215E-5,5.38144E-2],"categories":[],"categories_nodes":[],"categories_segments":[],"categories_sizes":[],"default_left":[0,0,0,0,0,0,0,0,0],"id":50,"left_children":[1,-1,3,5,7,-1,-1,-1,-1],"loss_changes":[6.959033E-1,0E0,6.9574445E-1,4.8654455E-1,6.328239E-1,0E0,0E0,0E0,0E0],"parents":[2147483647,0,0,2,2,3,3,4,4],"right_children":[2,-1,4,6,8,-1,-1,-1,-1],"split_conditions":[2.5E-1,-5.581863E-2,6E-3,6.67E-1,6.67E-1,-5.7563808E-2,-1.1917516E-3,-1.2023215E-5,5.38144E-2],"split_indices":[0,0,1,0,4,0,0,0,0],"split_type":[0,0,0,0,0,0,0,0,0],"sum_hessian":[1.5646463E1,1.1130669E0,1.4533396E1,6.712564E0,7.8208323E0,1.1333938E0,5.57917E0,4.8429823E0,2.97785E0],"tree_param":{"num_deleted":"0","num_feature":"5","num_nodes":"9","size_leaf_vector":"1"}},{"base_weights":[-2.2691337E-2,-3.6743832E-1,8.563462E-2,-7.004001E-2,7.8381505E-3,4.6601146E-1,-2.7190417E-2,6.995089E-2,-1.2090349E-3,-5.3543646E-2,1.2129682E-2],"categories":[],"categories_nodes":[],"categories_segments":[],"categories_sizes":[],"default_left":[0,0,0,0,0,0,0,0,0,0,0],"id":51,"left_children":[1,3,5,-1,-1,7,9,-1,-1,-1,-1],"loss_changes":[6.4862144E-1,6.694712E-1,5.871277E-1,0E0,0E0,3.564502E-1,9.1534865E-1,0E0,0E0,0E0,0E0],"parents":[2147483647,0,0,1,1,2,2,5,5,6,6],"right_children":[2,4,6,-1,-1,8,10,-1,-1,-1,-1],"split_conditions":[5.83E-1,6.67E-1,2.43E-1,-7.004001E-2,7.8381505E-3,6.8E-2,3.2E-1,6.995089E-2,-1.2090349E-3,-5.3543646E-2,1.2129682E-2],"split_indices":[0,4,3,0,0,2,3,0,0,0,0],"split_type":[0,0,0,0,0,0,0,0,0,0,0],"sum_hessian":[1.5525777E1,3.1401837E0,1.2385593E1,1.4707283E0,1.6694555E0,2.1172235E0,1.026837E1,1.1113576E0,1.0058658E0,1.7324728E0,8.535897E0],"tree_param":{"num_deleted":"0","num_feature":"5","num_nodes":"11","size_leaf_vector":"1"}},{"base_weights":[-2.2695629E-2,-9.7710006E-2,4.5491762E-2,-1.9294308E-1,3.2693082E-1,-3.2869452E-3,-5.3686883E-2,-1.3574133E-2,6.323705E-2],"categories":[],"categories_nodes":[],"categories_segments":[],"categories_sizes":[],"default_left":[0,0,0,0,0,0,0,0,0],"id":52,"left_children":[1,3,-1,5,7,-1,-1,-1,-1],"loss_changes":[6.335178E-1,6.710113E-1,0E0,6.9298565E-1,5.274522E-1,0E0,0E0,0E0,0E0],"parents":[2147483647,0,0,1,1,3,3,4,4],"right_children":[2,4,-1,6,8,-1,-1,-1,-1],"split_conditions":[1E0,4.3E-2,4.5491762E-2,2.82E-1,6.67E-1,-3.2869452E-3,-5.3686883E-2,-1.3574133E-2,6.323705E-2],"split_indices":[0,1,0,2,4,0,0,0,0],"split_type":[0,0,0,0,0,0,0,0,0],"sum_hessian":[1.5441612E1,1.4032997E1,1.4086152E0,1.1908044E1,2.124953E0,8.873579E0,3.0344656E0,1.0659168E0,1.0590364E0],"tree_param":{"num_deleted":"0","num_feature":"5","num_nodes":"9","size_leaf_vector":"1"}},{"base_weights":[-1.83203E-2,-5.3807404E-2,5.1841997E-2,-4.098759E-2,4.852528E-2,-1.3072523E-2,4.3096174E-2],"categories":[],"categories_nodes":[],"categories_segments":[],"categories_sizes":[],"default_left":[0,0,0,0,0,0,0],"id":53,"left_children":[1,-1,3,5,-1,-1,-1],"loss_changes":[6.2381613E-1,0E0,6.358571E-1,6.294104E-1,0E0,0E0,0E0],"parents":[2147483647,0,0,2,2,3,3],"right_children":[2,-1,4,6,-1,-1,-1],"split_conditions":[2.5E-1,-5.3807404E-2,4.3E-2,1E0,4.852528E-2,-1.3072523E-2,4.3096174E-2],"split_indices":[0,0,1,0,0,0,0],"split_type":[0,0,0,0,0,0,0],"sum_hessian":[1.5341334E1,1.0314544E0,1.430988E1,1.2531307E1,1.7785732E0,1.1136747E1,1.3945596E0],"tree_param":{"num_deleted":"0","num_feature":"5","num_nodes":"7","size_leaf_vector":"1"}},{"base_weights":[-1.5107256E-2,-3.5225722E-1,8.757735E-2,-6.784358E-2,7.190924E-3,-3.000086E-2,1.8089525E-1,-3.7157424E-2,2.7417129E-2],"categories":[],"categories_nodes":[],"categories_segments":[],"categories_sizes":[],"default_left":[0,0,0,0,0,0,0,0,0],"id":54,"left_children":[1,3,5,-1,-1,-1,7,-1,-1],"loss_changes":[5.933856E-1,6.0117716E-1,5.3373057E-1,0E0,0E0,0E0,6.845871E-1,0E0,0E0],"parents":[2147483647,0,0,1,1,2,2,6,6],"right_children":[2,4,6,-1,-1,-1,8,-1,-1],"split_conditions":[5.83E-1,6.67E-1,-3.4E-2,-6.784358E-2,7.190924E-3,-3.000086E-2,5.4E-2,-3.7157424E-2,2.7417129E-2],"split_indices":[0,4,1,0,0,0,2,0,0],"split_type":[0,0,0,0,0,0,0,0,0],"sum_hessian":[1.52488165E1,2.9925935E0,1.2256223E1,1.3528289E0,1.6397647E0,1.9484859E0,1.0307737E1,1.0579501E0,9.249787E0],"tree_param":{"num_deleted":"0","num_feature":"5","num_nodes":"9","size_leaf_vector":"1"}},{"base_weights":[-2.0037506E-2,-2.0038155E-1,1.5488088E-1,-6.349095E-2,-4.5809444E-2,-4.1619383E-2,4.3771982E-1,5.160747E-2,-2.8199617E-2,4.2876825E-2,-2.387203E-2,7.3442556E-2,-1.0502179E-2],"categories":[],"categories_nodes":[],"categories_segments":[],"categories_sizes":[],"default_left":[0,0,0,0,0,0,0,0,0,0,0,0,0],"id":55,"left_children":[1,3,5,-1,7,9,11,-1,-1,-1,-1,-1,-1],"loss_changes":[5.403914E-1,5.341699E-1,5.0511885E-1,0E0,1.1094543E0,6.662885E-1,6.694455E-1,0E0,0E0,0E0,0E0,0E0,0E0],"parents":[2147483647,0,0,1,1,2,2,4,4,5,5,6,6],"right_children":[2,4,6,-1,8,10,12,-1,-1,-1,-1,-1,-1],"split_conditions":[7.5E-1,5.6E-2,8E-3,-6.349095E-2,6E-2,5.3E-2,7.28E-1,5.160747E-2,-2.8199617E-2,4.2876825E-2,-2.387203E-2,7.3442556E-2,-1.0502179E-2],"split_indices":[0,2,1,0,2,2,3,0,0,0,0,0,0],"split_type":[0,0,0,0,0,0,0,0,0,0,0,0,0],"sum_hessian":[1.5146719E1,7.386023E0,7.7606955E0,1.1226203E0,6.263403E0,5.0825105E0,2.6781855E0,1.5029299E0,4.7604733E0,1.1537278E0,3.9287825E0,1.5032257E0,1.1749597E0],"tree_param":{"num_deleted":"0","num_feature":"5","num_nodes":"13","size_leaf_vector":"1"}},{"base_weights":[-1.5580933E-2,-3.8867842E-2,6.2134925E-2,4.0263224E-1,-3.176626E-2,6.420227E-2,-4.1844235E-3,-4.925358E-2,1.2090326E-2],"categories":[],"categories_nodes":[],"categories_segments":[],"categories_sizes":[],"default_left":[0,0,0,0,0,0,0,0,0],"id":56,"left_children":[1,-1,3,5,7,-1,-1,-1,-1],"loss_changes":[4.8692328E-1,0E0,4.6268082E-1,3.5828483E-1,9.0061104E-1,0E0,0E0,0E0,0E0],"parents":[2147483647,0,0,2,2,3,3,4,4],"right_children":[2,-1,4,6,8,-1,-1,-1,-1],"split_conditions":[5E-1,-3.8867842E-2,2.43E-1,6.8E-2,3.2E-1,6.420227E-2,-4.1844235E-3,-4.925358E-2,1.2090326E-2],"split_indices":[0,0,3,2,3,0,0,0,0],"split_type":[0,0,0,0,0,0,0,0,0],"sum_hessian":[1.4960109E1,1.889197E0,1.3070912E1,2.1147475E0,1.0956164E1,1.0856047E0,1.0291427E0,2.1726792E0,8.783485E0],"tree_param":{"num_deleted":"0","num_feature":"5","num_nodes":"9","size_leaf_vector":"1"}},{"base_weights":[-1.5059063E-2,-8.191754E-2,4.014751E-2,5.1663924E-2,-3.9125988E-1,-2.4494551E-2,3.188149E-2,-6.939038E-2,3.8715564E-3],"categories":[],"categories_nodes":[],"categories_segments":[],"categories_sizes":[],"default_left":[0,0,0,0,0,0,0,0,0],"id":57,"left_children":[1,3,-1,5,7,-1,-1,-1,-1],"loss_changes":[4.755671E-1,6.205361E-1,0E0,9.520793E-1,6.121965E-1,0E0,0E0,0E0,0E0],"parents":[2147483647,0,0,1,1,3,3,4,4],"right_children":[2,4,-1,6,8,-1,-1,-1,-1],"split_conditions":[1E0,2.82E-1,4.014751E-2,3.24E-1,8.33E-1,-2.4494551E-2,3.188149E-2,-6.939038E-2,3.8715564E-3],"split_indices":[0,2,0,3,0,0,0,0,0],"split_type":[0,0,0,0,0,0,0,0,0],"sum_hessian":[1.4895787E1,1.3527762E1,1.3680246E0,1.0029689E1,3.4980733E0,4.792189E0,5.2374997E0,1.6927718E0,1.8053014E0],"tree_param":{"num_deleted":"0","num_feature":"5","num_nodes":"9","size_leaf_vector":"1"}},{"base_weights":[-1.4968094E-2,-1.7858613E-1,1.4189057E-1,-6.1040428E-2,-2.825628E-2,-2.9336525E-2,2.4847767E-1,1.7648352E-2,-5.7708036E-2,5.0430503E-2,-9.380571E-3],"categories":[],"categories_nodes":[],"categories_segments":[],"categories_sizes":[],"default_left":[0,0,0,0,0,0,0,0,0,0,0],"id":58,"left_children":[1,3,5,-1,7,-1,9,-1,-1,-1,-1],"loss_changes":[4.3111083E-1,5.1383555E-1,4.7322428E-1,0E0,9.0156335E-1,0E0,7.016937E-1,0E0,0E0,0E0,0E0],"parents":[2147483647,0,0,1,1,2,2,4,4,6,6],"right_children":[2,4,6,-1,8,-1,10,-1,-1,-1,-1],"split_conditions":[7.5E-1,5.6E-2,-3.8E-2,-6.1040428E-2,2.82E-1,-2.9336525E-2,6.29E-1,1.7648352E-2,-5.7708036E-2,5.0430503E-2,-9.380571E-3],"split_indices":[0,2,1,0,2,0,3,0,0,0,0],"split_type":[0,0,0,0,0,0,0,0,0,0,0],"sum_hessian":[1.4810349E1,7.1811905E0,7.6291595E0,1.0641159E0,6.1170745E0,1.1560395E0,6.4731197E0,4.9492E0,1.1678747E0,3.4335108E0,3.0396092E0],"tree_param":{"num_deleted":"0","num_feature":"5","num_nodes":"11","size_leaf_vector":"1"}},{"base_weights":[-1.9443061E-2,-8.281591E-2,3.7644934E-2,-2.3723997E-1,1.6230586E-1,1.8473344E-2,-3.667692E-2,4.158796E-2,-1.2362314E-2],"categories":[],"categories_nodes":[],"categories_segments":[],"categories_sizes":[],"default_left":[0,0,0,0,0,0,0,0,0],"id":59,"left_children":[1,3,-1,5,7,-1,-1,-1,-1],"loss_changes":[4.219894E-1,5.778083E-1,0E0,5.677116E-1,4.93715E-1,0E0,0E0,0E0,0E0],"parents":[2147483647,0,0,1,1,3,3,4,4],"right_children":[2,4,-1,6,8,-1,-1,-1,-1],"split_conditions":[1E0,3.2E-2,3.7644934E-2,2.43E-1,1.68E-1,1.8473344E-2,-3.667692E-2,4.158796E-2,-1.2362314E-2],"split_indices":[0,1,0,3,2,0,0,0,0],"split_type":[0,0,0,0,0,0,0,0,0],"sum_hessian":[1.4577188E1,1.3247408E1,1.3297791E0,8.147025E0,5.100383E0,1.8133614E0,6.333664E0,2.4622617E0,2.6381214E0],"tree_param":{"num_deleted":"0","num_feature":"5","num_nodes":"9","size_leaf_vector":"1"}},{"base_weights":[-1.4519843E-2,-3.117875E-1,7.4571475E-2,-6.4127564E-2,9.2811845E-3,4.1354384E-2,-2.478128E-2,-4.5951493E-2,1.0584933E-2],"categories":[],"categories_nodes":[],"categories_segments":[],"categories_sizes":[],"default_left":[0,0,0,0,0,0,0,0,0],"id":60,"left_children":[1,3,5,-1,-1,-1,7,-1,-1],"loss_changes":[4.3323335E-1,5.611225E-1,4.3855435E-1,0E0,0E0,0E0,6.607479E-1,0E0,0E0],"parents":[2147483647,0,0,1,1,2,2,6,6],"right_children":[2,4,6,-1,-1,-1,8,-1,-1],"split_conditions":[5.83E-1,6.67E-1,2.43E-1,-6.4127564E-2,9.2811845E-3,4.1354384E-2,3.2E-1,-4.5951493E-2,1.0584933E-2],"split_indices":[0,4,3,0,0,0,3,0,0],"split_type":[0,0,0,0,0,0,0,0,0],"sum_hessian":[1.4480419E1,2.762673E0,1.1717746E1,1.2002648E0,1.5624081E0,1.939198E0,9.778548E0,1.6776677E0,8.100881E0],"tree_param":{"num_deleted":"0","num_feature":"5","num_nodes":"9","size_leaf_vector":"1"}},{"base_weights":[-1.634698E-2,-2.5594506E-1,8.86737E-2,1.7437425E-1,-6.532555E-2,-6.909691E-2,2.3080146E-1,-1.4394318E-2,4.1652307E-2,3.4714371E-3,4.985596E-2],"categories":[],"categories_nodes":[],"categories_segments":[],"categories_sizes":[],"default_left":[0,0,0,0,0,0,0,0,0,0,0],"id":61,"left_children":[1,3,5,7,-1,-1,9,-1,-1,-1,-1],"loss_changes":[4.107069E-1,9.61324E-1,1.4297425E0,3.0420062E-1,0E0,0E0,5.311286E-1,0E0,0E0,0E0,0E0],"parents":[2147483647,0,0,1,1,2,2,3,3,6,6],"right_children":[2,4,6,8,-1,-1,10,-1,-1,-1,-1],"split_conditions":[-6E-3,6.8E-2,5.4E-2,8.33E-1,-6.532555E-2,-6.909691E-2,8.33E-1,-1.4394318E-2,4.1652307E-2,3.4714371E-3,4.985596E-2],"split_indices":[1,2,2,0,0,0,0,0,0,0,0],"split_type":[0,0,0,0,0,0,0,0,0,0,0],"sum_hessian":[1.4420065E1,3.9564903E0,1.0463575E1,2.1687126E0,1.7877774E0,1.0179574E0,9.445618E0,1.1122112E0,1.0565015E0,6.1046515E0,3.3409662E0],"tree_param":{"num_deleted":"0","num_feature":"5","num_nodes":"11","size_leaf_vector":"1"}},{"base_weights":[-1.8479096E-2,-8.966702E-2,3.0271871E-2,-1.6869509E-1,3.6954515E-2,5.422397E-3,-4.6918616E-2],"categories":[],"categories_nodes":[],"categories_segments":[],"categories_sizes":[],"default_left":[0,0,0,0,0,0,0],"id":62,"left_children":[1,3,-1,5,-1,-1,-1],"loss_changes":[3.76072E-1,5.436647E-1,0E0,8.294139E-1,0E0,0E0,0E0],"parents":[2147483647,0,0,1,1,3,3],"right_children":[2,4,-1,6,-1,-1,-1],"split_conditions":[4.3E-2,8.71E-1,3.0271871E-2,4.66E-1,3.6954515E-2,5.422397E-3,-4.6918616E-2],"split_indices":[1,3,0,3,0,0,0],"split_type":[0,0,0,0,0,0,0],"sum_hessian":[1.4260089E1,1.2263036E1,1.9970539E0,1.1002247E1,1.2607884E0,6.7869225E0,4.2153244E0],"tree_param":{"num_deleted":"0","num_feature":"5","num_nodes":"7","size_leaf_vector":"1"}},{"base_weights":[-1.51080685E-2,-3.5658743E-2,5.517846E-2,-1.1787175E-1,2.0502402E-1,7.7298866E-3,-4.3947715E-2,3.581276E-2,-2.1188073E-2],"categories":[],"categories_nodes":[],"categories_segments":[],"categories_sizes":[],"default_left":[0,0,0,0,0,0,0,0,0],"id":63,"left_children":[1,-1,3,5,7,-1,-1,-1,-1],"loss_changes":[3.846109E-1,0E0,3.735934E-1,4.6634382E-1,5.601506E-1,0E0,0E0,0E0,0E0],"parents":[2147483647,0,0,2,2,3,3,4,4],"right_children":[2,-1,4,6,8,-1,-1,-1,-1],"split_conditions":[5E-1,-3.5658743E-2,6E-3,4.8E-1,3.64E-1,7.7298866E-3,-4.3947715E-2,3.581276E-2,-2.1188073E-2],"split_indices":[0,0,1,3,2,0,0,0,0],"split_type":[0,0,0,0,0,0,0,0,0],"sum_hessian":[1.420474E1,1.7293831E0,1.2475356E1,5.888435E0,6.5869217E0,4.137303E0,1.7511317E0,4.9207983E0,1.6661235E0],"tree_param":{"num_deleted":"0","num_feature":"5","num_nodes":"9","size_leaf_vector":"1"}},{"base_weights":[-1.7616073E-2,-1.7306145E-1,1.3212018E-1,-3.5274763E-2,-5.4533448E-2,-4.4630285E-2,3.8966972E-1,-2.4597336E-2,5.857069E-2,3.97917E-2,-2.3354487E-2,6.964975E-2,-1.2598181E-2],"categories":[],"categories_nodes":[],"categories_segments":[],"categories_sizes":[],"default_left":[0,0,0,0,0,0,0,0,0,0,0,0,0],"id":64,"left_children":[1,3,5,7,-1,9,11,-1,-1,-1,-1,-1,-1],"loss_changes":[3.7320507E-1,3.8178083E-1,3.9220592E-1,1.0305352E0,0E0,5.7616115E-1,6.341775E-1,0E0,0E0,0E0,0E0,0E0,0E0],"parents":[2147483647,0,0,1,1,2,2,3,3,5,5,6,6],"right_children":[2,4,6,8,-1,10,12,-1,-1,-1,-1,-1,-1],"split_conditions":[7.5E-1,2.82E-1,8E-3,4.87E-1,-5.4533448E-2,5.3E-2,7.28E-1,-2.4597336E-2,5.857069E-2,3.97917E-2,-2.3354487E-2,6.964975E-2,-1.2598181E-2],"split_indices":[0,2,1,3,0,2,3,0,0,0,0,0,0],"split_type":[0,0,0,0,0,0,0,0,0,0,0,0,0],"sum_hessian":[1.4051685E1,6.817978E0,7.233708E0,5.7752004E0,1.0427775E0,4.7800074E0,2.4537E0,4.7630105E0,1.0121897E0,1.0990542E0,3.6809533E0,1.3184626E0,1.1352376E0],"tree_param":{"num_deleted":"0","num_feature":"5","num_nodes":"13","size_leaf_vector":"1"}},{"base_weights":[-1.24321645E-2,-7.471525E-2,3.6328565E-2,-1.5926036E-1,2.858205E-2,-2.282079E-3,-4.6480782E-2],"categories":[],"categories_nodes":[],"categories_segments":[],"categories_sizes":[],"default_left":[0,0,0,0,0,0,0],"id":65,"left_children":[1,3,-1,5,-1,-1,-1],"loss_changes":[3.7608466E-1,4.6069402E-1,0E0,4.7612628E-1,0E0,0E0,0E0],"parents":[2147483647,0,0,1,1,3,3],"right_children":[2,4,-1,6,-1,-1,-1],"split_conditions":[1E0,4.3E-2,3.6328565E-2,2.82E-1,2.858205E-2,-2.282079E-3,-4.6480782E-2],"split_indices":[0,1,0,2,0,0,0],"split_type":[0,0,0,0,0,0,0],"sum_hessian":[1.3911489E1,1.2620514E1,1.2909743E0,1.0675413E1,1.9451015E0,8.122893E0,2.5525193E0],"tree_param":{"num_deleted":"0","num_feature":"5","num_nodes":"7","size_leaf_vector":"1"}},{"base_weights":[-1.0224001E-2,-2.8983054E-1,7.246041E-2,-6.2061697E-2,1.0319567E-2,2.751763E-1,-7.582185E-2,-1.5302919E-2,5.7070833E-2,-5.6522097E-2,2.0564852E-2],"categories":[],"categories_nodes":[],"categories_segments":[],"categories_sizes":[],"default_left":[0,0,0,0,0,0,0,0,0,0,0],"id":66,"left_children":[1,3,5,-1,-1,7,9,-1,-1,-1,-1],"loss_changes":[3.6421695E-1,5.3053284E-1,3.8931143E-1,0E0,0E0,7.699704E-1,1.1993939E0,0E0,0E0,0E0,0E0],"parents":[2147483647,0,0,1,1,2,2,5,5,6,6],"right_children":[2,4,6,-1,-1,8,10,-1,-1,-1,-1],"split_conditions":[5.83E-1,6.67E-1,6.8E-2,-6.2061697E-2,1.0319567E-2,5.6E-2,-3E-3,-1.5302919E-2,5.7070833E-2,-5.6522097E-2,2.0564852E-2],"split_indices":[0,4,2,0,0,2,1,0,0,0,0],"split_type":[0,0,0,0,0,0,0,0,0,0,0],"sum_hessian":[1.3845547E1,2.588154E0,1.1257393E1,1.0909199E0,1.4972341E0,4.3942614E0,6.863131E0,1.9912577E0,2.4030037E0,2.1378684E0,4.7252626E0],"tree_param":{"num_deleted":"0","num_feature":"5","num_nodes":"11","size_leaf_vector":"1"}},{"base_weights":[-1.2546359E-2,-1.6717964E-1,1.361825E-1,-3.513637E-1,4.120156E-2,-2.5618244E-2,2.3246044E-1,-8.146491E-3,-5.902651E-2,3.1338282E-2,-3.1265706E-2,4.5924224E-2,-7.104782E-3],"categories":[],"categories_nodes":[],"categories_segments":[],"categories_sizes":[],"default_left":[0,0,0,0,0,0,0,0,0,0,0,0,0],"id":67,"left_children":[1,3,5,7,9,-1,11,-1,-1,-1,-1,-1,-1],"loss_changes":[3.6116683E-1,3.0857652E-1,3.6369893E-1,2.2095263E-1,5.3045434E-1,0E0,5.13697E-1,0E0,0E0,0E0,0E0,0E0,0E0],"parents":[2147483647,0,0,1,1,2,2,3,3,4,4,6,6],"right_children":[2,4,6,8,10,-1,12,-1,-1,-1,-1,-1,-1],"split_conditions":[7.5E-1,3.2E-2,-3.8E-2,5.83E-1,1.67E-1,-2.5618244E-2,6.29E-1,-8.146491E-3,-5.902651E-2,3.1338282E-2,-3.1265706E-2,4.5924224E-2,-7.104782E-3],"split_indices":[0,1,1,4,2,0,3,0,0,0,0,0,0],"split_type":[0,0,0,0,0,0,0,0,0,0,0,0,0],"sum_hessian":[1.3714042E1,6.6627398E0,7.051302E0,3.1724846E0,3.490255E0,1.0620852E0,5.989217E0,2.119255E0,1.0532296E0,2.0374625E0,1.4527928E0,3.1342146E0,2.8550022E0],"tree_param":{"num_deleted":"0","num_feature":"5","num_nodes":"13","size_leaf_vector":"1"}},{"base_weights":[-1.5106194E-2,-7.684099E-2,3.5286747E-2,-2.4762867E-1,1.3359754E-1,4.656063E-3,-5.4777373E-2,4.1401464E-2,-1.3657942E-2],"categories":[],"categories_nodes":[],"categories_segments":[],"categories_sizes":[],"default_left":[0,0,0,0,0,0,0,0,0],"id":68,"left_children":[1,3,-1,5,7,-1,-1,-1,-1],"loss_changes":[3.5729894E-1,5.099324E-1,0E0,7.031448E-1,5.5608326E-1,0E0,0E0,0E0,0E0],"parents":[2147483647,0,0,1,1,3,3,4,4],"right_children":[2,4,-1,6,8,-1,-1,-1,-1],"split_conditions":[8.71E-1,1.3E-2,3.5286747E-2,3.59E-1,3.9E-2,4.656063E-3,-5.4777373E-2,4.1401464E-2,-1.3657942E-2],"split_indices":[3,1,0,3,1,0,0,0,0],"split_type":[0,0,0,0,0,0,0,0,0],"sum_hessian":[1.3534819E1,1.2267829E1,1.2669907E0,6.6743407E0,5.5934877E0,3.7972813E0,2.8770592E0,2.4834883E0,3.1099997E0],"tree_param":{"num_deleted":"0","num_feature":"5","num_nodes":"9","size_leaf_vector":"1"}},{"base_weights":[-1.2913358E-2,-2.8421876E-1,6.817374E-2,-6.0586143E-2,9.565245E-3,3.784415E-2,-2.2868E-2,-4.434098E-2,1.2212064E-2],"categories":[],"categories_nodes":[],"categories_segments":[],"categories_sizes":[],"default_left":[0,0,0,0,0,0,0,0,0],"id":69,"left_children":[1,3,5,-1,-1,-1,7,-1,-1],"loss_changes":[3.3726677E-1,4.878482E-1,3.4568763E-1,0E0,0E0,0E0,6.741146E-1,0E0,0E0],"parents":[2147483647,0,0,1,1,2,2,6,6],"right_children":[2,4,6,-1,-1,-1,8,-1,-1],"split_conditions":[5.83E-1,6.67E-1,2.43E-1,-6.0586143E-2,9.565245E-3,3.784415E-2,3.24E-1,-4.434098E-2,1.2212064E-2],"split_indices":[0,4,3,0,0,0,3,0,0],"split_type":[0,0,0,0,0,0,0,0,0],"sum_hessian":[1.34499855E1,2.5184662E0,1.09315195E1,1.0416082E0,1.476858E0,1.7637874E0,9.167732E0,1.8227062E0,7.3450255E0],"tree_param":{"num_deleted":"0","num_feature":"5","num_nodes":"9","size_leaf_vector":"1"}},{"base_weights":[-1.485181E-2,-7.45977E-2,3.428537E-2,-1.576482E-1,2.7277797E-2,-2.922977E-3,-4.4263083E-2],"categories":[],"categories_nodes":[],"categories_segments":[],"categories_sizes":[],"default_left":[0,0,0,0,0,0,0],"id":70,"left_children":[1,3,-1,5,-1,-1,-1],"loss_changes":[3.3339489E-1,4.2275694E-1,0E0,3.990379E-1,0E0,0E0,0E0],"parents":[2147483647,0,0,1,1,3,3],"right_children":[2,4,-1,6,-1,-1,-1],"split_conditions":[1E0,4.3E-2,3.428537E-2,2.82E-1,2.7277797E-2,-2.922977E-3,-4.4263083E-2],"split_indices":[0,1,0,2,0,0,0],"split_type":[0,0,0,0,0,0,0],"sum_hessian":[1.3403281E1,1.2163177E1,1.240104E0,1.0257088E1,1.9060888E0,7.830905E0,2.4261832E0],"tree_param":{"num_deleted":"0","num_feature":"5","num_nodes":"7","size_leaf_vector":"1"}},{"base_weights":[-1.2481999E-2,-2.7843133E-1,6.635273E-2,-5.1911037E-2,1.4654524E-2,2.4029122E-1,-8.077493E-2,-4.4598277E-3,7.36512E-2,-3.9720435E-2,2.5173604E-2],"categories":[],"categories_nodes":[],"categories_segments":[],"categories_sizes":[],"default_left":[0,0,0,0,0,0,0,0,0,0,0],"id":71,"left_children":[1,3,5,-1,-1,7,9,-1,-1,-1,-1],"loss_changes":[3.1922966E-1,4.312398E-1,3.2323974E-1,0E0,0E0,8.3752954E-1,8.5548115E-1,0E0,0E0,0E0,0E0],"parents":[2147483647,0,0,1,1,2,2,5,5,6,6],"right_children":[2,4,6,-1,-1,8,10,-1,-1,-1,-1],"split_conditions":[5.83E-1,4.25E-1,3.82E-1,-5.1911037E-2,1.4654524E-2,3.24E-1,8.33E-1,-4.4598277E-3,7.36512E-2,-3.9720435E-2,2.5173604E-2],"split_indices":[0,3,3,0,0,3,0,0,0,0,0],"split_type":[0,0,0,0,0,0,0,0,0,0,0],"sum_hessian":[1.3344861E1,2.4723938E0,1.0872468E1,1.4370427E0,1.0353509E0,4.6921086E0,6.1803594E0,3.558965E0,1.1331434E0,3.0670674E0,3.1132917E0],"tree_param":{"num_deleted":"0","num_feature":"5","num_nodes":"11","size_leaf_vector":"1"}},{"base_weights":[-1.0176337E-2,-6.822263E-2,3.249246E-2,-2.3432039E-1,1.3504551E-1,4.1129976E-3,-5.1995832E-2,4.015626E-2,-1.2315573E-2],"categories":[],"categories_nodes":[],"categories_segments":[],"categories_sizes":[],"default_left":[0,0,0,0,0,0,0,0,0],"id":72,"left_children":[1,3,-1,5,7,-1,-1,-1,-1],"loss_changes":[2.9947767E-1,4.6981746E-1,0E0,6.1208546E-1,4.94719E-1,0E0,0E0,0E0,0E0],"parents":[2147483647,0,0,1,1,3,3,4,4],"right_children":[2,4,-1,6,8,-1,-1,-1,-1],"split_conditions":[8.71E-1,1.3E-2,3.249246E-2,3.59E-1,3.9E-2,4.1129976E-3,-5.1995832E-2,4.015626E-2,-1.2315573E-2],"split_indices":[3,1,0,3,1,0,0,0,0],"split_type":[0,0,0,0,0,0,0,0,0],"sum_hessian":[1.3256606E1,1.1978157E1,1.2784487E0,6.507708E0,5.470449E0,3.7487082E0,2.7589998E0,2.4186602E0,3.0517888E0],"tree_param":{"num_deleted":"0","num_feature":"5","num_nodes":"9","size_leaf_vector":"1"}},{"base_weights":[-8.4441835E-3,-3.2072704E-2,5.5502914E-2,-2.1753073E-1,1.3282046E-1,-4.5697313E-2,1.4410495E-2,6.643928E-2,-4.2488324E-3],"categories":[],"categories_nodes":[],"categories_segments":[],"categories_sizes":[],"default_left":[0,0,0,0,0,0,0,0,0],"id":73,"left_children":[1,-1,3,5,7,-1,-1,-1,-1],"loss_changes":[3.0093795E-1,0E0,2.9532546E-1,3.398589E-1,1.0026736E0,0E0,0E0,0E0,0E0],"parents":[2147483647,0,0,2,2,3,3,4,4],"right_children":[2,-1,4,6,8,-1,-1,-1,-1],"split_conditions":[5E-1,-3.2072704E-2,-3.2E-2,3.3E-1,2.6E-1,-4.5697313E-2,1.4410495E-2,6.643928E-2,-4.2488324E-3],"split_indices":[0,0,1,3,3,0,0,0,0],"split_type":[0,0,0,0,0,0,0,0,0],"sum_hessian":[1.3178398E1,1.5573995E0,1.1620998E1,2.1643822E0,9.456616E0,1.1435791E0,1.0208031E0,1.6533811E0,7.803235E0],"tree_param":{"num_deleted":"0","num_feature":"5","num_nodes":"9","size_leaf_vector":"1"}},{"base_weights":[-7.6529556E-3,-1.9979072E-1,1.0500022E-1,2.0360559E-1,-6.558092E-2,4.7101805E-1,-1.5309401E-1,-3.1361185E-2,5.2571025E-2,2.0968137E-2,6.051914E-2,-6.204393E-2,1.1517376E-2],"categories":[],"categories_nodes":[],"categories_segments":[],"categories_sizes":[],"default_left":[0,0,0,0,0,0,0,0,0,0,0,0,0],"id":74,"left_children":[1,3,5,7,-1,9,11,-1,-1,-1,-1,-1,-1],"loss_changes":[3.252067E-1,1.1525509E0,9.710519E-1,7.8168654E-1,0E0,1.968944E-2,8.657541E-1,0E0,0E0,0E0,0E0,0E0,0E0],"parents":[2147483647,0,0,1,1,2,2,3,3,5,5,6,6],"right_children":[2,4,6,8,-1,10,12,-1,-1,-1,-1,-1,-1],"split_conditions":[3.24E-1,2.6E-1,1.66E-1,-2.8E-2,-6.558092E-2,2.1E-2,2E-3,-3.1361185E-2,5.2571025E-2,2.0968137E-2,6.051914E-2,-6.204393E-2,1.1517376E-2],"split_indices":[3,3,2,1,0,1,1,0,0,0,0,0,0],"split_type":[0,0,0,0,0,0,0,0,0,0,0,0,0],"sum_hessian":[1.3055423E1,4.539496E0,8.515926E0,2.7024283E0,1.8370676E0,3.1804988E0,5.3354278E0,1.0472231E0,1.6552054E0,1.9483525E0,1.2321464E0,1.46701E0,3.8684175E0],"tree_param":{"num_deleted":"0","num_feature":"5","num_nodes":"13","size_leaf_vector":"1"}},{"base_weights":[-7.968626E-3,-2.6590267E-1,6.834154E-2,-4.940894E-2,1.3099484E-2,2.4861681E-1,-6.518737E-2,-1.5323909E-2,5.2850407E-2,-5.19748E-2,1.890687E-2],"categories":[],"categories_nodes":[],"categories_segments":[],"categories_sizes":[],"default_left":[0,0,0,0,0,0,0,0,0,0,0],"id":75,"left_children":[1,3,5,-1,-1,7,9,-1,-1,-1,-1],"loss_changes":[2.923333E-1,3.712473E-1,2.9410118E-1,0E0,0E0,6.568601E-1,9.5632875E-1,0E0,0E0,0E0,0E0],"parents":[2147483647,0,0,1,1,2,2,5,5,6,6],"right_children":[2,4,6,-1,-1,8,10,-1,-1,-1,-1],"split_conditions":[5.83E-1,4.25E-1,6.8E-2,-4.940894E-2,1.3099484E-2,5.6E-2,-3E-3,-1.5323909E-2,5.2850407E-2,-5.19748E-2,1.890687E-2],"split_indices":[0,3,2,0,0,2,1,0,0,0,0],"split_type":[0,0,0,0,0,0,0,0,0,0,0],"sum_hessian":[1.2928835E1,2.3845115E0,1.0544324E1,1.3585604E0,1.0259509E0,4.120035E0,6.4242887E0,1.8772371E0,2.242798E0,1.9298679E0,4.494421E0],"tree_param":{"num_deleted":"0","num_feature":"5","num_nodes":"11","size_leaf_vector":"1"}},{"base_weights":[-9.626285E-3,-7.745E-2,2.8012602E-2,-1.544103E-1,3.2510486E-2,3.5707683E-3,-4.113779E-2],"categories":[],"categories_nodes":[],"categories_segments":[],"categories_sizes":[],"default_left":[0,0,0,0,0,0,0],"id":76,"left_children":[1,3,-1,5,-1,-1,-1],"loss_changes":[2.933251E-1,4.2146122E-1,0E0,5.3929937E-1,0E0,0E0,0E0],"parents":[2147483647,0,0,1,1,3,3],"right_children":[2,4,-1,6,-1,-1,-1],"split_conditions":[4.3E-2,8.71E-1,2.8012602E-2,4.66E-1,3.2510486E-2,3.5707683E-3,-4.113779E-2],"split_indices":[1,3,0,3,0,0,0],"split_type":[0,0,0,0,0,0,0],"sum_hessian":[1.2821916E1,1.0983627E1,1.8382882E0,9.738289E0,1.2453387E0,6.0920873E0,3.6462016E0],"tree_param":{"num_deleted":"0","num_feature":"5","num_nodes":"7","size_leaf_vector":"1"}},{"base_weights":[-7.0956587E-3,-1.5158513E-1,1.3154547E-1,-2.5446364E-1,1.0753511E-2,-1.1981437E-1,3.1635302E-1,-2.2071227E-3,-4.5853894E-2,1.9178506E-2,-4.636232E-2,-1.6768403E-2,6.0719885E-2],"categories":[],"categories_nodes":[],"categories_segments":[],"categories_sizes":[],"default_left":[0,0,0,0,0,0,0,0,0,0,0,0,0],"id":77,"left_children":[1,3,5,7,-1,9,11,-1,-1,-1,-1,-1,-1],"loss_changes":[2.9602587E-1,2.196558E-1,3.894977E-1,2.488412E-1,0E0,5.1018083E-1,7.545485E-1,0E0,0E0,0E0,0E0,0E0,0E0],"parents":[2147483647,0,0,1,1,2,2,3,3,5,5,6,6],"right_children":[2,4,6,8,-1,10,12,-1,-1,-1,-1,-1,-1],"split_conditions":[7.5E-1,4.91E-1,5.83E-1,3.47E-1,1.0753511E-2,1E-3,-3E-3,-2.2071227E-3,-4.5853894E-2,1.9178506E-2,-4.636232E-2,-1.6768403E-2,6.0719885E-2],"split_indices":[0,3,4,3,0,1,1,0,0,0,0,0,0],"split_type":[0,0,0,0,0,0,0,0,0,0,0,0,0],"sum_hessian":[1.2782101E1,6.21332E0,6.568781E0,4.460384E0,1.7529356E0,2.9322536E0,3.6365273E0,2.6036305E0,1.8567535E0,1.770131E0,1.1621226E0,1.5238826E0,2.112645E0],"tree_param":{"num_deleted":"0","num_feature":"5","num_nodes":"13","size_leaf_vector":"1"}},{"base_weights":[-7.811116E-3,-1.9358031E-1,9.5559865E-2,1.9995035E-1,-6.620332E-2,4.244476E-1,-1.4565694E-1,-2.8835202E-2,5.0383896E-2,1.7492052E-2,5.7925206E-2,-5.890826E-2,1.1942108E-2],"categories":[],"categories_nodes":[],"categories_segments":[],"categories_sizes":[],"default_left":[0,0,0,0,0,0,0,0,0,0,0,0,0],"id":78,"left_children":[1,3,5,7,-1,9,11,-1,-1,-1,-1,-1,-1],"loss_changes":[2.8202617E-1,1.0977592E0,8.1441605E-1,6.815566E-1,0E0,6.359142E-2,8.011286E-1,0E0,0E0,0E0,0E0,0E0,0E0],"parents":[2147483647,0,0,1,1,2,2,3,3,5,5,6,6],"right_children":[2,4,6,8,-1,10,12,-1,-1,-1,-1,-1,-1],"split_conditions":[3.2E-1,2.6E-1,1.66E-1,-2.8E-2,-6.620332E-2,2.1E-2,6.67E-1,-2.8835202E-2,5.0383896E-2,1.7492052E-2,5.7925206E-2,-5.890826E-2,1.1942108E-2],"split_indices":[3,3,2,1,0,1,0,0,0,0,0,0,0],"split_type":[0,0,0,0,0,0,0,0,0,0,0,0,0],"sum_hessian":[1.2723152E1,4.2366834E0,8.486468E0,2.6139584E0,1.6227249E0,3.2693095E0,5.2171593E0,1.0223403E0,1.5916181E0,2.0671866E0,1.2021229E0,1.4946284E0,3.7225308E0],"tree_param":{"num_deleted":"0","num_feature":"5","num_nodes":"13","size_leaf_vector":"1"}},{"base_weights":[-8.300954E-3,-2.524259E-1,6.364478E-2,-4.733446E-2,1.2590981E-2,2.4171181E-1,-7.725164E-2,-3.9906264E-3,6.926441E-2,-4.6230543E-2,1.4838806E-2],"categories":[],"categories_nodes":[],"categories_segments":[],"categories_sizes":[],"default_left":[0,0,0,0,0,0,0,0,0,0,0],"id":79,"left_children":[1,3,5,-1,-1,7,9,-1,-1,-1,-1],"loss_changes":[2.5523052E-1,3.354951E-1,3.025807E-1,0E0,0E0,6.931803E-1,6.833165E-1,0E0,0E0,0E0,0E0],"parents":[2147483647,0,0,1,1,2,2,5,5,6,6],"right_children":[2,4,6,-1,-1,8,10,-1,-1,-1,-1],"split_conditions":[5.83E-1,4.25E-1,3.59E-1,-4.733446E-2,1.2590981E-2,3.2E-1,2E-3,-3.9906264E-3,6.926441E-2,-4.6230543E-2,1.4838806E-2],"split_indices":[0,3,3,0,0,3,1,0,0,0,0],"split_type":[0,0,0,0,0,0,0,0,0,0,0],"sum_hessian":[1.2616964E1,2.3009303E0,1.0316034E1,1.2941335E0,1.0067967E0,4.2408524E0,6.0751815E0,3.1716092E0,1.0692434E0,1.8571287E0,4.218053E0],"tree_param":{"num_deleted":"0","num_feature":"5","num_nodes":"11","size_leaf_vector":"1"}},{"base_weights":[-7.697378E-3,-7.32313E-2,2.6981736E-2,-1.4454775E-1,2.9390594E-2,-2.717176E-3,-5.8672488E-2],"categories":[],"categories_nodes":[],"categories_segments":[],"categories_sizes":[],"default_left":[0,0,0,0,0,0,0],"id":80,"left_children":[1,3,-1,5,-1,-1,-1],"loss_changes":[2.6564658E-1,3.494504E-1,0E0,5.2835935E-1,0E0,0E0,0E0],"parents":[2147483647,0,0,1,1,3,3],"right_children":[2,4,-1,6,-1,-1,-1],"split_conditions":[4.3E-2,8.71E-1,2.6981736E-2,3.9E-2,2.9390594E-2,-2.717176E-3,-5.8672488E-2],"split_indices":[1,3,0,1,0,0,0],"split_type":[0,0,0,0,0,0,0],"sum_hessian":[1.2520235E1,1.0723939E1,1.7962954E0,9.487312E0,1.236627E0,8.335977E0,1.1513362E0],"tree_param":{"num_deleted":"0","num_feature":"5","num_nodes":"7","size_leaf_vector":"1"}},{"base_weights":[-7.321351E-3,-2.9707713E-2,5.169375E-2,1.4395428E-1,-1.6035467E-1,-6.68561E-4,5.0740372E-2,-6.1414387E-2,1.891898E-2],"categories":[],"categories_nodes":[],"categories_segments":[],"categories_sizes":[],"default_left":[0,0,0,0,0,0,0,0,0],"id":81,"left_children":[1,-1,3,5,7,-1,-1,-1,-1],"loss_changes":[2.4647535E-1,0E0,2.5942346E-1,4.9312502E-1,7.721817E-1,0E0,0E0,0E0,0E0],"parents":[2147483647,0,0,2,2,3,3,4,4],"right_children":[2,-1,4,6,8,-1,-1,-1,-1],"split_conditions":[5E-1,-2.9707713E-2,3.1E-1,1.69E-1,5.83E-1,-6.68561E-4,5.0740372E-2,-6.1414387E-2,1.891898E-2],"split_indices":[0,0,2,2,4,0,0,0,0],"split_type":[0,0,0,0,0,0,0,0,0],"sum_hessian":[1.251572E1,1.4351958E0,1.1080524E1,7.9448924E0,3.1356323E0,6.3108306E0,1.6340619E0,1.0349915E0,2.1006408E0],"tree_param":{"num_deleted":"0","num_feature":"5","num_nodes":"9","size_leaf_vector":"1"}},{"base_weights":[-8.38513E-3,-7.149985E-2,2.6007522E-2,-1.3867116E-1,2.9214263E-2,-1.4578056E-3,-4.1937932E-2],"categories":[],"categories_nodes":[],"categories_segments":[],"categories_sizes":[],"default_left":[0,0,0,0,0,0,0],"id":82,"left_children":[1,3,-1,5,-1,-1,-1],"loss_changes":[2.4602582E-1,3.2512814E-1,0E0,3.6010924E-1,0E0,0E0,0E0],"parents":[2147483647,0,0,1,1,3,3],"right_children":[2,4,-1,6,-1,-1,-1],"split_conditions":[4.3E-2,1E0,2.6007522E-2,2.82E-1,2.9214263E-2,-1.4578056E-3,-4.1937932E-2],"split_indices":[1,0,0,2,0,0,0],"split_type":[0,0,0,0,0,0,0],"sum_hessian":[1.2422639E1,1.0652026E1,1.770612E0,9.513392E0,1.1386342E0,7.3264914E0,2.1869006E0],"tree_param":{"num_deleted":"0","num_feature":"5","num_nodes":"7","size_leaf_vector":"1"}},{"base_weights":[-6.7400644E-3,-1.8112963E-1,9.5841706E-2,1.9396062E-1,-5.945758E-2,4.2775145E-1,-1.4630933E-1,-2.68915E-2,4.8598286E-2,1.9013226E-2,5.4912265E-2,-5.5716492E-2,1.0185575E-2],"categories":[],"categories_nodes":[],"categories_segments":[],"categories_sizes":[],"default_left":[0,0,0,0,0,0,0,0,0,0,0,0,0],"id":83,"left_children":[1,3,5,7,-1,9,11,-1,-1,-1,-1,-1,-1],"loss_changes":[2.5664338E-1,9.372547E-1,7.9202884E-1,6.0823727E-1,0E0,1.3355315E-2,6.6775405E-1,0E0,0E0,0E0,0E0,0E0,0E0],"parents":[2147483647,0,0,1,1,2,2,3,3,5,5,6,6],"right_children":[2,4,6,8,-1,10,12,-1,-1,-1,-1,-1,-1],"split_conditions":[3.24E-1,2.6E-1,1.66E-1,-2.8E-2,-5.945758E-2,2.1E-2,6.67E-1,-2.68915E-2,4.8598286E-2,1.9013226E-2,5.4912265E-2,-5.5716492E-2,1.0185575E-2],"split_indices":[3,3,2,1,0,1,0,0,0,0,0,0,0],"split_type":[0,0,0,0,0,0,0,0,0,0,0,0,0],"sum_hessian":[1.2375878E1,4.3000536E0,8.075825E0,2.5329537E0,1.7670999E0,3.083243E0,4.9925814E0,1.0104493E0,1.5225044E0,1.9101356E0,1.1731073E0,1.4111613E0,3.5814202E0],"tree_param":{"num_deleted":"0","num_feature":"5","num_nodes":"13","size_leaf_vector":"1"}},{"base_weights":[-6.825467E-3,-2.4652624E-1,6.324311E-2,2.2403745E-2,-6.407746E-2,-3.805579E-2,2.0536023E-1,3.5682507E-2,-9.412634E-3],"categories":[],"categories_nodes":[],"categories_segments":[],"categories_sizes":[],"default_left":[0,0,0,0,0,0,0,0,0],"id":84,"left_children":[1,3,5,-1,-1,-1,7,-1,-1],"loss_changes":[2.386621E-1,7.3877764E-1,7.7655685E-1,0E0,0E0,0E0,4.4351315E-1,0E0,0E0],"parents":[2147483647,0,0,1,1,2,2,6,6],"right_children":[2,4,6,-1,-1,-1,8,-1,-1],"split_conditions":[5.6E-2,1E-3,-6E-3,2.2403745E-2,-6.407746E-2,-3.805579E-2,3.1E-1,3.5682507E-2,-9.412634E-3],"split_indices":[2,1,1,0,0,0,2,0,0],"split_type":[0,0,0,0,0,0,0,0,0],"sum_hessian":[1.2281599E1,2.2084062E0,1.0073193E1,1.203581E0,1.0048254E0,2.0363467E0,8.036846E0,5.2102933E0,2.826553E0],"tree_param":{"num_deleted":"0","num_feature":"5","num_nodes":"9","size_leaf_vector":"1"}},{"base_weights":[-1.026683E-2,-1.4535503E-1,1.1872834E-1,-2.527716E-1,1.2110449E-2,2.4473476E-1,-1.7070135E-2,-1.703985E-3,-4.5540866E-2,-8.595646E-4,6.412688E-2],"categories":[],"categories_nodes":[],"categories_segments":[],"categories_sizes":[],"default_left":[0,0,0,0,0,0,0,0,0,0,0],"id":85,"left_children":[1,3,5,7,-1,9,-1,-1,-1,-1,-1],"loss_changes":[2.4722227E-1,2.279835E-1,3.080467E-1,2.4247214E-1,0E0,5.5775607E-1,0E0,0E0,0E0,0E0,0E0],"parents":[2147483647,0,0,1,1,2,2,3,3,5,5],"right_children":[2,4,6,8,-1,10,-1,-1,-1,-1,-1],"split_conditions":[7.5E-1,4.91E-1,7.28E-1,3.47E-1,1.2110449E-2,5E-3,-1.7070135E-2,-1.703985E-3,-4.5540866E-2,-8.595646E-4,6.412688E-2],"split_indices":[0,3,3,3,0,1,0,0,0,0,0],"split_type":[0,0,0,0,0,0,0,0,0,0,0],"sum_hessian":[1.2196839E1,5.8957653E0,6.3010745E0,4.238492E0,1.6572733E0,4.4974737E0,1.8036008E0,2.4603767E0,1.778115E0,3.3412194E0,1.1562542E0],"tree_param":{"num_deleted":"0","num_feature":"5","num_nodes":"11","size_leaf_vector":"1"}},{"base_weights":[-8.351695E-3,-1.7907488E-1,9.218532E-2,1.821685E-1,-5.6958627E-2,4.154811E-1,-1.4327592E-1,-2.3215907E-2,4.6265535E-2,1.8765187E-2,5.280114E-2,-5.6483507E-2,9.08266E-3],"categories":[],"categories_nodes":[],"categories_segments":[],"categories_sizes":[],"default_left":[0,0,0,0,0,0,0,0,0,0,0,0,0],"id":86,"left_children":[1,3,5,7,-1,9,11,-1,-1,-1,-1,-1,-1],"loss_changes":[2.4188308E-1,8.382337E-1,7.3887265E-1,5.0977015E-1,0E0,3.9069057E-3,6.3426423E-1,0E0,0E0,0E0,0E0,0E0,0E0],"parents":[2147483647,0,0,1,1,2,2,3,3,5,5,6,6],"right_children":[2,4,6,8,-1,10,12,-1,-1,-1,-1,-1,-1],"split_conditions":[3.24E-1,2.6E-1,1.66E-1,-2.6E-2,-5.6958627E-2,2.1E-2,2E-3,-2.3215907E-2,4.6265535E-2,1.8765187E-2,5.280114E-2,-5.6483507E-2,9.08266E-3],"split_indices":[3,3,2,1,0,1,1,0,0,0,0,0,0],"split_type":[0,0,0,0,0,0,0,0,0,0,0,0,0],"sum_hessian":[1.213068E1,4.206457E0,7.924223E0,2.4622555E0,1.7442019E0,3.017103E0,4.90712E0,1.063533E0,1.3987225E0,1.8794762E0,1.1376268E0,1.2476504E0,3.6594696E0],"tree_param":{"num_deleted":"0","num_feature":"5","num_nodes":"13","size_leaf_vector":"1"}},{"base_weights":[-8.359689E-3,-2.506821E-1,6.316024E-2,-4.4817183E-2,8.697382E-3,2.3670694E-1,-7.591533E-2,-3.0930154E-3,6.516488E-2,-3.6629047E-2,2.2550909E-2],"categories":[],"categories_nodes":[],"categories_segments":[],"categories_sizes":[],"default_left":[0,0,0,0,0,0,0,0,0,0,0],"id":87,"left_children":[1,3,5,-1,-1,7,9,-1,-1,-1,-1],"loss_changes":[2.4171428E-1,2.5045782E-1,2.8013784E-1,0E0,0E0,5.83756E-1,6.766465E-1,0E0,0E0,0E0,0E0],"parents":[2147483647,0,0,1,1,2,2,5,5,6,6],"right_children":[2,4,6,-1,-1,8,10,-1,-1,-1,-1],"split_conditions":[5.83E-1,4.03E-1,3.59E-1,-4.4817183E-2,8.697382E-3,3.2E-1,8.33E-1,-3.0930154E-3,6.516488E-2,-3.6629047E-2,2.2550909E-2],"split_indices":[0,3,3,0,0,3,0,0,0,0,0],"split_type":[0,0,0,0,0,0,0,0,0,0,0],"sum_hessian":[1.2033447E1,2.1713743E0,9.862073E0,1.1635364E0,1.0078379E0,4.0750203E0,5.787053E0,3.0398068E0,1.0352135E0,2.8379421E0,2.9491107E0],"tree_param":{"num_deleted":"0","num_feature":"5","num_nodes":"11","size_leaf_vector":"1"}},{"base_weights":[-6.7073656E-3,-2.8574128E-2,5.0411586E-2,-7.11788E-2,1.9292407E-1,3.1321898E-2,-2.7266888E-2,-1.1664979E-2,4.88334E-2],"categories":[],"categories_nodes":[],"categories_segments":[],"categories_sizes":[],"default_left":[0,0,0,0,0,0,0,0,0],"id":88,"left_children":[1,-1,3,5,7,-1,-1,-1,-1],"loss_changes":[2.209396E-1,0E0,2.1485418E-1,6.2707263E-1,5.7028955E-1,0E0,0E0,0E0,0E0],"parents":[2147483647,0,0,2,2,3,3,4,4],"right_children":[2,-1,4,6,8,-1,-1,-1,-1],"split_conditions":[5E-1,-2.8574128E-2,5.83E-1,3.04E-1,1.2E-2,3.1321898E-2,-2.7266888E-2,-1.1664979E-2,4.88334E-2],"split_indices":[0,0,4,3,1,0,0,0,0],"split_type":[0,0,0,0,0,0,0,0,0],"sum_hessian":[1.1958548E1,1.3518771E0,1.060667E1,5.993561E0,4.6131096E0,1.8705186E0,4.123042E0,2.5480328E0,2.0650768E0],"tree_param":{"num_deleted":"0","num_feature":"5","num_nodes":"9","size_leaf_vector":"1"}},{"base_weights":[-5.0504063E-3,-1.6955417E-1,9.137952E-2,1.7207384E-1,-5.3417355E-2,4.0564086E-2,-1.4081103E-1,-2.191756E-2,4.4267725E-2,-3.794869E-2,2.2611214E-2],"categories":[],"categories_nodes":[],"categories_segments":[],"categories_sizes":[],"default_left":[0,0,0,0,0,0,0,0,0,0,0],"id":89,"left_children":[1,3,5,7,-1,-1,9,-1,-1,-1,-1],"loss_changes":[2.1928324E-1,7.2692305E-1,6.955167E-1,4.557488E-1,0E0,0E0,5.9145033E-1,0E0,0E0,0E0,0E0],"parents":[2147483647,0,0,1,1,2,2,3,3,6,6],"right_children":[2,4,6,8,-1,-1,10,-1,-1,-1,-1],"split_conditions":[3.24E-1,2.6E-1,1.66E-1,-2.6E-2,-5.3417355E-2,4.0564086E-2,8.32E-1,-2.191756E-2,4.4267725E-2,-3.794869E-2,2.2611214E-2],"split_indices":[3,3,2,1,0,0,3,0,0,0,0],"split_type":[0,0,0,0,0,0,0,0,0,0,0],"sum_hessian":[1.1846772E1,4.0978193E0,7.748953E0,2.3882422E0,1.7095771E0,2.9751627E0,4.77379E0,1.0541532E0,1.3340889E0,2.87162E0,1.9021698E0],"tree_param":{"num_deleted":"0","num_feature":"5","num_nodes":"11","size_leaf_vector":"1"}},{"base_weights":[-5.0275945E-3,-2.3864219E-1,6.292457E-2,-4.2318776E-2,7.305597E-3,2.2817436E-1,-6.9983624E-2,-3.1164673E-3,6.270442E-2,-3.3596974E-2,2.0504663E-2],"categories":[],"categories_nodes":[],"categories_segments":[],"categories_sizes":[],"default_left":[0,0,0,0,0,0,0,0,0,0,0],"id":90,"left_children":[1,3,5,-1,-1,7,9,-1,-1,-1,-1],"loss_changes":[2.1811336E-1,2.0874692E-1,2.5102404E-1,0E0,0E0,5.3731614E-1,5.587951E-1,0E0,0E0,0E0,0E0],"parents":[2147483647,0,0,1,1,2,2,5,5,6,6],"right_children":[2,4,6,-1,-1,8,10,-1,-1,-1,-1],"split_conditions":[5.83E-1,3.86E-1,3.59E-1,-4.2318776E-2,7.305597E-3,3.2E-1,8.33E-1,-3.1164673E-3,6.270442E-2,-3.3596974E-2,2.0504663E-2],"split_indices":[0,3,3,0,0,3,0,0,0,0,0],"split_type":[0,0,0,0,0,0,0,0,0,0,0],"sum_hessian":[1.1793815E1,2.0914946E0,9.70232E0,1.0890322E0,1.0024623E0,4.0054326E0,5.6968875E0,2.9859083E0,1.019524E0,2.783422E0,2.9134655E0],"tree_param":{"num_deleted":"0","num_feature":"5","num_nodes":"11","size_leaf_vector":"1"}},{"base_weights":[-3.688695E-3,-6.649071E-2,2.594902E-2,-1.4983995E-1,2.2238558E-2,3.1806666E-3,-4.3770835E-2],"categories":[],"categories_nodes":[],"categories_segments":[],"categories_sizes":[],"default_left":[0,0,0,0,0,0,0],"id":91,"left_children":[1,3,-1,5,-1,-1,-1],"loss_changes":[2.2756967E-1,2.9984337E-1,0E0,4.9436843E-1,0E0,0E0,0E0],"parents":[2147483647,0,0,1,1,3,3],"right_children":[2,4,-1,6,-1,-1,-1],"split_conditions":[4.3E-2,8.32E-1,2.594902E-2,4.66E-1,2.2238558E-2,3.1806666E-3,-4.3770835E-2],"split_indices":[1,3,0,3,0,0,0],"split_type":[0,0,0,0,0,0,0],"sum_hessian":[1.1724703E1,1.0069248E1,1.6554552E0,8.188055E0,1.8811924E0,5.565624E0,2.6224313E0],"tree_param":{"num_deleted":"0","num_feature":"5","num_nodes":"7","size_leaf_vector":"1"}},{"base_weights":[-2.793552E-3,-2.383275E-1,6.715356E-2,1.817836E-2,-5.5701863E-2,-3.463943E-2,1.9763586E-1,3.5720307E-2,-9.055886E-3],"categories":[],"categories_nodes":[],"categories_segments":[],"categories_sizes":[],"default_left":[0,0,0,0,0,0,0,0,0],"id":92,"left_children":[1,3,5,-1,-1,-1,7,-1,-1],"loss_changes":[2.2511764E-1,5.198035E-1,6.3864434E-1,0E0,0E0,0E0,4.310058E-1,0E0,0E0],"parents":[2147483647,0,0,1,1,2,2,6,6],"right_children":[2,4,6,-1,-1,-1,8,-1,-1],"split_conditions":[5.6E-2,-1.8E-2,-6E-3,1.817836E-2,-5.5701863E-2,-3.463943E-2,2.82E-1,3.5720307E-2,-9.055886E-3],"split_indices":[2,1,1,0,0,0,2,0,0],"split_type":[0,0,0,0,0,0,0,0,0],"sum_hessian":[1.1692815E1,2.1261487E0,9.566666E0,1.1024497E0,1.0236992E0,1.8976313E0,7.6690345E0,4.7819314E0,2.8871028E0],"tree_param":{"num_deleted":"0","num_feature":"5","num_nodes":"9","size_leaf_vector":"1"}},{"base_weights":[-6.1405697E-3,-2.4084634E-1,6.225564E-2,-4.094814E-2,4.7563883E-3,2.2671156E-1,-6.649719E-2,-1.2907736E-2,4.7688693E-2,-4.629204E-2,1.5630106E-2],"categories":[],"categories_nodes":[],"categories_segments":[],"categories_sizes":[],"default_left":[0,0,0,0,0,0,0,0,0,0,0],"id":93,"left_children":[1,3,5,-1,-1,7,9,-1,-1,-1,-1],"loss_changes":[2.176579E-1,1.6802117E-1,2.388967E-1,0E0,0E0,4.9489534E-1,6.642929E-1,0E0,0E0,0E0,0E0],"parents":[2147483647,0,0,1,1,2,2,5,5,6,6],"right_children":[2,4,6,-1,-1,8,10,-1,-1,-1,-1],"split_conditions":[5.83E-1,3.74E-1,6.8E-2,-4.094814E-2,4.7563883E-3,5.6E-2,-3E-3,-1.2907736E-2,4.7688693E-2,-4.629204E-2,1.5630106E-2],"split_indices":[0,3,2,0,0,2,1,0,0,0,0],"split_type":[0,0,0,0,0,0,0,0,0,0,0],"sum_hessian":[1.1624683E1,2.0542068E0,9.570477E0,1.0313705E0,1.0228363E0,3.868463E0,5.7020135E0,1.7969576E0,2.0715053E0,1.6638255E0,4.038188E0],"tree_param":{"num_deleted":"0","num_feature":"5","num_nodes":"11","size_leaf_vector":"1"}},{"base_weights":[-8.164742E-3,-1.3758911E-1,1.1488649E-1,-2.4708101E-1,1.2333192E-2,2.4438389E-1,-1.782422E-2,-1.3122574E-3,-4.3893147E-2,5.4995256E-4,6.11044E-2],"categories":[],"categories_nodes":[],"categories_segments":[],"categories_sizes":[],"default_left":[0,0,0,0,0,0,0,0,0,0,0],"id":94,"left_children":[1,3,5,7,-1,9,-1,-1,-1,-1,-1],"loss_changes":[2.1556082E-1,2.1811554E-1,3.0831274E-1,2.168507E-1,0E0,4.5729676E-1,0E0,0E0,0E0,0E0,0E0],"parents":[2147483647,0,0,1,1,2,2,3,3,5,5],"right_children":[2,4,6,8,-1,10,-1,-1,-1,-1,-1],"split_conditions":[7.5E-1,4.91E-1,7.28E-1,3.47E-1,1.2333192E-2,5E-3,-1.782422E-2,-1.3122574E-3,-4.3893147E-2,5.4995256E-4,6.11044E-2],"split_indices":[0,3,3,3,0,1,0,0,0,0,0],"split_type":[0,0,0,0,0,0,0,0,0,0,0],"sum_hessian":[1.154275E1,5.5681095E0,5.9746413E0,3.9595726E0,1.6085367E0,4.2592816E0,1.7153594E0,2.26538E0,1.6941928E0,3.1936026E0,1.0656792E0],"tree_param":{"num_deleted":"0","num_feature":"5","num_nodes":"11","size_leaf_vector":"1"}},{"base_weights":[-6.4232866E-3,-1.2902665E-1,1.1070653E-1,-2.88834E-1,4.5933433E-2,-1.1241952E-1,2.732338E-1,-3.6369305E-2,-1.0517004E-2,2.9310971E-2,-2.7455768E-2,2.0776866E-2,-4.615056E-2,-1.3582326E-2,5.2171607E-2],"categories":[],"categories_nodes":[],"categories_segments":[],"categories_sizes":[],"default_left":[0,0,0,0,0,0,0,0,0,0,0,0,0,0,0],"id":95,"left_children":[1,3,5,7,9,11,13,-1,-1,-1,-1,-1,-1,-1,-1],"loss_changes":[1.9356236E-1,1.9672135E-1,2.8176513E-1,1.078409E-2,3.9694747E-1,5.011751E-1,5.076021E-1,0E0,0E0,0E0,0E0,0E0,0E0,0E0,0E0],"parents":[2147483647,0,0,1,1,2,2,3,3,4,4,5,5,6,6],"right_children":[2,4,6,8,10,12,14,-1,-1,-1,-1,-1,-1,-1,-1],"split_conditions":[7.5E-1,3.2E-2,5.83E-1,6.67E-1,1.67E-1,1E-3,-3E-3,-3.6369305E-2,-1.0517004E-2,2.9310971E-2,-2.7455768E-2,2.0776866E-2,-4.615056E-2,-1.3582326E-2,5.2171607E-2],"split_indices":[0,1,4,0,2,1,1,0,0,0,0,0,0,0,0],"split_type":[0,0,0,0,0,0,0,0,0,0,0,0,0,0,0],"sum_hessian":[1.1484116E1,5.561331E0,5.922785E0,2.5663698E0,2.994961E0,2.62599E0,3.2967947E0,1.1268649E0,1.4395049E0,1.7391165E0,1.2558444E0,1.5808378E0,1.0451522E0,1.4171838E0,1.879611E0],"tree_param":{"num_deleted":"0","num_feature":"5","num_nodes":"15","size_leaf_vector":"1"}},{"base_weights":[-8.322231E-3,7.030612E-2,-1.9328578E-1,-1.5990558E-1,2.6606476E-1,-5.047531E-2,8.638942E-3,1.7988471E-2,-5.194896E-2,-8.70282E-4,4.23624E-2],"categories":[],"categories_nodes":[],"categories_segments":[],"categories_sizes":[],"default_left":[0,0,0,0,0,0,0,0,0,0,0],"id":96,"left_children":[1,3,5,7,9,-1,-1,-1,-1,-1,-1],"loss_changes":[1.9394675E-1,4.6775845E-1,3.890819E-1,6.9956404E-1,2.4069577E-1,0E0,0E0,0E0,0E0,0E0,0E0],"parents":[2147483647,0,0,1,1,2,2,3,3,4,4],"right_children":[2,4,6,8,10,-1,-1,-1,-1,-1,-1],"split_conditions":[3.1E-1,3.24E-1,6.67E-1,2.6E-1,6.67E-1,-5.047531E-2,8.638942E-3,1.7988471E-2,-5.194896E-2,-8.70282E-4,4.23624E-2],"split_indices":[2,3,4,3,0,0,0,0,0,0,0],"split_type":[0,0,0,0,0,0,0,0,0,0,0],"sum_hessian":[1.1401352E1,8.435357E0,2.9659946E0,3.960715E0,4.4746423E0,1.0224898E0,1.9435047E0,2.2933486E0,1.6673665E0,1.9750742E0,2.4995682E0],"tree_param":{"num_deleted":"0","num_feature":"5","num_nodes":"11","size_leaf_vector":"1"}},{"base_weights":[-1.03545515E-2,-6.701821E-2,2.2822412E-2,-1.4812124E-1,2.1143278E-2,2.988937E-3,-4.302254E-2],"categories":[],"categories_nodes":[],"categories_segments":[],"categories_sizes":[],"default_left":[0,0,0,0,0,0,0],"id":97,"left_children":[1,3,-1,5,-1,-1,-1],"loss_changes":[1.8225074E-1,2.741485E-1,0E0,4.6056402E-1,0E0,0E0,0E0],"parents":[2147483647,0,0,1,1,3,3],"right_children":[2,4,-1,6,-1,-1,-1],"split_conditions":[4.3E-2,8.32E-1,2.2822412E-2,4.66E-1,2.1143278E-2,2.988937E-3,-4.302254E-2],"split_indices":[1,3,0,3,0,0,0],"split_type":[0,0,0,0,0,0,0],"sum_hessian":[1.1349935E1,9.75271E0,1.597225E0,7.9153104E0,1.8373998E0,5.401167E0,2.5141432E0],"tree_param":{"num_deleted":"0","num_feature":"5","num_nodes":"7","size_leaf_vector":"1"}},{"base_weights":[-9.081826E-3,-2.2781244E-2,5.5002984E-2,2.1432944E-1,-7.0582435E-2,-1.1691241E-2,4.4689696E-2,-4.8398644E-2,1.3385053E-2],"categories":[],"categories_nodes":[],"categories_segments":[],"categories_sizes":[],"default_left":[0,0,0,0,0,0,0,0,0],"id":98,"left_children":[1,-1,3,5,7,-1,-1,-1,-1],