{"learner":{"attributes":{"scikit_learn":"{\"_estimator_type\": \"classifier\"}"},"feature_names":["filing_on_time_rate","upi_trend_slope","cashflow_volatility_score","top_buyer_concentration_pct","payroll_consistency_score"],"feature_types":["float","float","float","float","float"],"gradient_booster":{"model":{"cats":{"enc":[],"feature_segments":[],"sorted_idx":[]},"gbtree_model_param":{"num_parallel_tree":"1","num_trees":"100"},"iteration_indptr":[0,1,2,3,4,5,6,7,8,9,10,11,12,13,14,15,16,17,18,19,20,21,22,23,24,25,26,27,28,29,30,31,32,33,34,35,36,37,38,39,40,41,42,43,44,45,46,47,48,49,50,51,52,53,54,55,56,57,58,59,60,61,62,63,64,65,66,67,68,69,70,71,72,73,74,75,76,77,78,79,80,81,82,83,84,85,86,87,88,89,90,91,92,93,94,95,96,97,98,99,100],"tree_info":[0,0,0,0,0,0,0,0,0,0,0,0,0,0,0,0,0,0,0,0,0,0,0,0,0,0,0,0,0,0,0,0,0,0,0,0,0,0,0,0,0,0,0,0,0,0,0,0,0,0,0,0,0,0,0,0,0,0,0,0,0,0,0,0,0,0,0,0,0,0,0,0,0,0,0,0,0,0,0,0,0,0,0,0,0,0,0,0,0,0,0,0,0,0,0,0,0,0,0,0],"trees":[{"base_weights":[-9.153058E-8,-9.8417467E-1,1.3926663E0,-1.2499964E0,-2.8158125E-2,-8.9132494E-1,2.0952938E0,-1.3914649E-1,-6.9782965E-2,-9.1812536E-2,8.680962E-2,1.9284608E-2,-1.17043994E-1,2.7468428E-1,-1.3747797E-3],"categories":[],"categories_nodes":[],"categories_segments":[],"categories_sizes":[],"default_left":[0,0,0,0,0,0,0,0,0,0,0,0,0,0,0],"id":0,"left_children":[1,3,5,7,9,11,13,-1,-1,-1,-1,-1,-1,-1,-1],"loss_changes":[7.455983E1,8.064869E0,3.8015E1,9.753113E-1,7.1441813E0,2.0415683E0,2.411821E1,0E0,0E0,0E0,0E0,0E0,0E0,0E0,0E0],"parents":[2147483647,0,0,1,1,2,2,3,3,4,4,5,5,6,6],"right_children":[2,4,6,8,10,12,14,-1,-1,-1,-1,-1,-1,-1,-1],"split_conditions":[7.5E-1,3.6E-2,-3.4E-2,5.83E-1,5E-1,6.2E-2,6.29E-1,-1.3914649E-1,-6.9782965E-2,-9.1812536E-2,8.680962E-2,1.9284608E-2,-1.17043994E-1,2.7468428E-1,-1.3747797E-3],"split_indices":[0,1,1,0,0,2,3,0,0,0,0,0,0,0,0],"split_type":[0,0,0,0,0,0,0,0,0,0,0,0,0,0,0],"sum_hessian":[5.239834E1,3.0873709E1,2.1524628E1,2.3916254E1,6.9574556E0,5.0006714E0,1.6523956E1,1.782848E1,6.087774E0,3.4787278E0,3.4787278E0,1.0871024E0,3.9135687E0,1.2392968E1,4.130989E0],"tree_param":{"num_deleted":"0","num_feature":"5","num_nodes":"15","size_leaf_vector":"1"}},{"base_weights":[-5.3139282E-3,-9.274481E-1,1.2059916E0,-1.1887251E0,-2.7282538E-2,-7.428368E-1,1.8180672E0,-1.3297687E-1,-6.53192E-2,-8.7127075E-2,7.813551E-2,4.2885806E-2,-1.1422956E-1,2.3595408E-1,-1.264626E-3],"categories":[],"categories_nodes":[],"categories_segments":[],"categories_sizes":[],"default_left":[0,0,0,0,0,0,0,0,0,0,0,0,0,0,0],"id":1,"left_children":[1,3,5,7,9,11,13,-1,-1,-1,-1,-1,-1,-1,-1],"loss_changes":[6.0517E1,7.201601E0,2.9286083E1,9.3024826E-1,6.1015515E0,3.442016E0,1.7984123E1,0E0,0E0,0E0,0E0,0E0,0E0,0E0,0E0],"parents":[2147483647,0,0,1,1,2,2,3,3,4,4,5,5,6,6],"right_children":[2,4,6,8,10,12,14,-1,-1,-1,-1,-1,-1,-1,-1],"split_conditions":[7.5E-1,3.6E-2,-3.2E-2,5.83E-1,5E-1,6.4E-2,6.29E-1,-1.3297687E-1,-6.53192E-2,-8.7127075E-2,7.813551E-2,4.2885806E-2,-1.1422956E-1,2.3595408E-1,-1.264626E-3],"split_indices":[0,1,1,0,0,2,3,0,0,0,0,0,0,0,0],"split_type":[0,0,0,0,0,0,0,0,0,0,0,0,0,0,0],"sum_hessian":[5.217747E1,2.9757915E1,2.2419556E1,2.2815155E1,6.94276E0,5.307385E0,1.7112171E1,1.6885052E1,5.9301023E0,3.3592262E0,3.5835338E0,1.3306671E0,3.976718E0,1.2983233E1,4.128938E0],"tree_param":{"num_deleted":"0","num_feature":"5","num_nodes":"15","size_leaf_vector":"1"}},{"base_weights":[-8.775451E-3,-8.771202E-1,1.0709317E0,-1.134866E0,-2.6886377E-2,-8.027036E-1,1.5700848E0,-1.2773737E-1,-6.1167616E-2,-8.281631E-2,7.062014E-2,1.5830657E-2,-1.07154526E-1,2.0056872E-1,-1.1632716E-3],"categories":[],"categories_nodes":[],"categories_segments":[],"categories_sizes":[],"default_left":[0,0,0,0,0,0,0,0,0,0,0,0,0,0,0],"id":2,"left_children":[1,3,5,7,9,11,13,-1,-1,-1,-1,-1,-1,-1,-1],"loss_changes":[5.0072495E1,6.45516E0,2.3528172E1,9.1013336E-1,5.230624E0,1.634664E0,1.3210445E1,0E0,0E0,0E0,0E0,0E0,0E0,0E0,0E0],"parents":[2147483647,0,0,1,1,2,2,3,3,4,4,5,5,6,6],"right_children":[2,4,6,8,10,12,14,-1,-1,-1,-1,-1,-1,-1,-1],"split_conditions":[7.5E-1,3.6E-2,-3.4E-2,5.83E-1,5E-1,6.2E-2,6.29E-1,-1.2773737E-1,-6.1167616E-2,-8.281631E-2,7.062014E-2,1.5830657E-2,-1.07154526E-1,2.0056872E-1,-1.1632716E-3],"split_indices":[0,1,1,0,0,2,3,0,0,0,0,0,0,0,0],"split_type":[0,0,0,0,0,0,0,0,0,0,0,0,0,0,0],"sum_hessian":[5.1405464E1,2.8595457E1,2.2810009E1,2.1686493E1,6.9089646E0,4.6705127E0,1.8139496E1,1.5911083E1,5.7754087E0,3.2389972E0,3.6699674E0,1.1108358E0,3.559677E0,1.4012446E1,4.1270494E0],"tree_param":{"num_deleted":"0","num_feature":"5","num_nodes":"15","size_leaf_vector":"1"}},{"base_weights":[-1.20367445E-2,-8.318207E-1,9.650832E-1,-1.119973E0,-1.0519056E-1,-6.750711E-1,1.4342394E0,-1.19401835E-1,-4.4837855E-2,-8.67313E-2,6.084741E-2,3.705768E-2,-1.0635997E-1,1.8392783E-1,-1.0700161E-3],"categories":[],"categories_nodes":[],"categories_segments":[],"categories_sizes":[],"default_left":[0,0,0,0,0,0,0,0,0,0,0,0,0,0,0],"id":3,"left_children":[1,3,5,7,9,11,13,-1,-1,-1,-1,-1,-1,-1,-1],"loss_changes":[4.187261E1,5.832239E0,1.9323597E1,4.7135925E-1,5.516892E0,2.8258798E0,1.1062534E1,0E0,0E0,0E0,0E0,0E0,0E0,0E0,0E0],"parents":[2147483647,0,0,1,1,2,2,3,3,4,4,5,5,6,6],"right_children":[2,4,6,8,10,12,14,-1,-1,-1,-1,-1,-1,-1,-1],"split_conditions":[7.5E-1,3.2E-2,-3.2E-2,6.67E-1,5E-1,6.4E-2,6.29E-1,-1.19401835E-1,-4.4837855E-2,-8.67313E-2,6.084741E-2,3.705768E-2,-1.0635997E-1,1.8392783E-1,-1.0700161E-3],"split_indices":[0,1,1,0,0,2,3,0,0,0,0,0,0,0,0],"split_type":[0,0,0,0,0,0,0,0,0,0,0,0,0,0,0],"sum_hessian":[5.0271458E1,2.7417461E1,2.2853998E1,1.9244534E1,8.172929E0,4.985601E0,1.7868397E1,1.6632824E1,2.6117089E0,3.8481717E0,4.324757E0,1.3631517E0,3.6224492E0,1.3743087E1,4.1253095E0],"tree_param":{"num_deleted":"0","num_feature":"5","num_nodes":"15","size_leaf_vector":"1"}},{"base_weights":[-1.4263906E-2,-7.901914E-1,8.816227E-1,-1.043663E0,-2.2515308E-2,-7.295568E-1,1.281151E0,-1.19531095E-1,-5.279557E-2,5.3025346E-2,-1.01885356E-1,1.2906665E-2,-9.912385E-2,1.632824E-1,-9.842301E-4],"categories":[],"categories_nodes":[],"categories_segments":[],"categories_sizes":[],"default_left":[0,0,0,0,0,0,0,0,0,0,0,0,0,0,0],"id":4,"left_children":[1,3,5,7,9,11,13,-1,-1,-1,-1,-1,-1,-1,-1],"loss_changes":[3.536632E1,5.279648E0,1.6139404E1,9.695473E-1,4.828919E0,1.325635E0,8.773804E0,0E0,0E0,0E0,0E0,0E0,0E0,0E0,0E0],"parents":[2147483647,0,0,1,1,2,2,3,3,4,4,5,5,6,6],"right_children":[2,4,6,8,10,12,14,-1,-1,-1,-1,-1,-1,-1,-1],"split_conditions":[7.5E-1,3.6E-2,-3.4E-2,5.83E-1,2.79E-1,6.2E-2,6.29E-1,-1.19531095E-1,-5.279557E-2,5.3025346E-2,-1.01885356E-1,1.2906665E-2,-9.912385E-2,1.632824E-1,-9.842301E-4],"split_indices":[0,1,1,0,2,2,3,0,0,0,0,0,0,0,0],"split_type":[0,0,0,0,0,0,0,0,0,0,0,0,0,0,0],"sum_hessian":[4.887415E1,2.625375E1,2.26204E1,1.9466715E1,6.787036E0,4.330546E0,1.8289854E1,1.4024798E1,5.441916E0,4.666087E0,2.1209488E0,1.1299059E0,3.2006397E0,1.4166145E1,4.1237082E0],"tree_param":{"num_deleted":"0","num_feature":"5","num_nodes":"15","size_leaf_vector":"1"}},{"base_weights":[-1.7426023E-2,-1.0482925E0,5.756568E-1,-1.12539664E-1,-3.3007386E-1,-7.986631E-1,9.699678E-1,-7.051471E-2,2.2164153E-2,2.1199655E-2,-9.975124E-2,1.4985451E-1,-4.8377677E-3],"categories":[],"categories_nodes":[],"categories_segments":[],"categories_sizes":[],"default_left":[0,0,0,0,0,0,0,0,0,0,0,0,0],"id":5,"left_children":[1,3,5,-1,7,9,11,-1,-1,-1,-1,-1,-1],"loss_changes":[3.0194891E1,6.2703705E-1,1.777414E1,0E0,8.1083083E-1,1.7272124E0,1.3436434E1,0E0,0E0,0E0,0E0,0E0,0E0],"parents":[2147483647,0,0,1,1,2,2,4,4,5,5,6,6],"right_children":[2,4,6,-1,8,10,12,-1,-1,-1,-1,-1,-1],"split_conditions":[5.83E-1,4.1E-2,-3.2E-2,-1.12539664E-1,2.5E-1,5.6E-2,4.69E-1,-7.051471E-2,2.2164153E-2,2.1199655E-2,-9.975124E-2,1.4985451E-1,-4.8377677E-3],"split_indices":[0,1,1,0,0,2,3,0,0,0,0,0,0],"split_type":[0,0,0,0,0,0,0,0,0,0,0,0,0],"sum_hessian":[4.740033E1,1.7030771E1,3.0369556E1,1.4867725E1,2.1630468E0,6.5421786E0,2.3827377E1,1.1221055E0,1.0409415E0,1.064697E0,5.477482E0,1.53752365E1,8.452142E0],"tree_param":{"num_deleted":"0","num_feature":"5","num_nodes":"13","size_leaf_vector":"1"}},{"base_weights":[-1.9412806E-2,-7.255646E-1,7.676757E-1,-1.0140128E0,-8.082609E-2,-2.0276585E-1,1.3228204E0,-1.0576751E-1,-2.1054588E-2,4.4456013E-2,-1.0096294E-1,7.982015E-2,-8.769626E-2,1.4240621E-1,5.8101404E-2],"categories":[],"categories_nodes":[],"categories_segments":[],"categories_sizes":[],"default_left":[0,0,0,0,0,0,0,0,0,0,0,0,0,0,0],"id":6,"left_children":[1,3,5,7,9,11,13,-1,-1,-1,-1,-1,-1,-1,-1],"loss_changes":[2.665144E1,4.615918E0,1.2491074E1,3.8653755E-1,4.789322E0,6.856658E0,2.664566E-1,0E0,0E0,0E0,0E0,0E0,0E0,0E0,0E0],"parents":[2147483647,0,0,1,1,2,2,3,3,4,4,5,5,6,6],"right_children":[2,4,6,8,10,12,14,-1,-1,-1,-1,-1,-1,-1,-1],"split_conditions":[7.5E-1,3.2E-2,-3E-3,8.62E-1,2.79E-1,6.8E-2,3.51E-1,-1.0576751E-1,-2.1054588E-2,4.4456013E-2,-1.0096294E-1,7.982015E-2,-8.769626E-2,1.4240621E-1,5.8101404E-2],"split_indices":[0,1,1,3,2,2,2,0,0,0,0,0,0,0,0],"split_type":[0,0,0,0,0,0,0,0,0,0,0,0,0,0,0],"sum_hessian":[4.5949E1,2.426097E1,2.1688034E1,1.6366184E1,7.8947835E0,8.123027E0,1.3565007E1,1.5222564E1,1.1436214E0,5.3754644E0,2.5193188E0,3.1952174E0,4.9278092E0,1.1126715E1,2.4382925E0],"tree_param":{"num_deleted":"0","num_feature":"5","num_nodes":"15","size_leaf_vector":"1"}},{"base_weights":[-1.8816058E-2,-9.8929906E-1,5.0563496E-1,-1.0668152E-1,-3.227951E-1,-7.379045E-1,8.5037875E-1,-6.821651E-2,1.9882089E-2,6.169355E-4,-1.0185514E-1,1.3252942E-1,-4.2596348E-3],"categories":[],"categories_nodes":[],"categories_segments":[],"categories_sizes":[],"default_left":[0,0,0,0,0,0,0,0,0,0,0,0,0],"id":7,"left_children":[1,3,5,-1,7,9,11,-1,-1,-1,-1,-1,-1],"loss_changes":[2.3642376E1,4.9722576E-1,1.3565346E1,0E0,7.2254E-1,1.4859772E0,1.0274069E1,0E0,0E0,0E0,0E0,0E0,0E0],"parents":[2147483647,0,0,1,1,2,2,4,4,5,5,6,6],"right_children":[2,4,6,-1,8,10,12,-1,-1,-1,-1,-1,-1],"split_conditions":[5.83E-1,4.1E-2,-3.2E-2,-1.0668152E-1,2.5E-1,6.4E-2,4.69E-1,-6.821651E-2,1.9882089E-2,6.169355E-4,-1.0185514E-1,1.3252942E-1,-4.2596348E-3],"split_indices":[0,1,1,0,0,2,3,0,0,0,0,0,0],"split_type":[0,0,0,0,0,0,0,0,0,0,0,0,0],"sum_hessian":[4.446853E1,1.5289449E1,2.9179081E1,1.3158472E1,2.130977E0,6.0859084E0,2.3093172E1,1.0794752E0,1.0515016E0,1.9346428E0,4.1512656E0,1.4759448E1,8.333723E0],"tree_param":{"num_deleted":"0","num_feature":"5","num_nodes":"13","size_leaf_vector":"1"}},{"base_weights":[-2.1334885E-2,-9.56799E-1,4.6556723E-1,-1.0806348E-1,-4.4658753E-1,-7.0478046E-1,7.831179E-1,-8.7683715E-2,9.547376E-3,1.9291952E-2,-9.044864E-2,1.1808592E-1,-1.432962E-2],"categories":[],"categories_nodes":[],"categories_segments":[],"categories_sizes":[],"default_left":[0,0,0,0,0,0,0,0,0,0,0,0,0],"id":8,"left_children":[1,3,5,-1,7,9,11,-1,-1,-1,-1,-1,-1],"loss_changes":[2.0462908E1,4.88616E-1,1.1543888E1,0E0,1.1813881E0,1.4004931E0,8.9159975E0,0E0,0E0,0E0,0E0,0E0,0E0],"parents":[2147483647,0,0,1,1,2,2,4,4,5,5,6,6],"right_children":[2,4,6,-1,8,10,12,-1,-1,-1,-1,-1,-1],"split_conditions":[5.83E-1,3.6E-2,-3.2E-2,-1.0806348E-1,6.67E-1,5.6E-2,2.82E-1,-8.7683715E-2,9.547376E-3,1.9291952E-2,-9.044864E-2,1.1808592E-1,-1.432962E-2],"split_indices":[0,1,1,0,4,2,2,0,0,0,0,0,0],"split_type":[0,0,0,0,0,0,0,0,0,0,0,0,0],"sum_hessian":[4.2948093E1,1.4371559E1,2.8576534E1,1.0664993E1,3.7065659E0,5.838616E0,2.2737917E1,1.7220932E0,1.9844726E0,1.0686955E0,4.7699203E0,1.5715892E1,7.022026E0],"tree_param":{"num_deleted":"0","num_feature":"5","num_nodes":"13","size_leaf_vector":"1"}},{"base_weights":[-2.434739E-2,-6.5373325E-1,6.568562E-1,-9.4182813E-1,-7.7507205E-2,-1.9080344E-1,1.1391815E0,-9.918048E-2,-1.3227167E-2,3.8927753E-2,-9.4471596E-2,5.2691933E-2,-1.007905E-1,1.2307179E-1,5.565999E-2],"categories":[],"categories_nodes":[],"categories_segments":[],"categories_sizes":[],"default_left":[0,0,0,0,0,0,0,0,0,0,0,0,0,0,0],"id":9,"left_children":[1,3,5,7,9,11,13,-1,-1,-1,-1,-1,-1,-1,-1],"loss_changes":[1.8648531E1,3.676877E0,8.764744E0,4.7446918E-1,3.856676E0,5.479692E0,3.318596E-2,0E0,0E0,0E0,0E0,0E0,0E0,0E0,0E0],"parents":[2147483647,0,0,1,1,2,2,3,3,4,4,5,5,6,6],"right_children":[2,4,6,8,10,12,14,-1,-1,-1,-1,-1,-1,-1,-1],"split_conditions":[7.5E-1,3.2E-2,-3E-3,8.62E-1,2.79E-1,4.8E-1,6.29E-1,-9.918048E-2,-1.3227167E-2,3.8927753E-2,-9.4471596E-2,5.2691933E-2,-1.007905E-1,1.2307179E-1,5.565999E-2],"split_indices":[0,1,1,3,2,3,3,0,0,0,0,0,0,0,0],"split_type":[0,0,0,0,0,0,0,0,0,0,0,0,0,0,0],"sum_hessian":[4.1494583E1,2.1588552E1,1.990603E1,1.3969677E1,7.618876E0,7.438208E0,1.2467823E1,1.2945393E1,1.0242842E0,5.311186E0,2.3076901E0,4.1489787E0,3.2892292E0,9.813398E0,2.6544254E0],"tree_param":{"num_deleted":"0","num_feature":"5","num_nodes":"15","size_leaf_vector":"1"}},{"base_weights":[-2.4313249E-2,-9.093105E-1,4.1381502E-1,-1.000808E0,-2.560353E-1,-7.260584E-1,6.81852E-1,-1.0640675E-1,-4.131071E-2,-5.7816487E-2,1.877275E-2,1.8252766E-2,-9.6713886E-2,1.0471924E-1,-1.4566791E-2],"categories":[],"categories_nodes":[],"categories_segments":[],"categories_sizes":[],"default_left":[0,0,0,0,0,0,0,0,0,0,0,0,0,0,0],"id":10,"left_children":[1,3,5,7,9,11,13,-1,-1,-1,-1,-1,-1,-1,-1],"loss_changes":[1.6283762E1,5.7446766E-1,9.089014E0,8.5163116E-4,5.446968E-1,1.4555883E0,7.1933813E0,0E0,0E0,0E0,0E0,0E0,0E0,0E0,0E0],"parents":[2147483647,0,0,1,1,2,2,3,3,4,4,5,5,6,6],"right_children":[2,4,6,8,10,12,14,-1,-1,-1,-1,-1,-1,-1,-1],"split_conditions":[5.83E-1,5E-1,-3.4E-2,8.33E-1,2.1E-2,5.6E-2,2.82E-1,-1.0640675E-1,-4.131071E-2,-5.7816487E-2,1.877275E-2,1.8252766E-2,-9.6713886E-2,1.0471924E-1,-1.4566791E-2],"split_indices":[0,0,1,4,1,2,2,0,0,0,0,0,0,0,0],"split_type":[0,0,0,0,0,0,0,0,0,0,0,0,0,0,0],"sum_hessian":[4.0025894E1,1.2897713E1,2.712818E1,1.0846561E1,2.0511513E0,4.8393226E0,2.2288858E1,9.060718E0,1.7858442E0,1.0129654E0,1.0381857E0,1.0657167E0,3.7736058E0,1.52782345E1,7.0106225E0],"tree_param":{"num_deleted":"0","num_feature":"5","num_nodes":"15","size_leaf_vector":"1"}},{"base_weights":[-2.7812077E-2,-6.099605E-1,5.946304E-1,-8.973359E-1,-7.229121E-2,-1.884872E-1,1.0454409E0,-9.492734E-2,-1.5222298E-2,3.5671618E-2,-8.994948E-2,6.460196E-2,-7.934375E-2,3.57983E-2,1.09627284E-1],"categories":[],"categories_nodes":[],"categories_segments":[],"categories_sizes":[],"default_left":[0,0,0,0,0,0,0,0,0,0,0,0,0,0,0],"id":11,"left_children":[1,3,5,7,9,11,13,-1,-1,-1,-1,-1,-1,-1,-1],"loss_changes":[1.472858E1,3.1767678E0,7.139986E0,3.8121128E-1,3.3001122E0,4.567531E0,4.9045563E-2,0E0,0E0,0E0,0E0,0E0,0E0,0E0,0E0],"parents":[2147483647,0,0,1,1,2,2,3,3,4,4,5,5,6,6],"right_children":[2,4,6,8,10,12,14,-1,-1,-1,-1,-1,-1,-1,-1],"split_conditions":[7.5E-1,3.2E-2,-3E-3,8.61E-1,2.79E-1,6.8E-2,5.4E-2,-9.492734E-2,-1.5222298E-2,3.5671618E-2,-8.994948E-2,6.460196E-2,-7.934375E-2,3.57983E-2,1.09627284E-1],"split_indices":[0,1,1,3,2,2,2,0,0,0,0,0,0,0,0],"split_type":[0,0,0,0,0,0,0,0,0,0,0,0,0,0,0],"sum_hessian":[3.8645985E1,1.9979715E1,1.8666267E1,1.2584547E1,7.3951693E0,7.0322356E0,1.1634032E1,1.1508366E1,1.0761808E0,5.244181E0,2.1509879E0,2.9268558E0,4.1053796E0,1.354745E0,1.0279287E1],"tree_param":{"num_deleted":"0","num_feature":"5","num_nodes":"15","size_leaf_vector":"1"}},{"base_weights":[-2.7512463E-2,-8.6622125E-1,3.6863264E-1,-9.618876E-1,-2.2489553E-2,-4.1116646E-1,7.072807E-1,-1.0306145E-1,-3.6553707E-2,6.0247388E-2,-8.536582E-2,9.236484E-2,-8.752241E-3],"categories":[],"categories_nodes":[],"categories_segments":[],"categories_sizes":[],"default_left":[0,0,0,0,0,0,0,0,0,0,0,0,0],"id":12,"left_children":[1,3,5,7,-1,9,11,-1,-1,-1,-1,-1,-1],"loss_changes":[1.3064685E1,5.5701923E-1,7.3564568E0,6.031704E-2,0E0,4.431592E0,3.3520994E0,0E0,0E0,0E0,0E0,0E0,0E0],"parents":[2147483647,0,0,1,1,2,2,3,3,5,5,6,6],"right_children":[2,4,6,8,-1,10,12,-1,-1,-1,-1,-1,-1],"split_conditions":[5.83E-1,5E-1,-6E-3,8.33E-1,-2.2489553E-2,5.7E-2,3.51E-1,-1.0306145E-1,-3.6553707E-2,6.0247388E-2,-8.536582E-2,9.236484E-2,-8.752241E-3],"split_indices":[0,0,1,4,0,2,2,0,0,0,0,0,0],"split_type":[0,0,0,0,0,0,0,0,0,0,0,0,0],"sum_hessian":[3.736073E1,1.1604769E1,2.575596E1,9.663435E0,1.941334E0,7.7336583E0,1.8022303E1,8.011895E0,1.65154E0,2.2402482E0,5.49341E0,1.4038516E1,3.983787E0],"tree_param":{"num_deleted":"0","num_feature":"5","num_nodes":"13","size_leaf_vector":"1"}},{"base_weights":[-2.9145196E-2,-5.703235E-1,5.416291E-1,-8.568668E-1,-6.542894E-2,-6.491955E-2,7.6959884E-1,-9.121137E-2,-1.2260195E-2,3.3480506E-2,-8.625258E-2,1.0892202E-1,-8.161153E-3],"categories":[],"categories_nodes":[],"categories_segments":[],"categories_sizes":[],"default_left":[0,0,0,0,0,0,0,0,0,0,0,0,0],"id":13,"left_children":[1,3,5,7,9,-1,11,-1,-1,-1,-1,-1,-1],"loss_changes":[1.1778197E1,2.771813E0,5.5446744E0,3.906622E-1,2.8918877E0,0E0,4.4570513E0,0E0,0E0,0E0,0E0,0E0,0E0],"parents":[2147483647,0,0,1,1,2,2,3,3,4,4,6,6],"right_children":[2,4,6,8,10,-1,12,-1,-1,-1,-1,-1,-1],"split_conditions":[7.5E-1,3.2E-2,-3.8E-2,8.61E-1,2.79E-1,-6.491955E-2,6.29E-1,-9.121137E-2,-1.2260195E-2,3.3480506E-2,-8.625258E-2,1.0892202E-1,-8.161153E-3],"split_indices":[0,1,1,3,2,0,3,0,0,0,0,0,0],"split_type":[0,0,0,0,0,0,0,0,0,0,0,0,0],"sum_hessian":[3.6130592E1,1.8546532E1,1.7584063E1,1.138696E1,7.1595716E0,2.5284913E0,1.5055571E1,1.0364881E1,1.0220796E0,5.15243E0,2.0071416E0,1.074232E1,4.3132505E0],"tree_param":{"num_deleted":"0","num_feature":"5","num_nodes":"13","size_leaf_vector":"1"}},{"base_weights":[-3.0821985E-2,-8.24297E-1,3.3035207E-1,-9.260726E-1,-1.9190935E-2,-2.7233258E-1,7.067736E-1,-1.0007943E-1,-3.2197062E-2,2.8251579E-2,-9.799174E-2,9.4436914E-2,1.6806383E-2],"categories":[],"categories_nodes":[],"categories_segments":[],"categories_sizes":[],"default_left":[0,0,0,0,0,0,0,0,0,0,0,0,0],"id":14,"left_children":[1,3,5,7,-1,9,11,-1,-1,-1,-1,-1,-1],"loss_changes":[1.0524293E1,5.608897E-1,5.9315023E0,1.1218262E-1,0E0,4.3785534E0,1.8699775E0,0E0,0E0,0E0,0E0,0E0,0E0],"parents":[2147483647,0,0,1,1,2,2,3,3,5,5,6,6],"right_children":[2,4,6,8,-1,10,12,-1,-1,-1,-1,-1,-1],"split_conditions":[5.83E-1,5E-1,-0E0,8.33E-1,-1.9190935E-2,4.8E-1,2.82E-1,-1.0007943E-1,-3.2197062E-2,2.8251579E-2,-9.799174E-2,9.4436914E-2,1.6806383E-2],"split_indices":[0,0,1,4,0,3,2,0,0,0,0,0,0],"split_type":[0,0,0,0,0,0,0,0,0,0,0,0,0],"sum_hessian":[3.477323E1,1.0475967E1,2.4297264E1,8.623678E0,1.8522893E0,9.447497E0,1.4849768E1,7.0900426E0,1.5336353E0,5.6319613E0,3.8155358E0,9.782305E0,5.0674624E0],"tree_param":{"num_deleted":"0","num_feature":"5","num_nodes":"13","size_leaf_vector":"1"}},{"base_weights":[-3.247346E-2,-5.3405255E-1,4.9477768E-1,-9.0236557E-1,-1.5356898E-1,-6.1135348E-2,7.1026134E-1,-9.797985E-2,-3.0687446E-2,2.7663633E-2,-9.266049E-2,1.01636246E-1,-5.739975E-3],"categories":[],"categories_nodes":[],"categories_segments":[],"categories_sizes":[],"default_left":[0,0,0,0,0,0,0,0,0,0,0,0,0],"id":15,"left_children":[1,3,5,7,9,-1,11,-1,-1,-1,-1,-1,-1],"loss_changes":[9.430887E0,2.418137E0,4.585769E0,1.1733484E-1,3.641505E0,0E0,3.5925474E0,0E0,0E0,0E0,0E0,0E0,0E0],"parents":[2147483647,0,0,1,1,2,2,3,3,4,4,6,6],"right_children":[2,4,6,8,10,-1,12,-1,-1,-1,-1,-1,-1],"split_conditions":[7.5E-1,5E-1,-3.8E-2,8.33E-1,2.82E-1,-6.1135348E-2,6.29E-1,-9.797985E-2,-3.0687446E-2,2.7663633E-2,-9.266049E-2,1.01636246E-1,-5.739975E-3],"split_indices":[0,0,1,4,2,0,3,0,0,0,0,0,0],"split_type":[0,0,0,0,0,0,0,0,0,0,0,0,0],"sum_hessian":[3.3662006E1,1.7244371E1,1.6417635E1,8.065365E0,9.179006E0,2.3772902E0,1.4040345E1,6.566188E0,1.4991766E0,6.309708E0,2.8692982E0,9.806199E0,4.2341466E0],"tree_param":{"num_deleted":"0","num_feature":"5","num_nodes":"13","size_leaf_vector":"1"}},{"base_weights":[-3.5347547E-2,-5.1089305E-1,4.6473745E-1,-8.0310005E-1,-3.1646557E-2,-1.768755E-1,8.510821E-1,-8.6257905E-2,-1.0980814E-2,3.3519667E-2,-8.007901E-2,5.561752E-2,-7.352378E-2,1.537353E-2,9.12645E-2],"categories":[],"categories_nodes":[],"categories_segments":[],"categories_sizes":[],"default_left":[0,0,0,0,0,0,0,0,0,0,0,0,0,0,0],"id":16,"left_children":[1,3,5,7,9,11,13,-1,-1,-1,-1,-1,-1,-1,-1],"loss_changes":[8.185402E0,2.440281E0,4.3184214E0,3.5463428E-1,2.443889E0,3.3343327E0,3.176217E-1,0E0,0E0,0E0,0E0,0E0,0E0,0E0,0E0],"parents":[2147483647,0,0,1,1,2,2,3,3,4,4,5,5,6,6],"right_children":[2,4,6,8,10,12,14,-1,-1,-1,-1,-1,-1,-1,-1],"split_conditions":[7.5E-1,3.2E-2,-3E-3,8.59E-1,2.79E-1,6.8E-2,5.4E-2,-8.6257905E-2,-1.0980814E-2,3.3519667E-2,-8.007901E-2,5.561752E-2,-7.352378E-2,1.537353E-2,9.12645E-2],"split_indices":[0,1,1,3,2,2,2,0,0,0,0,0,0,0,0],"split_type":[0,0,0,0,0,0,0,0,0,0,0,0,0,0,0],"sum_hessian":[3.242107E1,1.6607191E1,1.5813877E1,9.897012E0,6.7101793E0,6.1472144E0,9.666663E0,8.89013E0,1.0068821E0,4.9252667E0,1.7849126E0,2.6595366E0,3.4876778E0,1.0678556E0,8.598807E0],"tree_param":{"num_deleted":"0","num_feature":"5","num_nodes":"15","size_leaf_vector":"1"}},{"base_weights":[-3.5115972E-2,-8.697303E-1,2.392753E-1,-9.535268E-2,-2.705716E-2,-4.3187755E-1,5.3527266E-1,4.920001E-2,-8.13556E-2,7.826051E-2,-5.2331627E-4],"categories":[],"categories_nodes":[],"categories_segments":[],"categories_sizes":[],"default_left":[0,0,0,0,0,0,0,0,0,0,0],"id":17,"left_children":[1,3,5,-1,-1,7,9,-1,-1,-1,-1],"loss_changes":[7.628193E0,1.5532732E-1,5.231082E0,0E0,0E0,3.311613E0,2.3986578E0,0E0,0E0,0E0,0E0],"parents":[2147483647,0,0,1,1,2,2,5,5,6,6],"right_children":[2,4,6,-1,-1,8,10,-1,-1,-1,-1],"split_conditions":[5E-1,8.33E-1,-6E-3,-9.535268E-2,-2.705716E-2,5.7E-2,2.82E-1,4.920001E-2,-8.13556E-2,7.826051E-2,-5.2331627E-4],"split_indices":[0,4,1,0,0,2,2,0,0,0,0],"split_type":[0,0,0,0,0,0,0,0,0,0,0],"sum_hessian":[3.1400587E1,7.2323427E0,2.4168245E1,5.8260818E0,1.4062608E0,7.2562213E0,1.6912024E1,2.0368497E0,5.2193713E0,1.1295399E1,5.616625E0],"tree_param":{"num_deleted":"0","num_feature":"5","num_nodes":"11","size_leaf_vector":"1"}},{"base_weights":[-3.5713732E-2,-8.472044E-1,2.218929E-1,-9.271126E-2,-2.3561988E-2,-3.0424112E-1,5.509712E-1,1.6559303E-2,-9.2229106E-2,1.122907E-1,3.0083386E-2],"categories":[],"categories_nodes":[],"categories_segments":[],"categories_sizes":[],"default_left":[0,0,0,0,0,0,0,0,0,0,0],"id":18,"left_children":[1,3,5,-1,-1,7,9,-1,-1,-1,-1],"loss_changes":[6.753606E0,1.6154432E-1,4.4324255E0,0E0,0E0,3.0921059E0,1.8810453E0,0E0,0E0,0E0,0E0],"parents":[2147483647,0,0,1,1,2,2,5,5,6,6],"right_children":[2,4,6,-1,-1,8,10,-1,-1,-1,-1],"split_conditions":[5E-1,4.1E-2,-0E0,-9.271126E-2,-2.3561988E-2,4.8E-1,2.52E-1,1.6559303E-2,-9.2229106E-2,1.122907E-1,3.0083386E-2],"split_indices":[0,1,1,0,0,3,3,0,0,0,0],"split_type":[0,0,0,0,0,0,0,0,0,0,0],"sum_hessian":[3.040762E1,6.775441E0,2.3632177E1,5.536178E0,1.2392632E0,9.122499E0,1.4509678E1,5.59859E0,3.5239096E0,3.353281E0,1.1156397E1],"tree_param":{"num_deleted":"0","num_feature":"5","num_nodes":"11","size_leaf_vector":"1"}},{"base_weights":[-3.5291325E-2,-4.7620863E-1,4.217178E-1,-7.553016E-1,-4.709825E-2,-5.5372167E-2,6.1439747E-1,-8.184062E-2,-1.1045325E-2,2.994637E-2,-7.7312574E-2,9.222916E-2,-6.4838775E-3],"categories":[],"categories_nodes":[],"categories_segments":[],"categories_sizes":[],"default_left":[0,0,0,0,0,0,0,0,0,0,0,0,0],"id":19,"left_children":[1,3,5,7,9,-1,11,-1,-1,-1,-1,-1,-1],"loss_changes":[6.359251E0,1.8835745E0,3.2604735E0,3.0201006E-1,2.0888383E0,0E0,2.8723855E0,0E0,0E0,0E0,0E0,0E0,0E0],"parents":[2147483647,0,0,1,1,2,2,3,3,4,4,6,6],"right_children":[2,4,6,8,10,-1,12,-1,-1,-1,-1,-1,-1],"split_conditions":[7.5E-1,3.2E-2,-3.8E-2,8.5E-1,2.79E-1,-5.5372167E-2,6.29E-1,-8.184062E-2,-1.1045325E-2,2.994637E-2,-7.7312574E-2,9.222916E-2,-6.4838775E-3],"split_indices":[0,1,1,3,2,0,3,0,0,0,0,0,0],"split_type":[0,0,0,0,0,0,0,0,0,0,0,0,0],"sum_hessian":[2.9562416E1,1.5024722E1,1.4537695E1,8.6431E0,6.3816214E0,2.0888932E0,1.2448801E1,7.6275287E0,1.0155717E0,4.7173657E0,1.6642559E0,8.319694E0,4.129108E0],"tree_param":{"num_deleted":"0","num_feature":"5","num_nodes":"13","size_leaf_vector":"1"}},{"base_weights":[-3.6681328E-2,-8.170303E-1,2.0137562E-1,-9.12832E-2,-2.0661581E-2,-2.3375008E-1,5.615945E-1,1.137351E-2,-7.500004E-2,7.7691734E-2,-2.1761557E-2],"categories":[],"categories_nodes":[],"categories_segments":[],"categories_sizes":[],"default_left":[0,0,0,0,0,0,0,0,0,0,0],"id":20,"left_children":[1,3,5,-1,-1,7,9,-1,-1,-1,-1],"loss_changes":[5.65312E0,2.2683477E-1,3.8054817E0,0E0,0E0,2.1165102E0,2.3701057E0,0E0,0E0,0E0,0E0],"parents":[2147483647,0,0,1,1,2,2,5,5,6,6],"right_children":[2,4,6,-1,-1,8,10,-1,-1,-1,-1],"split_conditions":[5E-1,8.33E-1,6E-3,-9.12832E-2,-2.0661581E-2,4.8E-1,3.64E-1,1.137351E-2,-7.500004E-2,7.7691734E-2,-2.1761557E-2],"split_indices":[0,4,1,0,0,3,2,0,0,0,0],"split_type":[0,0,0,0,0,0,0,0,0,0,0],"sum_hessian":[2.8545479E1,6.104124E0,2.2441355E1,4.847847E0,1.2562771E0,1.0322907E1,1.2118448E1,6.635966E0,3.6869414E0,9.49703E0,2.621418E0],"tree_param":{"num_deleted":"0","num_feature":"5","num_nodes":"11","size_leaf_vector":"1"}},{"base_weights":[-3.8596425E-2,-3.741558E-1,5.083255E-1,-6.8917036E-2,-9.928443E-2,-3.1319838E-2,7.1935755E-1,-6.963431E-2,2.6716366E-2,3.4165848E-2,8.897278E-2],"categories":[],"categories_nodes":[],"categories_segments":[],"categories_sizes":[],"default_left":[0,0,0,0,0,0,0,0,0,0,0],"id":21,"left_children":[1,3,5,7,-1,-1,9,-1,-1,-1,-1],"loss_changes":[5.4770956E0,3.4119723E0,2.1978683E0,3.014932E0,0E0,0E0,2.980523E-1,0E0,0E0,0E0,0E0],"parents":[2147483647,0,0,1,1,2,2,3,3,6,6],"right_children":[2,4,6,8,-1,-1,10,-1,-1,-1,-1],"split_conditions":[8.33E-1,2.82E-1,-3.2E-2,5E-1,-9.928443E-2,-3.1319838E-2,5E-3,-6.963431E-2,2.6716366E-2,3.4165848E-2,8.897278E-2],"split_indices":[0,2,1,0,0,0,1,0,0,0,0],"split_type":[0,0,0,0,0,0,0,0,0,0,0],"sum_hessian":[2.7807568E1,1.7429644E1,1.0377923E1,1.2415615E1,5.014028E0,2.0220773E0,8.355845E0,3.9567823E0,8.458833E0,3.5316987E0,4.824147E0],"tree_param":{"num_deleted":"0","num_feature":"5","num_nodes":"11","size_leaf_vector":"1"}},{"base_weights":[-3.8121764E-2,-3.5632622E-1,4.7525555E-1,-6.679089E-2,-9.682846E-2,-2.9538363E-2,6.7486864E-1,-5.7373583E-2,3.0983059E-2,8.282392E-2,2.7115224E-2],"categories":[],"categories_nodes":[],"categories_segments":[],"categories_sizes":[],"default_left":[0,0,0,0,0,0,0,0,0,0,0],"id":22,"left_children":[1,3,5,7,-1,-1,9,-1,-1,-1,-1],"loss_changes":[4.7508197E0,3.1043217E0,1.9160948E0,2.700884E0,0E0,0E0,3.4311914E-1,0E0,0E0,0E0,0E0],"parents":[2147483647,0,0,1,1,2,2,3,3,6,6],"right_children":[2,4,6,8,-1,-1,10,-1,-1,-1,-1],"split_conditions":[8.33E-1,2.82E-1,-3.2E-2,6E-3,-9.682846E-2,-2.9538363E-2,6.29E-1,-5.7373583E-2,3.0983059E-2,8.282392E-2,2.7115224E-2],"split_indices":[0,2,1,1,0,0,3,0,0,0,0],"split_type":[0,0,0,0,0,0,0,0,0,0,0],"sum_hessian":[2.704544E1,1.688537E1,1.0160069E1,1.2215163E1,4.670207E0,1.991557E0,8.168513E0,4.9836416E0,7.2315216E0,5.1576157E0,3.0108972E0],"tree_param":{"num_deleted":"0","num_feature":"5","num_nodes":"11","size_leaf_vector":"1"}},{"base_weights":[-3.7179295E-2,-6.666289E-1,2.0492789E-1,-9.141636E-2,-1.9902979E-1,-5.2901995E-1,3.766316E-1,-6.314996E-2,3.0574614E-2,1.2863377E-2,-7.814329E-2,6.4012654E-2,-1.1503846E-2],"categories":[],"categories_nodes":[],"categories_segments":[],"categories_sizes":[],"default_left":[0,0,0,0,0,0,0,0,0,0,0,0,0],"id":23,"left_children":[1,3,5,-1,7,9,11,-1,-1,-1,-1,-1,-1],"loss_changes":[4.2934813E0,7.223098E-1,2.7782428E0,0E0,1.0624505E0,8.136233E-1,2.2979174E0,0E0,0E0,0E0,0E0,0E0,0E0],"parents":[2147483647,0,0,1,1,2,2,4,4,5,5,6,6],"right_children":[2,4,6,-1,8,10,12,-1,-1,-1,-1,-1,-1],"split_conditions":[5.83E-1,6.67E-1,-3.4E-2,-9.141636E-2,3.5E-2,5.6E-2,2.82E-1,-6.314996E-2,3.0574614E-2,1.2863377E-2,-7.814329E-2,6.4012654E-2,-1.1503846E-2],"split_indices":[0,4,1,0,1,2,2,0,0,0,0,0,0],"split_type":[0,0,0,0,0,0,0,0,0,0,0,0,0],"sum_hessian":[2.6277077E1,6.812347E0,1.946473E1,3.8298888E0,2.9824584E0,3.2958038E0,1.6168926E1,1.4710652E0,1.5113932E0,1.0501238E0,2.2456799E0,1.0330617E1,5.838309E0],"tree_param":{"num_deleted":"0","num_feature":"5","num_nodes":"13","size_leaf_vector":"1"}},{"base_weights":[-3.9994746E-2,-4.190989E-1,3.4761217E-1,-6.872957E-1,-3.7087433E-2,-2.8221209E-2,7.674408E-1,-7.497568E-2,-1.3853635E-2,2.4982942E-2,-6.81411E-2,3.415729E-2,-5.4969084E-2,9.622505E-2,2.0393884E-2],"categories":[],"categories_nodes":[],"categories_segments":[],"categories_sizes":[],"default_left":[0,0,0,0,0,0,0,0,0,0,0,0,0,0,0],"id":24,"left_children":[1,3,5,7,9,11,13,-1,-1,-1,-1,-1,-1,-1,-1],"loss_changes":[4.048106E0,1.3965027E0,2.1798522E0,1.7367673E-1,1.4239969E0,1.7654881E0,5.168979E-1,0E0,0E0,0E0,0E0,0E0,0E0,0E0,0E0],"parents":[2147483647,0,0,1,1,2,2,3,3,4,4,5,5,6,6],"right_children":[2,4,6,8,10,12,14,-1,-1,-1,-1,-1,-1,-1,-1],"split_conditions":[7.5E-1,3.2E-2,8E-3,8.34E-1,2.79E-1,4.8E-1,6.95E-1,-7.497568E-2,-1.3853635E-2,2.4982942E-2,-6.81411E-2,3.415729E-2,-5.4969084E-2,9.622505E-2,2.0393884E-2],"split_indices":[0,1,1,3,2,3,3,0,0,0,0,0,0,0,0],"split_type":[0,0,0,0,0,0,0,0,0,0,0,0,0,0,0],"sum_hessian":[2.5557314E1,1.2879297E1,1.2678017E1,7.0973496E0,5.7819476E0,7.1816945E0,5.496322E0,6.0432196E0,1.05413E0,4.4241414E0,1.3578061E0,4.4037833E0,2.7779112E0,3.5584836E0,1.9378388E0],"tree_param":{"num_deleted":"0","num_feature":"5","num_nodes":"15","size_leaf_vector":"1"}},{"base_weights":[-3.8572162E-2,-7.396323E-1,1.5570477E-1,-8.555547E-2,-1.1477859E-2,-2.1992348E-1,4.6577838E-1,7.212776E-3,-6.702354E-2,6.540435E-2,-1.8369252E-2],"categories":[],"categories_nodes":[],"categories_segments":[],"categories_sizes":[],"default_left":[0,0,0,0,0,0,0,0,0,0,0],"id":25,"left_children":[1,3,5,-1,-1,7,9,-1,-1,-1,-1],"loss_changes":[3.6343625E0,3.205111E-1,2.555107E0,0E0,0E0,1.3900048E0,1.5698447E0,0E0,0E0,0E0,0E0],"parents":[2147483647,0,0,1,1,2,2,5,5,6,6],"right_children":[2,4,6,-1,-1,8,10,-1,-1,-1,-1],"split_conditions":[5E-1,8.33E-1,6E-3,-8.555547E-2,-1.1477859E-2,4.8E-1,3.64E-1,7.212776E-3,-6.702354E-2,6.540435E-2,-1.8369252E-2],"split_indices":[0,4,1,0,0,3,2,0,0,0,0],"split_type":[0,0,0,0,0,0,0,0,0,0,0],"sum_hessian":[2.4838495E1,4.780536E0,2.005796E1,3.7210097E0,1.0595267E0,9.201658E0,1.0856301E1,6.0910892E0,3.110569E0,8.4110985E0,2.4452033E0],"tree_param":{"num_deleted":"0","num_feature":"5","num_nodes":"11","size_leaf_vector":"1"}},{"base_weights":[-4.0294267E-2,-3.307217E-1,4.2200184E-1,-6.454042E-2,-9.212109E-2,-2.7271528E-2,6.104729E-1,-6.1906476E-2,2.0667372E-2,2.6931524E-2,8.2077466E-2],"categories":[],"categories_nodes":[],"categories_segments":[],"categories_sizes":[],"default_left":[0,0,0,0,0,0,0,0,0,0,0],"id":26,"left_children":[1,3,5,7,-1,-1,9,-1,-1,-1,-1],"loss_changes":[3.5332434E0,2.4686475E0,1.5009451E0,1.9570569E0,0E0,0E0,3.7628937E-1,0E0,0E0,0E0,0E0],"parents":[2147483647,0,0,1,1,2,2,3,3,6,6],"right_children":[2,4,6,8,-1,-1,10,-1,-1,-1,-1],"split_conditions":[8.33E-1,2.82E-1,-3.2E-2,5E-1,-9.212109E-2,-2.7271528E-2,5.83E-1,-6.1906476E-2,2.0667372E-2,2.6931524E-2,8.2077466E-2],"split_indices":[0,2,1,0,0,0,4,0,0,0,0],"split_type":[0,0,0,0,0,0,0,0,0,0,0],"sum_hessian":[2.4276258E1,1.5084415E1,9.191844E0,1.1162067E1,3.9223475E0,1.8661395E0,7.3257046E0,3.2449257E0,7.917142E0,3.6634161E0,3.6622884E0],"tree_param":{"num_deleted":"0","num_feature":"5","num_nodes":"11","size_leaf_vector":"1"}},{"base_weights":[-3.9748285E-2,-3.857063E-1,3.0703622E-1,-6.4626414E-1,-2.5195355E-2,-4.6358287E-2,4.7137928E-1,-7.076204E-2,-1.3963279E-2,2.7798966E-2,-6.0128104E-2,7.773179E-2,-7.1137534E-3],"categories":[],"categories_nodes":[],"categories_segments":[],"categories_sizes":[],"default_left":[0,0,0,0,0,0,0,0,0,0,0,0,0],"id":27,"left_children":[1,3,5,7,9,-1,11,-1,-1,-1,-1,-1,-1],"loss_changes":[3.085833E0,1.1884167E0,1.8533971E0,1.3134384E-1,1.2886525E0,0E0,1.9035752E0,0E0,0E0,0E0,0E0,0E0,0E0],"parents":[2147483647,0,0,1,1,2,2,3,3,4,4,6,6],"right_children":[2,4,6,8,10,-1,12,-1,-1,-1,-1,-1,-1],"split_conditions":[7.5E-1,3.2E-2,-3.8E-2,8.32E-1,4.5E-2,-4.6358287E-2,6.29E-1,-7.076204E-2,-1.3963279E-2,2.7798966E-2,-6.0128104E-2,7.773179E-2,-7.1137534E-3],"split_indices":[0,1,1,3,1,0,3,0,0,0,0,0,0],"split_type":[0,0,0,0,0,0,0,0,0,0,0,0,0],"sum_hessian":[2.3733982E1,1.1824964E1,1.1909018E1,6.403921E0,5.4210424E0,1.7732531E0,1.0135765E1,5.358283E0,1.0456382E0,3.8908167E0,1.5302259E0,6.204241E0,3.931524E0],"tree_param":{"num_deleted":"0","num_feature":"5","num_nodes":"13","size_leaf_vector":"1"}},{"base_weights":[-4.0601347E-2,-3.0422345E-1,3.7498388E-1,-4.7336068E-2,-8.943698E-2,-1.4006925E-1,6.0238945E-1,-5.823027E-2,2.0289509E-2,5.5408705E-2,-7.219105E-2,1.6567763E-2,8.216818E-2],"categories":[],"categories_nodes":[],"categories_segments":[],"categories_sizes":[],"default_left":[0,0,0,0,0,0,0,0,0,0,0,0,0],"id":28,"left_children":[1,3,5,7,-1,9,11,-1,-1,-1,-1,-1,-1],"loss_changes":[2.7517698E0,2.2746367E0,1.2313354E0,1.6849216E0,0E0,1.9390876E0,5.325005E-1,0E0,0E0,0E0,0E0,0E0,0E0],"parents":[2147483647,0,0,1,1,2,2,3,3,5,5,6,6],"right_children":[2,4,6,8,-1,10,12,-1,-1,-1,-1,-1,-1],"split_conditions":[8.33E-1,2.82E-1,-6E-3,5E-1,-8.943698E-2,6.4E-2,5.83E-1,-5.823027E-2,2.0289509E-2,5.5408705E-2,-7.219105E-2,1.6567763E-2,8.216818E-2],"split_indices":[0,2,1,0,0,2,4,0,0,0,0,0,0],"split_type":[0,0,0,0,0,0,0,0,0,0,0,0,0],"sum_hessian":[2.3075872E1,1.4283346E1,8.792526E0,1.0704116E1,3.5792303E0,2.8106692E0,5.981857E0,2.9883323E0,7.715783E0,1.3033861E0,1.5072831E0,2.5864851E0,3.3953717E0],"tree_param":{"num_deleted":"0","num_feature":"5","num_nodes":"13","size_leaf_vector":"1"}},{"base_weights":[-3.9946713E-2,-2.9018047E-1,3.523868E-1,3.6445278E-1,-4.8722437E-1,-2.462946E-2,5.1803744E-1,-1.4038014E-2,7.272538E-2,7.2326288E-3,-6.42247E-2,2.0357942E-2,7.101857E-2],"categories":[],"categories_nodes":[],"categories_segments":[],"categories_sizes":[],"default_left":[0,0,0,0,0,0,0,0,0,0,0,0,0],"id":29,"left_children":[1,3,5,7,9,-1,11,-1,-1,-1,-1,-1,-1],"loss_changes":[2.4116447E0,2.1009612E0,1.0808486E0,8.387152E-1,1.0777488E0,0E0,3.2981038E-1,0E0,0E0,0E0,0E0,0E0,0E0],"parents":[2147483647,0,0,1,1,2,2,3,3,4,4,6,6],"right_children":[2,4,6,8,10,-1,12,-1,-1,-1,-1,-1,-1],"split_conditions":[8.33E-1,2.46E-1,-3.2E-2,5E-3,5.9E-2,-2.462946E-2,5.83E-1,-1.4038014E-2,7.272538E-2,7.2326288E-3,-6.42247E-2,2.0357942E-2,7.101857E-2],"split_indices":[0,3,1,1,2,0,4,0,0,0,0,0,0],"split_type":[0,0,0,0,0,0,0,0,0,0,0,0,0],"sum_hessian":[2.2523169E1,1.3910991E1,8.612179E0,3.0218813E0,1.088911E1,1.7609742E0,6.8512044E0,1.5199527E0,1.5019286E0,2.4780586E0,8.411051E0,3.379694E0,3.4715104E0],"tree_param":{"num_deleted":"0","num_feature":"5","num_nodes":"13","size_leaf_vector":"1"}},{"base_weights":[-3.3845738E-2,-6.487506E-1,1.18936054E-1,-1.4569672E-2,-7.716929E-2,-2.2271606E-1,4.0102923E-1,3.5674542E-3,-6.250213E-2,5.741724E-2,-1.8872885E-2],"categories":[],"categories_nodes":[],"categories_segments":[],"categories_sizes":[],"default_left":[0,0,0,0,0,0,0,0,0,0,0],"id":30,"left_children":[1,3,5,-1,-1,7,9,-1,-1,-1,-1],"loss_changes":[2.2513115E0,1.819973E-1,1.9572943E0,0E0,0E0,1.0003303E0,1.2288785E0,0E0,0E0,0E0,0E0],"parents":[2147483647,0,0,1,1,2,2,5,5,6,6],"right_children":[2,4,6,-1,-1,8,10,-1,-1,-1,-1],"split_conditions":[5E-1,5.9E-2,6E-3,-1.4569672E-2,-7.716929E-2,4.8E-1,3.64E-1,3.5674542E-3,-6.250213E-2,5.741724E-2,-1.8872885E-2],"split_indices":[0,2,1,0,0,3,2,0,0,0,0],"split_type":[0,0,0,0,0,0,0,0,0,0,0],"sum_hessian":[2.2142502E1,3.7606518E0,1.838185E1,1.1677107E0,2.592941E0,8.408515E0,9.973335E0,5.6749563E0,2.7335582E0,7.7302804E0,2.2430546E0],"tree_param":{"num_deleted":"0","num_feature":"5","num_nodes":"11","size_leaf_vector":"1"}},{"base_weights":[-3.627728E-2,-3.3481622E-1,2.5994426E-1,-5.9342486E-1,7.1030986E-3,-4.1943472E-2,4.0745974E-1,-6.561024E-2,-1.2512443E-2,3.7200358E-2,-4.3136757E-2,7.1979396E-2,-9.943454E-3],"categories":[],"categories_nodes":[],"categories_segments":[],"categories_sizes":[],"default_left":[0,0,0,0,0,0,0,0,0,0,0,0,0],"id":31,"left_children":[1,3,5,7,9,-1,11,-1,-1,-1,-1,-1,-1],"loss_changes":[2.0959308E0,1.043279E0,1.3700635E0,1.1463475E-1,1.1282315E0,0E0,1.7082989E0,0E0,0E0,0E0,0E0,0E0,0E0],"parents":[2147483647,0,0,1,1,2,2,3,3,4,4,6,6],"right_children":[2,4,6,8,10,-1,12,-1,-1,-1,-1,-1,-1],"split_conditions":[7.5E-1,3.2E-2,-3.8E-2,8.01E-1,1.67E-1,-4.1943472E-2,6.29E-1,-6.561024E-2,-1.2512443E-2,3.7200358E-2,-4.3136757E-2,7.1979396E-2,-9.943454E-3],"split_indices":[0,1,1,3,2,0,3,0,0,0,0,0,0],"split_type":[0,0,0,0,0,0,0,0,0,0,0,0,0],"sum_hessian":[2.1716434E1,1.0751019E1,1.0965416E1,5.7024407E0,5.0485773E0,1.6273532E0,9.338062E0,4.675625E0,1.0268162E0,2.8381903E0,2.210387E0,5.518009E0,3.8200533E0],"tree_param":{"num_deleted":"0","num_feature":"5","num_nodes":"13","size_leaf_vector":"1"}},{"base_weights":[-3.630359E-2,-5.3690135E-1,1.3556992E-1,-8.395999E-2,-3.3223808E-2,-1.7746869E-1,4.0280524E-1,-2.6030136E-2,1.9314608E-2,6.880635E-3,-5.7216164E-2,5.9702974E-2,-1.7411677E-2],"categories":[],"categories_nodes":[],"categories_segments":[],"categories_sizes":[],"default_left":[0,0,0,0,0,0,0,0,0,0,0,0,0],"id":32,"left_children":[1,3,5,-1,7,9,11,-1,-1,-1,-1,-1,-1],"loss_changes":[1.9803342E0,8.667655E-1,1.5189276E0,0E0,2.1702738E-1,8.8139427E-1,1.1841351E0,0E0,0E0,0E0,0E0,0E0,0E0],"parents":[2147483647,0,0,1,1,2,2,4,4,5,5,6,6],"right_children":[2,4,6,-1,8,10,12,-1,-1,-1,-1,-1,-1],"split_conditions":[5.83E-1,6.67E-1,6E-3,-8.395999E-2,4.25E-1,4.8E-1,3.64E-1,-2.6030136E-2,1.9314608E-2,6.880635E-3,-5.7216164E-2,5.9702974E-2,-1.7411677E-2],"split_indices":[0,4,1,0,3,3,2,0,0,0,0,0,0],"split_type":[0,0,0,0,0,0,0,0,0,0,0,0,0],"sum_hessian":[2.1170593E1,4.8680687E0,1.6302525E1,2.6241035E0,2.243965E0,7.662549E0,8.639976E0,1.0454016E0,1.1985633E0,5.2268453E0,2.4357035E0,6.437797E0,2.202179E0],"tree_param":{"num_deleted":"0","num_feature":"5","num_nodes":"13","size_leaf_vector":"1"}},{"base_weights":[-3.810654E-2,-2.6358044E-1,3.102069E-1,-2.9982138E-2,-8.392249E-2,-2.2209404E-2,4.623922E-1,-4.3542102E-2,2.4506804E-2,1.4659636E-2,6.545525E-2],"categories":[],"categories_nodes":[],"categories_segments":[],"categories_sizes":[],"default_left":[0,0,0,0,0,0,0,0,0,0,0],"id":33,"left_children":[1,3,5,7,-1,-1,9,-1,-1,-1,-1],"loss_changes":[1.7915677E0,1.8246818E0,8.329419E-1,1.3136042E0,0E0,0E0,3.4913993E-1,0E0,0E0,0E0,0E0],"parents":[2147483647,0,0,1,1,2,2,3,3,6,6],"right_children":[2,4,6,8,-1,-1,10,-1,-1,-1,-1],"split_conditions":[8.33E-1,2.82E-1,-3.2E-2,6E-3,-8.392249E-2,-2.2209404E-2,5.83E-1,-4.3542102E-2,2.4506804E-2,1.4659636E-2,6.545525E-2],"split_indices":[0,2,1,1,0,0,4,0,0,0,0],"split_type":[0,0,0,0,0,0,0,0,0,0,0],"sum_hessian":[2.0771063E1,1.2756597E1,8.014467E0,9.822628E0,2.9339685E0,1.6797643E0,6.334703E0,3.7345855E0,6.0880423E0,3.0633247E0,3.271378E0],"tree_param":{"num_deleted":"0","num_feature":"5","num_nodes":"11","size_leaf_vector":"1"}},{"base_weights":[-3.7380416E-2,-6.012661E-1,9.800017E-2,-7.462329E-2,-9.254816E-3,-1.9131859E-1,3.3517143E-1,3.5227817E-2,-3.3315536E-2,8.8320464E-2,1.33168725E-2],"categories":[],"categories_nodes":[],"categories_segments":[],"categories_sizes":[],"default_left":[0,0,0,0,0,0,0,0,0,0,0],"id":34,"left_children":[1,3,5,-1,-1,7,9,-1,-1,-1,-1],"loss_changes":[1.6935992E0,2.4700665E-1,1.307997E0,0E0,0E0,7.9606247E-1,1.0253903E0,0E0,0E0,0E0,0E0],"parents":[2147483647,0,0,1,1,2,2,5,5,6,6],"right_children":[2,4,6,-1,-1,8,10,-1,-1,-1,-1],"split_conditions":[5E-1,4.91E-1,6E-3,-7.462329E-2,-9.254816E-3,5.2E-2,2.46E-1,3.5227817E-2,-3.3315536E-2,8.8320464E-2,1.33168725E-2],"split_indices":[0,3,1,0,0,2,3,0,0,0,0],"split_type":[0,0,0,0,0,0,0,0,0,0,0],"sum_hessian":[2.0413319E1,3.2858462E0,1.7127472E1,2.193801E0,1.0920453E0,7.8026114E0,9.324862E0,1.3075752E0,6.495036E0,1.6031835E0,7.721678E0],"tree_param":{"num_deleted":"0","num_feature":"5","num_nodes":"11","size_leaf_vector":"1"}},{"base_weights":[-3.3303697E-2,-3.0630523E-1,2.3403442E-1,-7.893525E-2,-1.2512234E-1,-3.7882846E-2,3.68307E-1,7.0773296E-2,-3.841436E-2,6.750613E-2,-1.02093285E-2],"categories":[],"categories_nodes":[],"categories_segments":[],"categories_sizes":[],"default_left":[0,0,0,0,0,0,0,0,0,0,0],"id":35,"left_children":[1,3,5,-1,7,-1,9,-1,-1,-1,-1],"loss_changes":[1.6132268E0,8.5373867E-1,1.0643425E0,0E0,2.2356389E0,0E0,1.4723161E0,0E0,0E0,0E0,0E0],"parents":[2147483647,0,0,1,1,2,2,4,4,6,6],"right_children":[2,4,6,-1,8,-1,10,-1,-1,-1,-1],"split_conditions":[7.5E-1,5.6E-2,-3.8E-2,-7.893525E-2,6E-2,-3.7882846E-2,6.29E-1,7.0773296E-2,-3.841436E-2,6.750613E-2,-1.02093285E-2],"split_indices":[0,2,1,0,2,0,3,0,0,0,0],"split_type":[0,0,0,0,0,0,0,0,0,0,0],"sum_hessian":[2.012171E1,9.883289E0,1.02384205E1,1.7802764E0,8.103012E0,1.5126886E0,8.725732E0,1.5112886E0,6.591724E0,5.018212E0,3.7075202E0],"tree_param":{"num_deleted":"0","num_feature":"5","num_nodes":"11","size_leaf_vector":"1"}},{"base_weights":[-3.190916E-2,-5.702121E-1,9.3309924E-2,-7.174537E-2,-7.969349E-3,-1.8241341E-1,3.1732243E-1,-3.7712302E-2,2.1761958E-2,8.459176E-2,1.2648503E-2],"categories":[],"categories_nodes":[],"categories_segments":[],"categories_sizes":[],"default_left":[0,0,0,0,0,0,0,0,0,0,0],"id":36,"left_children":[1,3,5,-1,-1,7,9,-1,-1,-1,-1],"loss_changes":[1.447146E0,2.3484981E-1,1.1472118E0,0E0,0E0,7.473111E-1,9.114208E-1,0E0,0E0,0E0,0E0],"parents":[2147483647,0,0,1,1,2,2,5,5,6,6],"right_children":[2,4,6,-1,-1,8,10,-1,-1,-1,-1],"split_conditions":[5E-1,4.91E-1,6E-3,-7.174537E-2,-7.969349E-3,9.17E-1,2.46E-1,-3.7712302E-2,2.1761958E-2,8.459176E-2,1.2648503E-2],"split_indices":[0,3,1,0,0,0,3,0,0,0,0],"split_type":[0,0,0,0,0,0,0,0,0,0,0],"sum_hessian":[1.9679813E1,3.0432978E0,1.6636517E1,1.9848512E0,1.0584464E0,7.5407577E0,9.095758E0,5.1105504E0,2.4302075E0,1.5021989E0,7.5935593E0],"tree_param":{"num_deleted":"0","num_feature":"5","num_nodes":"11","size_leaf_vector":"1"}},{"base_weights":[-2.9165959E-2,-2.8164777E-1,2.1714294E-1,-8.4658496E-2,-7.308404E-2,-3.5470176E-2,3.4356475E-1,-7.543063E-2,1.8692827E-2,6.445857E-2,-9.794765E-3],"categories":[],"categories_nodes":[],"categories_segments":[],"categories_sizes":[],"default_left":[0,0,0,0,0,0,0,0,0,0,0],"id":37,"left_children":[1,3,5,7,-1,-1,9,-1,-1,-1,-1],"loss_changes":[1.3299011E0,8.681067E-1,9.0926284E-1,1.6754069E0,0E0,0E0,1.3161211E0,0E0,0E0,0E0,0E0],"parents":[2147483647,0,0,1,1,2,2,3,3,6,6],"right_children":[2,4,6,8,-1,-1,10,-1,-1,-1,-1],"split_conditions":[7.5E-1,2.82E-1,-3.8E-2,5.6E-2,-7.308404E-2,-3.5470176E-2,6.29E-1,-7.543063E-2,1.8692827E-2,6.445857E-2,-9.794765E-3],"split_indices":[0,2,1,2,0,0,3,0,0,0,0],"split_type":[0,0,0,0,0,0,0,0,0,0,0],"sum_hessian":[1.9401566E1,9.509879E0,9.891687E0,7.4369445E0,2.072935E0,1.4639755E0,8.4277115E0,1.6330212E0,5.803923E0,4.7376533E0,3.6900582E0],"tree_param":{"num_deleted":"0","num_feature":"5","num_nodes":"11","size_leaf_vector":"1"}},{"base_weights":[-3.245045E-2,-4.5918494E-1,1.0667046E-1,-7.891502E-2,3.9297603E-3,-3.4064648E-1,2.3428689E-1,1.1969681E-2,-6.810384E-2,6.1976362E-2,-7.056246E-3],"categories":[],"categories_nodes":[],"categories_segments":[],"categories_sizes":[],"default_left":[0,0,0,0,0,0,0,0,0,0,0],"id":38,"left_children":[1,3,5,-1,-1,7,9,-1,-1,-1,-1],"loss_changes":[1.2347367E0,8.6971855E-1,9.859757E-1,0E0,0E0,6.974962E-1,1.5646918E0,0E0,0E0,0E0,0E0],"parents":[2147483647,0,0,1,1,2,2,5,5,6,6],"right_children":[2,4,6,-1,-1,8,10,-1,-1,-1,-1],"split_conditions":[5.83E-1,6.67E-1,-3.2E-2,-7.891502E-2,3.9297603E-3,6.4E-2,3.92E-1,1.1969681E-2,-6.810384E-2,6.1976362E-2,-7.056246E-3],"split_indices":[0,4,1,0,0,2,3,0,0,0,0],"split_type":[0,0,0,0,0,0,0,0,0,0,0],"sum_hessian":[1.8973072E1,4.0990806E0,1.4873991E1,2.1155858E0,1.9834948E0,2.93101E0,1.1942981E1,1.5215858E0,1.4094243E0,4.817862E0,7.1251187E0],"tree_param":{"num_deleted":"0","num_feature":"5","num_nodes":"11","size_leaf_vector":"1"}},{"base_weights":[-3.3760052E-2,-2.2655313E-1,2.5691336E-1,-4.873907E-3,-7.925892E-2,-2.3354E-2,5.273924E-1,-2.7093325E-2,3.1183494E-2,-3.112704E-2,1.9920893E-2,7.545881E-2,1.188312E-2],"categories":[],"categories_nodes":[],"categories_segments":[],"categories_sizes":[],"default_left":[0,0,0,0,0,0,0,0,0,0,0,0,0],"id":39,"left_children":[1,3,5,7,-1,9,11,-1,-1,-1,-1,-1,-1],"loss_changes":[1.1577362E0,1.5430114E0,6.409594E-1,9.157191E-1,0E0,3.8434505E-1,3.0598736E-1,0E0,0E0,0E0,0E0,0E0,0E0],"parents":[2147483647,0,0,1,1,2,2,3,3,5,5,6,6],"right_children":[2,4,6,8,-1,10,12,-1,-1,-1,-1,-1,-1],"split_conditions":[8.33E-1,2.82E-1,5E-3,3.2E-2,-7.925892E-2,3.2E-1,6.95E-1,-2.7093325E-2,3.1183494E-2,-3.112704E-2,1.9920893E-2,7.545881E-2,1.188312E-2],"split_indices":[0,2,1,1,0,3,3,0,0,0,0,0,0],"split_type":[0,0,0,0,0,0,0,0,0,0,0,0,0],"sum_hessian":[1.8620543E1,1.132781E1,7.292732E0,8.864699E0,2.4631112E0,4.030269E0,3.2624626E0,4.8961225E0,3.9685771E0,1.5833768E0,2.4468923E0,1.5523055E0,1.7101573E0],"tree_param":{"num_deleted":"0","num_feature":"5","num_nodes":"13","size_leaf_vector":"1"}},{"base_weights":[-3.0945253E-2,-5.244964E-1,8.098485E-2,-6.65475E-2,-9.277163E-3,-1.7103995E-1,2.86326E-1,3.396766E-2,-3.1218717E-2,7.886364E-2,1.0946731E-2],"categories":[],"categories_nodes":[],"categories_segments":[],"categories_sizes":[],"default_left":[0,0,0,0,0,0,0,0,0,0,0],"id":40,"left_children":[1,3,5,-1,-1,7,9,-1,-1,-1,-1],"loss_changes":[1.111282E0,1.6408741E-1,9.099533E-1,0E0,0E0,6.8961215E-1,7.6131916E-1,0E0,0E0,0E0,0E0],"parents":[2147483647,0,0,1,1,2,2,5,5,6,6],"right_children":[2,4,6,-1,-1,8,10,-1,-1,-1,-1],"split_conditions":[5E-1,4.87E-1,6E-3,-6.65475E-2,-9.277163E-3,5.2E-2,2.46E-1,3.396766E-2,-3.1218717E-2,7.886364E-2,1.0946731E-2],"split_indices":[0,3,1,0,0,2,3,0,0,0,0],"split_type":[0,0,0,0,0,0,0,0,0,0,0],"sum_hessian":[1.8347273E1,2.710317E0,1.5636956E1,1.6349835E0,1.0753334E0,7.0954375E0,8.541518E0,1.2318091E0,5.8636284E0,1.3234762E0,7.2180424E0],"tree_param":{"num_deleted":"0","num_feature":"5","num_nodes":"11","size_leaf_vector":"1"}},{"base_weights":[-2.7377052E-2,-2.589634E-1,1.9636151E-1,-7.245404E-2,-8.8937715E-2,-3.2222092E-2,3.1193918E-1,6.4448304E-2,-3.411306E-2,5.992328E-2,-8.433233E-3],"categories":[],"categories_nodes":[],"categories_segments":[],"categories_sizes":[],"default_left":[0,0,0,0,0,0,0,0,0,0,0],"id":41,"left_children":[1,3,5,-1,7,-1,9,-1,-1,-1,-1],"loss_changes":[1.0419933E0,7.137591E-1,7.177323E-1,0E0,1.7626109E0,0E0,1.0670865E0,0E0,0E0,0E0,0E0],"parents":[2147483647,0,0,1,1,2,2,4,4,6,6],"right_children":[2,4,6,-1,8,-1,10,-1,-1,-1,-1],"split_conditions":[7.5E-1,5.6E-2,-3.8E-2,-7.245404E-2,6E-2,-3.2222092E-2,6.29E-1,6.4448304E-2,-3.411306E-2,5.992328E-2,-8.433233E-3],"split_indices":[0,2,1,0,2,0,3,0,0,0,0],"split_type":[0,0,0,0,0,0,0,0,0,0,0],"sum_hessian":[1.8128565E1,8.830692E0,9.2978735E0,1.4898143E0,7.3408785E0,1.368713E0,7.92916E0,1.4803237E0,5.8605547E0,4.2997203E0,3.6294398E0],"tree_param":{"num_deleted":"0","num_feature":"5","num_nodes":"11","size_leaf_vector":"1"}},{"base_weights":[-2.6291925E-2,-6.2243402E-2,5.7453852E-2,-2.1526839E-1,2.8049824E-1,-3.92795E-2,1.8801369E-2,4.2527337E-2,-1.8639999E-2],"categories":[],"categories_nodes":[],"categories_segments":[],"categories_sizes":[],"default_left":[0,0,0,0,0,0,0,0,0],"id":42,"left_children":[1,-1,3,5,7,-1,-1,-1,-1],"loss_changes":[9.738411E-1,0E0,1.1182643E0,6.745168E-1,7.552948E-1,0E0,0E0,0E0,0E0],"parents":[2147483647,0,0,2,2,3,3,4,4],"right_children":[2,-1,4,6,8,-1,-1,-1,-1],"split_conditions":[2.5E-1,-6.2243402E-2,6E-3,9.17E-1,3.64E-1,-3.92795E-2,1.8801369E-2,4.2527337E-2,-1.8639999E-2],"split_indices":[0,0,1,0,2,0,0,0,0],"split_type":[0,0,0,0,0,0,0,0,0],"sum_hessian":[1.7790012E1,1.3989809E0,1.6391031E1,7.389976E0,9.001056E0,5.1492553E0,2.2407205E0,6.9386735E0,2.062382E0],"tree_param":{"num_deleted":"0","num_feature":"5","num_nodes":"9","size_leaf_vector":"1"}},{"base_weights":[-2.7278868E-2,-2.4610114E-1,1.8434276E-1,-6.910461E-2,-6.729662E-2,-3.7816167E-2,4.541502E-1,-6.9811754E-2,1.7364366E-2,5.3731788E-2,-2.7792126E-2,7.559065E-2,1.1894841E-3],"categories":[],"categories_nodes":[],"categories_segments":[],"categories_sizes":[],"default_left":[0,0,0,0,0,0,0,0,0,0,0,0,0],"id":43,"left_children":[1,3,5,7,-1,9,11,-1,-1,-1,-1,-1,-1],"loss_changes":[9.049565E-1,6.753582E-1,6.17074E-1,1.32265E0,0E0,1.0347763E0,6.0440755E-1,0E0,0E0,0E0,0E0,0E0,0E0],"parents":[2147483647,0,0,1,1,2,2,3,3,5,5,6,6],"right_children":[2,4,6,8,-1,10,12,-1,-1,-1,-1,-1,-1],"split_conditions":[7.5E-1,2.82E-1,8E-3,5.6E-2,-6.729662E-2,5.3E-2,6.95E-1,-6.9811754E-2,1.7364366E-2,5.3731788E-2,-2.7792126E-2,7.559065E-2,1.1894841E-3],"split_indices":[0,2,1,2,0,2,3,0,0,0,0,0,0],"split_type":[0,0,0,0,0,0,0,0,0,0,0,0,0],"sum_hessian":[1.7562632E1,8.5543165E0,9.008316E0,6.8683095E0,1.6860069E0,5.411959E0,3.5963564E0,1.3901756E0,5.478134E0,1.2293648E0,4.1825943E0,1.7161787E0,1.8801779E0],"tree_param":{"num_deleted":"0","num_feature":"5","num_nodes":"13","size_leaf_vector":"1"}},{"base_weights":[-2.5950665E-2,-6.0003765E-2,5.3082496E-2,-1.8862921E-1,2.5106034E-1,-6.1767977E-2,-1.6409814E-3,-7.668439E-4,5.393337E-2],"categories":[],"categories_nodes":[],"categories_segments":[],"categories_sizes":[],"default_left":[0,0,0,0,0,0,0,0,0],"id":44,"left_children":[1,-1,3,5,7,-1,-1,-1,-1],"loss_changes":[8.615117E-1,0E0,8.604734E-1,5.973818E-1,7.3282236E-1,0E0,0E0,0E0,0E0],"parents":[2147483647,0,0,2,2,3,3,4,4],"right_children":[2,-1,4,6,8,-1,-1,-1,-1],"split_conditions":[2.5E-1,-6.0003765E-2,6E-3,6.67E-1,6.67E-1,-6.1767977E-2,-1.6409814E-3,-7.668439E-4,5.393337E-2],"split_indices":[0,0,1,0,4,0,0,0,0],"split_type":[0,0,0,0,0,0,0,0,0],"sum_hessian":[1.7285769E1,1.2940106E0,1.5991758E1,7.221828E0,8.76993E0,1.3276539E0,5.894174E0,5.134792E0,3.6351378E0],"tree_param":{"num_deleted":"0","num_feature":"5","num_nodes":"9","size_leaf_vector":"1"}},{"base_weights":[-2.7632952E-2,-3.944361E-1,8.57138E-2,-7.426986E-2,9.021833E-3,3.1216627E-1,-1.075578E-1,-2.5174502E-2,5.482012E-2,-5.6211293E-2,1.4518467E-2],"categories":[],"categories_nodes":[],"categories_segments":[],"categories_sizes":[],"default_left":[0,0,0,0,0,0,0,0,0,0,0],"id":45,"left_children":[1,3,5,-1,-1,7,9,-1,-1,-1,-1],"loss_changes":[7.8790313E-1,8.1983066E-1,6.759658E-1,0E0,0E0,1.071706E0,1.076825E0,0E0,0E0,0E0,0E0],"parents":[2147483647,0,0,1,1,2,2,5,5,6,6],"right_children":[2,4,6,-1,-1,8,10,-1,-1,-1,-1],"split_conditions":[5.83E-1,6.67E-1,3.82E-1,-7.426986E-2,9.021833E-3,-3.2E-2,2E-3,-2.5174502E-2,5.482012E-2,-5.6211293E-2,1.4518467E-2],"split_indices":[0,4,3,0,0,1,1,0,0,0,0],"split_type":[0,0,0,0,0,0,0,0,0,0,0],"sum_hessian":[1.7137762E1,3.4602115E0,1.367755E1,1.7036064E0,1.7566051E0,6.014874E0,7.6626763E0,1.755131E0,4.259743E0,2.3007476E0,5.3619285E0],"tree_param":{"num_deleted":"0","num_feature":"5","num_nodes":"11","size_leaf_vector":"1"}},{"base_weights":[-2.9781453E-2,-1.9758186E-1,2.1363842E-1,1.0741969E-2,-7.476296E-2,-7.506209E-2,4.1609845E-1,-1.3117559E-2,5.15107E-2,2.9795328E-2,-3.638175E-2,-2.225666E-2,6.6898294E-2],"categories":[],"categories_nodes":[],"categories_segments":[],"categories_sizes":[],"default_left":[0,0,0,0,0,0,0,0,0,0,0,0,0],"id":46,"left_children":[1,3,5,7,-1,9,11,-1,-1,-1,-1,-1,-1],"loss_changes":[7.706884E-1,1.2772906E0,4.8469254E-1,7.1319014E-1,0E0,5.440983E-1,9.100727E-1,0E0,0E0,0E0,0E0,0E0,0E0],"parents":[2147483647,0,0,1,1,2,2,3,3,5,5,6,6],"right_children":[2,4,6,8,-1,10,12,-1,-1,-1,-1,-1,-1],"split_conditions":[8.33E-1,2.82E-1,5.83E-1,4.91E-1,-7.476296E-2,3.04E-1,-3E-3,-1.3117559E-2,5.15107E-2,2.9795328E-2,-3.638175E-2,-2.225666E-2,6.6898294E-2],"split_indices":[0,2,4,3,0,3,1,0,0,0,0,0,0],"split_type":[0,0,0,0,0,0,0,0,0,0,0,0,0],"sum_hessian":[1.6834745E1,1.0076715E1,6.7580304E0,8.01979E0,2.0569258E0,3.0450919E0,3.7129388E0,6.8361597E0,1.1836303E0,1.3147889E0,1.7303028E0,1.0871662E0,2.6257727E0],"tree_param":{"num_deleted":"0","num_feature":"5","num_nodes":"13","size_leaf_vector":"1"}},{"base_weights":[-2.7189508E-2,-5.7022E-2,4.583191E-2,1.9320123E-1,-2.3726293E-1,-6.9033466E-3,4.442139E-2,-7.557031E-2,1.1590715E-2],"categories":[],"categories_nodes":[],"categories_segments":[],"categories_sizes":[],"default_left":[0,0,0,0,0,0,0,0,0],"id":47,"left_children":[1,-1,3,5,7,-1,-1,-1,-1],"loss_changes":[7.2536534E-1,0E0,7.329287E-1,7.7988964E-1,1.2021186E0,0E0,0E0,0E0,0E0],"parents":[2147483647,0,0,2,2,3,3,4,4],"right_children":[2,-1,4,6,8,-1,-1,-1,-1],"split_conditions":[2.5E-1,-5.7022E-2,2.82E-1,3.24E-1,5.83E-1,-6.9033466E-3,4.442139E-2,-7.557031E-2,1.1590715E-2],"split_indices":[0,0,2,3,4,0,0,0,0],"split_type":[0,0,0,0,0,0,0,0,0],"sum_hessian":[1.6633814E1,1.1645546E0,1.5469259E1,1.0382191E1,5.087068E0,5.4321575E0,4.950033E0,1.5994161E0,3.487652E0],"tree_param":{"num_deleted":"0","num_feature":"5","num_nodes":"9","size_leaf_vector":"1"}},{"base_weights":[-2.9683607E-2,-2.2437821E-1,1.5711357E-1,-6.703017E-2,-6.398205E-2,3.49167E-1,-1.2691401E-1,5.6563366E-2,-3.0410936E-2,-2.4435138E-2,5.435974E-2,-6.685716E-2,2.212758E-2],"categories":[],"categories_nodes":[],"categories_segments":[],"categories_sizes":[],"default_left":[0,0,0,0,0,0,0,0,0,0,0,0,0],"id":48,"left_children":[1,3,5,-1,7,9,11,-1,-1,-1,-1,-1,-1],"loss_changes":[6.72218E-1,5.999511E-1,5.639739E-1,0E0,1.3385197E0,8.194569E-1,1.0110619E0,0E0,0E0,0E0,0E0,0E0,0E0],"parents":[2147483647,0,0,1,1,2,2,4,4,5,5,6,6],"right_children":[2,4,6,-1,8,10,12,-1,-1,-1,-1,-1,-1],"split_conditions":[7.5E-1,5.6E-2,6.29E-1,-6.703017E-2,6E-2,-3.8E-2,6.67E-1,5.6563366E-2,-3.0410936E-2,-2.4435138E-2,5.435974E-2,-6.685716E-2,2.212758E-2],"split_indices":[0,2,3,0,2,1,4,0,0,0,0,0,0],"split_type":[0,0,0,0,0,0,0,0,0,0,0,0,0],"sum_hessian":[1.6514248E1,7.9876785E0,8.526568E0,1.2720808E0,6.7155976E0,4.9500847E0,3.5764837E0,1.4798533E0,5.2357445E0,1.1581033E0,3.7919815E0,1.0394068E0,2.537077E0],"tree_param":{"num_deleted":"0","num_feature":"5","num_nodes":"13","size_leaf_vector":"1"}},{"base_weights":[-3.0451395E-2,-5.4918498E-2,3.822897E-2,-1.4429125E-1,2.501412E-1,2.3970593E-2,-2.8667826E-2,-1.7727753E-2,5.9765197E-2],"categories":[],"categories_nodes":[],"categories_segments":[],"categories_sizes":[],"default_left":[0,0,0,0,0,0,0,0,0],"id":49,"left_children":[1,-1,3,5,7,-1,-1,-1,-1],"loss_changes":[6.34714E-1,0E0,6.60637E-1,5.777198E-1,1.2701154E0,0E0,0E0,0E0,0E0],"parents":[2147483647,0,0,2,2,3,3,4,4],"right_children":[2,-1,4,6,8,-1,-1,-1,-1],"split_conditions":[2.5E-1,-5.4918498E-2,1.3E-2,2.4E-1,5.83E-1,2.3970593E-2,-2.8667826E-2,-1.7727753E-2,5.9765197E-2],"split_indices":[0,0,1,3,4,0,0,0,0],"split_type":[0,0,0,0,0,0,0,0,0],"sum_hessian":[1.622633E1,1.0791805E0,1.514715E1,8.309376E0,6.8377743E0,2.0628057E0,6.24657E0,3.2860196E0,3.551755E0],"tree_param":{"num_deleted":"0","num_feature":"5","num_nodes":"9","size_leaf_vector":"1"}},{"base_weights":[-2.8737692E-2,-5.3472966E-2,3.6978368E-2,1.7873472E-1,-2.386458E-1,-7.290542E-3,4.1826885E-2,-7.098859E-2,7.5316466E-3],"categories":[],"categories_nodes":[],"categories_segments":[],"categories_sizes":[],"default_left":[0,0,0,0,0,0,0,0,0],"id":50,"left_children":[1,-1,3,5,7,-1,-1,-1,-1],"loss_changes":[5.875015E-1,0E0,6.6960967E-1,7.0367646E-1,9.2314214E-1,0E0,0E0,0E0,0E0],"parents":[2147483647,0,0,2,2,3,3,4,4],"right_children":[2,-1,4,6,8,-1,-1,-1,-1],"split_conditions":[2.5E-1,-5.3472966E-2,2.82E-1,3.24E-1,5.83E-1,-7.290542E-3,4.1826885E-2,-7.098859E-2,7.5316466E-3],"split_indices":[0,0,2,3,4,0,0,0,0],"split_type":[0,0,0,0,0,0,0,0,0],"sum_hessian":[1.6073608E1,1.0272385E0,1.5046369E1,1.0168257E1,4.878112E0,5.298065E0,4.8701916E0,1.4462764E0,3.4318357E0],"tree_param":{"num_deleted":"0","num_feature":"5","num_nodes":"9","size_leaf_vector":"1"}},{"base_weights":[-3.1110788E-2,2.7416602E-1,-1.3426915E-1,-3.6613937E-2,5.6862976E-2,-7.529786E-2,3.536783E-2,4.6428833E-2,-2.2935411E-2],"categories":[],"categories_nodes":[],"categories_segments":[],"categories_sizes":[],"default_left":[0,0,0,0,0,0,0,0,0],"id":51,"left_children":[1,3,5,-1,-1,-1,7,-1,-1],"loss_changes":[5.7124907E-1,1.078343E0,1.4283849E0,0E0,0E0,0E0,1.4050845E0,0E0,0E0],"parents":[2147483647,0,0,1,1,2,2,6,6],"right_children":[2,4,6,-1,-1,-1,8,-1,-1],"split_conditions":[2.6E-1,-3.2E-2,3.2E-1,-3.6613937E-2,5.6862976E-2,-7.529786E-2,1.66E-1,4.6428833E-2,-2.2935411E-2],"split_indices":[3,1,3,0,0,0,2,0,0],"split_type":[0,0,0,0,0,0,0,0,0],"sum_hessian":[1.5970642E1,3.615011E0,1.2355631E1,1.0620954E0,2.5529156E0,1.918738E0,1.04368925E1,3.6954317E0,6.7414613E0],"tree_param":{"num_deleted":"0","num_feature":"5","num_nodes":"9","size_leaf_vector":"1"}},{"base_weights":[-3.0068113E-2,-1.7702045E-1,1.839546E-1,3.6662698E-1,-3.5332525E-1,-1.9512426E-2,3.375253E-1,-7.584439E-4,5.678447E-2,1.5082695E-2,-5.1282953E-2,5.9036978E-2,4.4627307E-4],"categories":[],"categories_nodes":[],"categories_segments":[],"categories_sizes":[],"default_left":[0,0,0,0,0,0,0,0,0,0,0,0,0],"id":52,"left_children":[1,3,5,7,9,-1,11,-1,-1,-1,-1,-1,-1],"loss_changes":[5.626988E-1,1.13627E0,4.9388093E-1,2.3493624E-1,7.5609195E-1,0E0,4.6886617E-1,0E0,0E0,0E0,0E0,0E0,0E0],"parents":[2147483647,0,0,1,1,2,2,3,3,4,4,6,6],"right_children":[2,4,6,8,10,-1,12,-1,-1,-1,-1,-1,-1],"split_conditions":[8.33E-1,2.46E-1,3.2E-1,5E-3,5.9E-2,-1.9512426E-2,6.95E-1,-7.584439E-4,5.678447E-2,1.5082695E-2,-5.1282953E-2,5.9036978E-2,4.4627307E-4],"split_indices":[0,3,3,1,2,0,3,0,0,0,0,0,0],"split_type":[0,0,0,0,0,0,0,0,0,0,0,0,0],"sum_hessian":[1.5855832E1,9.503455E0,6.352376E0,2.0628908E0,7.4405646E0,1.7534707E0,4.5989056E0,1.05786E0,1.0050306E0,1.8013527E0,5.639212E0,2.1751165E0,2.4237888E0],"tree_param":{"num_deleted":"0","num_feature":"5","num_nodes":"13","size_leaf_vector":"1"}},{"base_weights":[-2.379588E-2,-4.107331E-2,5.618554E-2,3.5605425E-1,-5.733457E-2,-9.913962E-3,7.300234E-2,-6.3578285E-2,9.553516E-3],"categories":[],"categories_nodes":[],"categories_segments":[],"categories_sizes":[],"default_left":[0,0,0,0,0,0,0,0,0],"id":53,"left_children":[1,-1,3,5,7,-1,-1,-1,-1],"loss_changes":[5.4036295E-1,0E0,5.2188325E-1,7.8461486E-1,1.0818304E0,0E0,0E0,0E0,0E0],"parents":[2147483647,0,0,2,2,3,3,4,4],"right_children":[2,-1,4,6,8,-1,-1,-1,-1],"split_conditions":[5E-1,-4.107331E-2,2.6E-1,-0E0,3.2E-1,-9.913962E-3,7.300234E-2,-6.3578285E-2,9.553516E-3],"split_indices":[0,0,3,1,3,0,0,0,0],"split_type":[0,0,0,0,0,0,0,0,0],"sum_hessian":[1.5714785E1,1.9835128E0,1.3731272E1,3.1840274E0,1.0547244E1,1.7675145E0,1.4165131E0,1.5443914E0,9.002852E0],"tree_param":{"num_deleted":"0","num_feature":"5","num_nodes":"9","size_leaf_vector":"1"}},{"base_weights":[-2.3425937E-2,-3.9261904E-2,5.1544767E-2,1.818384E-1,-1.9422385E-1,3.5408146E-3,5.865946E-2,-6.719785E-2,1.0331891E-2],"categories":[],"categories_nodes":[],"categories_segments":[],"categories_sizes":[],"default_left":[0,0,0,0,0,0,0,0,0],"id":54,"left_children":[1,-1,3,5,7,-1,-1,-1,-1],"loss_changes":[4.7956792E-1,0E0,5.0533617E-1,5.783744E-1,8.610721E-1,0E0,0E0,0E0,0E0],"parents":[2147483647,0,0,2,2,3,3,4,4],"right_children":[2,-1,4,6,8,-1,-1,-1,-1],"split_conditions":[5E-1,-3.9261904E-2,2.82E-1,1.69E-1,5.83E-1,3.5408146E-3,5.865946E-2,-6.719785E-2,1.0331891E-2],"split_indices":[0,0,2,2,4,0,0,0,0],"split_type":[0,0,0,0,0,0,0,0,0],"sum_hessian":[1.5595107E1,1.917148E0,1.36779585E1,9.108979E0,4.5689797E0,7.48763E0,1.6213495E0,1.2705201E0,3.2984595E0],"tree_param":{"num_deleted":"0","num_feature":"5","num_nodes":"9","size_leaf_vector":"1"}},{"base_weights":[-2.3480227E-2,-2.0490599E-1,1.2474701E-1,-6.156038E-2,-2.2071533E-2,2.4416925E-1,-4.0015582E-2,1.8687991E-2,-3.8416244E-2,4.969793E-3,7.3425375E-2],"categories":[],"categories_nodes":[],"categories_segments":[],"categories_sizes":[],"default_left":[0,0,0,0,0,0,0,0,0,0,0],"id":55,"left_children":[1,3,5,-1,7,9,-1,-1,-1,-1,-1],"loss_changes":[4.6786213E-1,5.7014656E-1,7.040793E-1,0E0,5.5724746E-1,7.737627E-1,0E0,0E0,0E0,0E0,0E0],"parents":[2147483647,0,0,1,1,2,2,4,4,5,5],"right_children":[2,4,6,-1,8,10,-1,-1,-1,-1,-1],"split_conditions":[6E-3,6.67E-1,5E-2,-6.156038E-2,4.8E-1,4.3E-2,-4.0015582E-2,1.8687991E-2,-3.8416244E-2,4.969793E-3,7.3425375E-2],"split_indices":[1,0,1,0,3,1,0,0,0,0,0],"split_type":[0,0,0,0,0,0,0,0,0,0,0],"sum_hessian":[1.5447152E1,6.7738194E0,8.673332E0,1.3574971E0,5.416322E0,7.5014777E0,1.1718547E0,3.7412496E0,1.6750727E0,6.158943E0,1.3425347E0],"tree_param":{"num_deleted":"0","num_feature":"5","num_nodes":"11","size_leaf_vector":"1"}},{"base_weights":[-2.4095504E-2,-1.8693349E-1,1.3018067E-1,-6.404083E-2,-2.2419052E-2,5.3142022E-2,-6.3642683E-3,4.989741E-2,-2.4142912E-2,-2.7162602E-2,3.1112907E-2],"categories":[],"categories_nodes":[],"categories_segments":[],"categories_sizes":[],"default_left":[0,0,0,0,0,0,0,0,0,0,0],"id":56,"left_children":[1,3,5,-1,7,-1,9,-1,-1,-1,-1],"loss_changes":[4.3396842E-1,6.0807693E-1,4.9441144E-1,0E0,9.378973E-1,0E0,7.3089415E-1,0E0,0E0,0E0,0E0],"parents":[2147483647,0,0,1,1,2,2,4,4,6,6],"right_children":[2,4,6,-1,8,-1,10,-1,-1,-1,-1],"split_conditions":[7.5E-1,5.6E-2,5.3E-2,-6.404083E-2,6E-2,5.3142022E-2,8E-3,4.989741E-2,-2.4142912E-2,-2.7162602E-2,3.1112907E-2],"split_indices":[0,2,2,0,2,0,1,0,0,0,0],"split_type":[0,0,0,0,0,0,0,0,0,0,0],"sum_hessian":[1.5305746E1,7.343269E0,7.9624767E0,1.1847776E0,6.158491E0,1.2874312E0,6.6750455E0,1.4435478E0,4.7149434E0,3.7153683E0,2.9596775E0],"tree_param":{"num_deleted":"0","num_feature":"5","num_nodes":"11","size_leaf_vector":"1"}},{"base_weights":[-2.0812808E-2,-3.9008155E-2,4.7067203E-2,4.0693563E-1,-7.756898E-2,4.9843513E-3,5.9890658E-2,-7.2089806E-2,5.73128E-3],"categories":[],"categories_nodes":[],"categories_segments":[],"categories_sizes":[],"default_left":[0,0,0,0,0,0,0,0,0],"id":57,"left_children":[1,-1,3,5,7,-1,-1,-1,-1],"loss_changes":[4.2324656E-1,0E0,6.8358713E-1,2.3747498E-1,1.0511258E0,0E0,0E0,0E0,0E0],"parents":[2147483647,0,0,2,2,3,3,4,4],"right_children":[2,-1,4,6,8,-1,-1,-1,-1],"split_conditions":[-3.7E-2,-3.9008155E-2,2.6E-1,-0E0,5.6E-2,4.9843513E-3,5.9890658E-2,-7.2089806E-2,5.73128E-3],"split_indices":[1,0,3,1,2,0,0,0,0],"split_type":[0,0,0,0,0,0,0,0,0],"sum_hessian":[1.515284E1,1.6158651E0,1.3536975E1,2.8996572E0,1.0637317E1,1.4542307E0,1.4454267E0,1.0906608E0,9.546657E0],"tree_param":{"num_deleted":"0","num_feature":"5","num_nodes":"9","size_leaf_vector":"1"}},{"base_weights":[-2.1370197E-2,-8.021256E-2,3.7490036E-2,-2.7402583E-1,1.4652658E-1,3.5258376E-3,-5.960421E-2,3.075139E-2,-3.9230756E-2],"categories":[],"categories_nodes":[],"categories_segments":[],"categories_sizes":[],"default_left":[0,0,0,0,0,0,0,0,0],"id":58,"left_children":[1,3,-1,5,7,-1,-1,-1,-1],"loss_changes":[4.0444136E-1,6.906813E-1,0E0,8.5059047E-1,7.689511E-1,0E0,0E0,0E0,0E0],"parents":[2147483647,0,0,1,1,3,3,4,4],"right_children":[2,4,-1,6,8,-1,-1,-1,-1],"split_conditions":[8.71E-1,1.3E-2,3.7490036E-2,3.59E-1,5E-2,3.5258376E-3,-5.960421E-2,3.075139E-2,-3.9230756E-2],"split_indices":[3,1,0,3,1,0,0,0,0],"split_type":[0,0,0,0,0,0,0,0,0],"sum_hessian":[1.5055308E1,1.3803241E1,1.2520674E0,7.3295226E0,6.4737186E0,4.1929054E0,3.136617E0,5.3150425E0,1.1586761E0],"tree_param":{"num_deleted":"0","num_feature":"5","num_nodes":"9","size_leaf_vector":"1"}},{"base_weights":[-2.1233158E-2,-1.8086042E-1,1.2924795E-1,-6.104772E-2,-2.729262E-2,5.1597703E-2,-4.1318606E-3,1.6997045E-2,-5.636844E-2,-3.2919828E-2,2.0527696E-2],"categories":[],"categories_nodes":[],"categories_segments":[],"categories_sizes":[],"default_left":[0,0,0,0,0,0,0,0,0,0,0],"id":59,"left_children":[1,3,5,-1,7,-1,9,-1,-1,-1,-1],"loss_changes":[4.0657356E-1,5.21557E-1,4.5578453E-1,0E0,8.4245926E-1,0E0,5.802576E-1,0E0,0E0,0E0,0E0],"parents":[2147483647,0,0,1,1,2,2,4,4,6,6],"right_children":[2,4,6,-1,8,-1,10,-1,-1,-1,-1],"split_conditions":[7.5E-1,5.6E-2,5.3E-2,-6.104772E-2,2.82E-1,5.1597703E-2,-3E-3,1.6997045E-2,-5.636844E-2,-3.2919828E-2,2.0527696E-2],"split_indices":[0,2,2,0,2,0,1,0,0,0,0],"split_type":[0,0,0,0,0,0,0,0,0,0,0],"sum_hessian":[1.4952688E1,7.157878E0,7.7948103E0,1.1013838E0,6.056494E0,1.2633376E0,6.5314727E0,4.9274874E0,1.1290067E0,2.334923E0,4.19655E0],"tree_param":{"num_deleted":"0","num_feature":"5","num_nodes":"11","size_leaf_vector":"1"}},{"base_weights":[-2.3370268E-2,-3.623687E-2,4.4900764E-2,1.685679E-1,-1.8786411E-1,2.3404676E-3,5.668369E-2,-6.45563E-2,9.245164E-3],"categories":[],"categories_nodes":[],"categories_segments":[],"categories_sizes":[],"default_left":[0,0,0,0,0,0,0,0,0],"id":60,"left_children":[1,-1,3,5,7,-1,-1,-1,-1],"loss_changes":[3.814592E-1,0E0,4.3534827E-1,5.4667336E-1,7.446283E-1,0E0,0E0,0E0,0E0],"parents":[2147483647,0,0,2,2,3,3,4,4],"right_children":[2,-1,4,6,8,-1,-1,-1,-1],"split_conditions":[5E-1,-3.623687E-2,2.82E-1,1.69E-1,5.83E-1,2.3404676E-3,5.668369E-2,-6.45563E-2,9.245164E-3],"split_indices":[0,0,2,2,4,0,0,0,0],"split_type":[0,0,0,0,0,0,0,0,0],"sum_hessian":[1.4779129E1,1.7553213E0,1.3023808E1,8.685197E0,4.338611E0,7.1411266E0,1.5440699E0,1.1530038E0,3.1856074E0],"tree_param":{"num_deleted":"0","num_feature":"5","num_nodes":"9","size_leaf_vector":"1"}},{"base_weights":[-2.3401352E-2,-8.036553E-2,3.5210174E-2,-2.5992468E-1,1.3026232E-1,5.435878E-3,-5.365352E-2,4.5202333E-2,-1.582519E-2],"categories":[],"categories_nodes":[],"categories_segments":[],"categories_sizes":[],"default_left":[0,0,0,0,0,0,0,0,0],"id":61,"left_children":[1,3,-1,5,7,-1,-1,-1,-1],"loss_changes":[3.630646E-1,5.7858974E-1,0E0,7.3410326E-1,7.48685E-1,0E0,0E0,0E0,0E0],"parents":[2147483647,0,0,1,1,3,3,4,4],"right_children":[2,4,-1,6,8,-1,-1,-1,-1],"split_conditions":[8.71E-1,1.3E-2,3.5210174E-2,6.8E-2,3.9E-2,5.435878E-3,-5.365352E-2,4.5202333E-2,-1.582519E-2],"split_indices":[3,1,0,2,1,0,0,0,0],"split_type":[0,0,0,0,0,0,0,0,0],"sum_hessian":[1.4650501E1,1.3403201E1,1.2472997E0,7.108875E0,6.294327E0,3.7039492E0,3.4049256E0,2.7077842E0,3.5865426E0],"tree_param":{"num_deleted":"0","num_feature":"5","num_nodes":"9","size_leaf_vector":"1"}},{"base_weights":[-2.0231415E-2,-1.7649691E-1,1.262857E-1,-5.9599902E-2,-2.5981745E-2,2.9858837E-1,-1.2031145E-1,4.5984842E-2,-2.357181E-2,-2.165526E-2,4.758578E-2,-3.9141234E-2,3.4830377E-2],"categories":[],"categories_nodes":[],"categories_segments":[],"categories_sizes":[],"default_left":[0,0,0,0,0,0,0,0,0,0,0,0,0],"id":62,"left_children":[1,3,5,-1,7,9,11,-1,-1,-1,-1,-1,-1],"loss_changes":[3.7878287E-1,4.8659313E-1,4.0213E-1,0E0,8.1123054E-1,5.925988E-1,6.7726076E-1,0E0,0E0,0E0,0E0,0E0,0E0],"parents":[2147483647,0,0,1,1,2,2,4,4,5,5,6,6],"right_children":[2,4,6,-1,8,10,12,-1,-1,-1,-1,-1,-1],"split_conditions":[7.5E-1,5.6E-2,6.29E-1,-5.9599902E-2,6E-2,-3.8E-2,4.58E-1,4.5984842E-2,-2.357181E-2,-2.165526E-2,4.758578E-2,-3.9141234E-2,3.4830377E-2],"split_indices":[0,2,3,0,2,1,2,0,0,0,0,0,0],"split_type":[0,0,0,0,0,0,0,0,0,0,0,0,0],"sum_hessian":[1.4570429E1,6.9516454E0,7.618783E0,1.0540807E0,5.897565E0,4.360897E0,3.257886E0,1.418731E0,4.4788337E0,1.0597339E0,3.3011634E0,2.1682613E0,1.0896246E0],"tree_param":{"num_deleted":"0","num_feature":"5","num_nodes":"13","size_leaf_vector":"1"}},{"base_weights":[-1.9464856E-2,-7.5951904E-2,3.432648E-2,-2.5228763E-1,1.2759526E-1,2.3417093E-3,-5.4645684E-2,4.3043643E-2,-1.411323E-2],"categories":[],"categories_nodes":[],"categories_segments":[],"categories_sizes":[],"default_left":[0,0,0,0,0,0,0,0,0],"id":63,"left_children":[1,3,-1,5,7,-1,-1,-1,-1],"loss_changes":[3.408536E-1,5.387007E-1,0E0,6.532903E-1,6.4788544E-1,0E0,0E0,0E0,0E0],"parents":[2147483647,0,0,1,1,3,3,4,4],"right_children":[2,4,-1,6,8,-1,-1,-1,-1],"split_conditions":[8.71E-1,1.3E-2,3.432648E-2,3.59E-1,3.9E-2,2.3417093E-3,-5.4645684E-2,4.3043643E-2,-1.411323E-2],"split_indices":[3,1,0,3,1,0,0,0,0],"split_type":[0,0,0,0,0,0,0,0,0],"sum_hessian":[1.4363068E1,1.3111807E1,1.2512612E0,6.8972063E0,6.2146006E0,4.03545E0,2.861756E0,2.6389225E0,3.575678E0],"tree_param":{"num_deleted":"0","num_feature":"5","num_nodes":"9","size_leaf_vector":"1"}},{"base_weights":[-1.702245E-2,-1.6471475E-1,1.22486666E-1,-5.814148E-2,-1.808054E-2,4.8056096E-2,-3.455097E-3,4.4077292E-2,-2.1854486E-2,-2.9414037E-2,1.8175526E-2],"categories":[],"categories_nodes":[],"categories_segments":[],"categories_sizes":[],"default_left":[0,0,0,0,0,0,0,0,0,0,0],"id":64,"left_children":[1,3,5,-1,7,-1,9,-1,-1,-1,-1],"loss_changes":[3.3503836E-1,4.6910816E-1,3.8190892E-1,0E0,7.2534597E-1,0E0,4.4275042E-1,0E0,0E0,0E0,0E0],"parents":[2147483647,0,0,1,1,2,2,4,4,6,6],"right_children":[2,4,6,-1,8,-1,10,-1,-1,-1,-1],"split_conditions":[7.5E-1,5.6E-2,5.3E-2,-5.814148E-2,6E-2,4.8056096E-2,-3E-3,4.4077292E-2,-2.1854486E-2,-2.9414037E-2,1.8175526E-2],"split_indices":[0,2,2,0,2,0,1,0,0,0,0],"split_type":[0,0,0,0,0,0,0,0,0,0,0],"sum_hessian":[1.4281329E1,6.8494434E0,7.4318852E0,1.011091E0,5.8383527E0,1.2011287E0,6.2307568E0,1.4106593E0,4.4276934E0,2.196008E0,4.0347486E0],"tree_param":{"num_deleted":"0","num_feature":"5","num_nodes":"11","size_leaf_vector":"1"}},{"base_weights":[-1.5481006E-2,8.722589E-2,-2.1644075E-1,-1.632025E-1,3.211774E-1,-6.3196324E-2,8.373531E-2,2.0234555E-2,-6.518466E-2,-1.5247077E-3,5.2411277E-2,-1.4121962E-2,3.4615032E-2],"categories":[],"categories_nodes":[],"categories_segments":[],"categories_sizes":[],"default_left":[0,0,0,0,0,0,0,0,0,0,0,0,0],"id":65,"left_children":[1,3,5,7,9,-1,11,-1,-1,-1,-1,-1,-1],"loss_changes":[3.3155593E-1,6.8154126E-1,7.278323E-1,1.176749E0,4.1002107E-1,0E0,2.8645822E-1,0E0,0E0,0E0,0E0,0E0,0E0],"parents":[2147483647,0,0,1,1,2,2,3,3,4,4,6,6],"right_children":[2,4,6,8,10,-1,12,-1,-1,-1,-1,-1,-1],"split_conditions":[2.82E-1,3.2E-1,8.33E-1,2.6E-1,6.67E-1,-6.3196324E-2,4.58E-1,2.0234555E-2,-6.518466E-2,-1.5247077E-3,5.2411277E-2,-1.4121962E-2,3.4615032E-2],"split_indices":[2,3,0,3,0,0,2,0,0,0,0,0,0],"split_type":[0,0,0,0,0,0,0,0,0,0,0,0,0],"sum_hessian":[1.41491E1,9.738091E0,4.411009E0,4.8494787E0,4.8886123E0,1.3864665E0,3.0245423E0,3.1093328E0,1.7401459E0,2.1873353E0,2.701277E0,1.8771791E0,1.1473632E0],"tree_param":{"num_deleted":"0","num_feature":"5","num_nodes":"13","size_leaf_vector":"1"}},{"base_weights":[-1.6638057E-2,-8.4161244E-2,2.7419895E-1,5.467865E-2,-3.8832274E-1,3.2862373E-2,8.088208E-3,-2.89734E-2,1.9929474E-2,-5.147797E-2,-1.5718822E-4],"categories":[],"categories_nodes":[],"categories_segments":[],"categories_sizes":[],"default_left":[0,0,0,0,0,0,0,0,0,0,0],"id":66,"left_children":[1,3,5,7,9,-1,-1,-1,-1,-1,-1],"loss_changes":[3.1833363E-1,5.6882775E-1,5.696669E-3,5.448432E-1,2.039851E-1,0E0,0E0,0E0,0E0,0E0,0E0],"parents":[2147483647,0,0,1,1,2,2,3,3,4,4],"right_children":[2,4,6,8,10,-1,-1,-1,-1,-1,-1],"split_conditions":[8.32E-1,4.94E-1,8.74E-1,5.6E-2,4.59E-1,3.2862373E-2,8.088208E-3,-2.89734E-2,1.9929474E-2,-5.147797E-2,-1.5718822E-4],"split_indices":[3,3,3,2,2,0,0,0,0,0,0],"split_type":[0,0,0,0,0,0,0,0,0,0,0],"sum_hessian":[1.4034783E1,1.1967038E1,2.0677452E0,8.779646E0,3.187393E0,1.0673344E0,1.0004108E0,2.2995787E0,6.480067E0,2.1525357E0,1.0348575E0],"tree_param":{"num_deleted":"0","num_feature":"5","num_nodes":"11","size_leaf_vector":"1"}},{"base_weights":[-1.6417464E-2,-3.4332357E-2,4.3215603E-2,3.6383715E-1,-6.8347044E-2,2.9028074E-3,5.525403E-2,-5.8451273E-2,7.978178E-3],"categories":[],"categories_nodes":[],"categories_segments":[],"categories_sizes":[],"default_left":[0,0,0,0,0,0,0,0,0],"id":67,"left_children":[1,-1,3,5,7,-1,-1,-1,-1],"loss_changes":[3.0701527E-1,0E0,5.1003474E-1,2.151632E-1,8.8036656E-1,0E0,0E0,0E0,0E0],"parents":[2147483647,0,0,2,2,3,3,4,4],"right_children":[2,-1,4,6,8,-1,-1,-1,-1],"split_conditions":[-3.7E-2,-3.4332357E-2,2.6E-1,-0E0,3.2E-1,2.9028074E-3,5.525403E-2,-5.8451273E-2,7.978178E-3],"split_indices":[1,0,3,1,3,0,0,0,0],"split_type":[0,0,0,0,0,0,0,0,0],"sum_hessian":[1.3987799E1,1.4240338E0,1.2563765E1,2.65945E0,9.904315E0,1.3745195E0,1.2849306E0,1.5516168E0,8.352698E0],"tree_param":{"num_deleted":"0","num_feature":"5","num_nodes":"9","size_leaf_vector":"1"}},{"base_weights":[-1.6603803E-2,-8.670669E-2,2.481358E-1,-1.8955867E-1,4.7959756E-2,6.862717E-2,-3.3902176E-2,-3.0489035E-3,-5.2194316E-2],"categories":[],"categories_nodes":[],"categories_segments":[],"categories_sizes":[],"default_left":[0,0,0,0,0,0,0,0,0],"id":68,"left_children":[1,3,5,7,-1,-1,-1,-1,-1],"loss_changes":[2.9842702E-1,8.211871E-1,1.1028873E0,5.82996E-1,0E0,0E0,0E0,0E0,0E0],"parents":[2147483647,0,0,1,1,2,2,3,3],"right_children":[2,4,6,8,-1,-1,-1,-1,-1],"split_conditions":[4.3E-2,1E0,5E-2,2.82E-1,4.7959756E-2,6.862717E-2,-3.3902176E-2,-3.0489035E-3,-5.2194316E-2],"split_indices":[1,0,1,2,0,0,0,0,0],"split_type":[0,0,0,0,0,0,0,0,0],"sum_hessian":[1.3920622E1,1.1537881E1,2.3827407E0,1.0327478E1,1.2104024E0,1.2678616E0,1.1148793E0,7.7231364E0,2.6043422E0],"tree_param":{"num_deleted":"0","num_feature":"5","num_nodes":"9","size_leaf_vector":"1"}},{"base_weights":[-1.3229894E-2,-3.2752704E-2,4.9306426E-2,-2.84311E-2,1.07852094E-1,4.3383297E-2,-1.8215905E-3],"categories":[],"categories_nodes":[],"categories_segments":[],"categories_sizes":[],"default_left":[0,0,0,0,0,0,0],"id":69,"left_children":[1,-1,3,-1,5,-1,-1],"loss_changes":[3.0763873E-1,0E0,2.892329E-1,0E0,5.0051683E-1,0E0,0E0],"parents":[2147483647,0,0,2,2,4,4],"right_children":[2,-1,4,-1,6,-1,-1],"split_conditions":[5E-1,-3.2752704E-2,-3.8E-2,-2.84311E-2,2.6E-1,4.3383297E-2,-1.8215905E-3],"split_indices":[0,0,1,0,3,0,0],"split_type":[0,0,0,0,0,0,0],"sum_hessian":[1.383031E1,1.5919658E0,1.2238344E1,1.2513586E0,1.0986985E1,2.3832428E0,8.603743E0],"tree_param":{"num_deleted":"0","num_feature":"5","num_nodes":"7","size_leaf_vector":"1"}},{"base_weights":[-1.33291045E-2,-7.929364E-2,2.6439345E-1,1.7149147E-2,-4.4661757E-2,3.2123845E-2,8.024525E-3,-1.1320758E-2,4.020511E-2],"categories":[],"categories_nodes":[],"categories_segments":[],"categories_sizes":[],"default_left":[0,0,0,0,0,0,0,0,0],"id":70,"left_children":[1,3,5,7,-1,-1,-1,-1,-1],"loss_changes":[2.9074422E-1,4.5646662E-1,6.2238127E-3,5.973052E-1,0E0,0E0,0E0,0E0,0E0],"parents":[2147483647,0,0,1,1,2,2,3,3],"right_children":[2,4,6,8,-1,-1,-1,-1,-1],"split_conditions":[8.32E-1,6.95E-1,3.55E-1,9.17E-1,-4.4661757E-2,3.2123845E-2,8.024525E-3,-1.1320758E-2,4.020511E-2],"split_indices":[3,3,2,0,0,0,0,0,0],"split_type":[0,0,0,0,0,0,0,0,0],"sum_hessian":[1.3726086E1,1.1668964E1,2.0571213E0,9.997407E0,1.6715574E0,1.0030361E0,1.0540853E0,7.9954324E0,2.001975E0],"tree_param":{"num_deleted":"0","num_feature":"5","num_nodes":"9","size_leaf_vector":"1"}},{"base_weights":[-1.0367468E-2,-8.073212E-2,2.519295E-1,-1.7618275E-1,4.4518065E-2,6.6705875E-2,-3.0986184E-2,-2.8360735E-3,-4.8846558E-2],"categories":[],"categories_nodes":[],"categories_segments":[],"categories_sizes":[],"default_left":[0,0,0,0,0,0,0,0,0],"id":71,"left_children":[1,3,5,7,-1,-1,-1,-1,-1],"loss_changes":[2.9088497E-1,6.96648E-1,9.864034E-1,5.003942E-1,0E0,0E0,0E0,0E0,0E0],"parents":[2147483647,0,0,1,1,2,2,3,3],"right_children":[2,4,6,8,-1,-1,-1,-1,-1],"split_conditions":[4.3E-2,1E0,5E-2,2.82E-1,4.4518065E-2,6.6705875E-2,-3.0986184E-2,-2.8360735E-3,-4.8846558E-2],"split_indices":[1,0,1,2,0,0,0,0,0],"split_type":[0,0,0,0,0,0,0,0,0],"sum_hessian":[1.3658638E1,1.1315354E1,2.3432837E0,1.0139992E1,1.1753632E0,1.2397823E0,1.1035013E0,7.6225863E0,2.5174053E0],"tree_param":{"num_deleted":"0","num_feature":"5","num_nodes":"9","size_leaf_vector":"1"}},{"base_weights":[-7.4617025E-3,-1.4761797E-1,1.225265E-1,-3.639776E-1,9.920825E-2,4.6430755E-2,-1.3323169E-3,-1.1579925E-2,-5.6884505E-2,3.8852524E-2,-3.1821147E-2,-2.2108367E-2,2.5263557E-2],"categories":[],"categories_nodes":[],"categories_segments":[],"categories_sizes":[],"default_left":[0,0,0,0,0,0,0,0,0,0,0,0,0],"id":72,"left_children":[1,3,5,7,9,-1,11,-1,-1,-1,-1,-1,-1],"loss_changes":[2.8366566E-1,4.349175E-1,3.4391144E-1,1.4735222E-1,6.398065E-1,0E0,4.4370246E-1,0E0,0E0,0E0,0E0,0E0,0E0],"parents":[2147483647,0,0,1,1,2,2,3,3,4,4,6,6],"right_children":[2,4,6,8,10,-1,12,-1,-1,-1,-1,-1,-1],"split_conditions":[7.5E-1,3.2E-2,5.3E-2,5.83E-1,1.67E-1,4.6430755E-2,8E-3,-1.1579925E-2,-5.6884505E-2,3.8852524E-2,-3.1821147E-2,-2.2108367E-2,2.5263557E-2],"split_indices":[0,1,2,4,2,0,1,0,0,0,0,0,0],"split_type":[0,0,0,0,0,0,0,0,0,0,0,0,0],"sum_hessian":[1.3577281E1,6.4678597E0,7.1094213E0,3.19372E0,3.27414E0,1.1599431E0,5.949478E0,2.1520028E0,1.0417172E0,1.9746889E0,1.299451E0,3.2590203E0,2.6904578E0],"tree_param":{"num_deleted":"0","num_feature":"5","num_nodes":"13","size_leaf_vector":"1"}},{"base_weights":[-7.6454794E-3,-2.6890656E-1,6.285498E-2,2.8277347E-2,-7.000273E-2,-4.7258615E-1,2.2165033E-1,-1.1012918E-2,-6.000941E-2,3.2178726E-2,-3.1707343E-2],"categories":[],"categories_nodes":[],"categories_segments":[],"categories_sizes":[],"default_left":[0,0,0,0,0,0,0,0,0,0,0],"id":73,"left_children":[1,3,5,-1,-1,7,9,-1,-1,-1,-1],"loss_changes":[2.8329656E-1,9.739982E-1,1.1420697E0,0E0,0E0,7.7637255E-2,6.463605E-1,0E0,0E0,0E0,0E0],"parents":[2147483647,0,0,1,1,2,2,5,5,6,6],"right_children":[2,4,6,-1,-1,8,10,-1,-1,-1,-1],"split_conditions":[5.6E-2,-7E-3,-7E-3,2.8277347E-2,-7.000273E-2,1.31E-1,5E-2,-1.1012918E-2,-6.000941E-2,3.2178726E-2,-3.1707343E-2],"split_indices":[2,1,1,0,0,2,1,0,0,0,0],"split_type":[0,0,0,0,0,0,0,0,0,0,0],"sum_hessian":[1.3462999E1,2.262895E0,1.1200105E1,1.1435971E0,1.119298E0,2.1098483E0,9.090257E0,1.034073E0,1.0757754E0,8.004991E0,1.085266E0],"tree_param":{"num_deleted":"0","num_feature":"5","num_nodes":"11","size_leaf_vector":"1"}},{"base_weights":[-1.4863047E-2,-7.578384E-2,2.8722096E-2,-5.166581E-2,5.756803E-3,1.5533114E-2,-2.9177511E-2],"categories":[],"categories_nodes":[],"categories_segments":[],"categories_sizes":[],"default_left":[0,0,0,0,0,0,0],"id":74,"left_children":[1,3,-1,-1,5,-1,-1],"loss_changes":[2.8621164E-1,4.6129733E-1,0E0,0E0,5.6815493E-1,0E0,0E0],"parents":[2147483647,0,0,1,1,4,4],"right_children":[2,4,-1,-1,6,-1,-1],"split_conditions":[8.33E-1,5E-1,2.8722096E-2,-5.166581E-2,2.82E-1,1.5533114E-2,-2.9177511E-2],"split_indices":[4,0,0,0,2,0,0],"split_type":[0,0,0,0,0,0,0],"sum_hessian":[1.3369511E1,1.1749198E1,1.6203122E0,1.0009667E0,1.0748232E1,7.4705796E0,3.2776523E0],"tree_param":{"num_deleted":"0","num_feature":"5","num_nodes":"7","size_leaf_vector":"1"}},{"base_weights":[-1.611576E-2,-8.135622E-2,2.5456956E-2,-1.7490786E-1,2.292073E-1,6.7743397E-4,-4.85037E-2,6.2445726E-2,-2.8844869E-2],"categories":[],"categories_nodes":[],"categories_segments":[],"categories_sizes":[],"default_left":[0,0,0,0,0,0,0,0,0],"id":75,"left_children":[1,3,-1,5,7,-1,-1,-1,-1],"loss_changes":[2.731094E-1,3.967095E-1,0E0,5.667436E-1,8.5006267E-1,0E0,0E0,0E0,0E0],"parents":[2147483647,0,0,1,1,3,3,4,4],"right_children":[2,4,-1,6,8,-1,-1,-1,-1],"split_conditions":[8.32E-1,4.3E-2,2.5456956E-2,4.69E-1,5E-2,6.7743397E-4,-4.85037E-2,6.2445726E-2,-2.8844869E-2],"split_indices":[3,1,0,3,1,0,0,0,0],"split_type":[0,0,0,0,0,0,0,0,0],"sum_hessian":[1.3292403E1,1.1274477E1,2.0179262E0,9.00015E0,2.2743275E0,6.292176E0,2.707974E0,1.1726488E0,1.1016786E0],"tree_param":{"num_deleted":"0","num_feature":"5","num_nodes":"9","size_leaf_vector":"1"}},{"base_weights":[-1.3795052E-2,-1.5686782E-1,1.1862545E-1,-3.553314E-1,7.482042E-2,4.284001E-2,4.2618713E-3,-1.3363028E-2,-4.383521E-2,3.516328E-2,-3.0918498E-2,-1.962759E-2,2.337848E-2],"categories":[],"categories_nodes":[],"categories_segments":[],"categories_sizes":[],"default_left":[0,0,0,0,0,0,0,0,0,0,0,0,0],"id":76,"left_children":[1,3,5,7,9,-1,11,-1,-1,-1,-1,-1,-1],"loss_changes":[2.8857014E-1,3.6131895E-1,2.805083E-1,1.679331E-2,5.535501E-1,0E0,3.602878E-1,0E0,0E0,0E0,0E0,0E0,0E0],"parents":[2147483647,0,0,1,1,2,2,3,3,4,4,6,6],"right_children":[2,4,6,8,10,-1,12,-1,-1,-1,-1,-1,-1],"split_conditions":[7.5E-1,3.2E-2,5.3E-2,3.43E-1,1.67E-1,4.284001E-2,8E-3,-1.3363028E-2,-4.383521E-2,3.516328E-2,-3.0918498E-2,-1.962759E-2,2.337848E-2],"split_indices":[0,1,2,3,2,0,1,0,0,0,0,0,0],"split_type":[0,0,0,0,0,0,0,0,0,0,0,0,0],"sum_hessian":[1.3249178E1,6.2797017E0,6.969476E0,3.0949304E0,3.1847713E0,1.1388215E0,5.830655E0,1.5541859E0,1.5407444E0,1.8996794E0,1.2850919E0,3.1891222E0,2.641533E0],"tree_param":{"num_deleted":"0","num_feature":"5","num_nodes":"13","size_leaf_vector":"1"}},{"base_weights":[-1.2983152E-2,-1.985734E-1,9.348636E-2,1.3863026E-1,-6.164376E-2,4.44698E-1,-1.4209986E-1,-1.977502E-2,4.991438E-2,1.7996741E-2,6.0126223E-2,-6.188634E-2,1.1195413E-2],"categories":[],"categories_nodes":[],"categories_segments":[],"categories_sizes":[],"default_left":[0,0,0,0,0,0,0,0,0,0,0,0,0],"id":77,"left_children":[1,3,5,7,-1,9,11,-1,-1,-1,-1,-1,-1],"loss_changes":[2.98118E-1,8.572786E-1,8.633014E-1,5.6532353E-1,0E0,6.274152E-2,8.6211246E-1,0E0,0E0,0E0,0E0,0E0,0E0],"parents":[2147483647,0,0,1,1,2,2,3,3,5,5,6,6],"right_children":[2,4,6,8,-1,10,12,-1,-1,-1,-1,-1,-1],"split_conditions":[3.2E-1,2.6E-1,1.66E-1,-0E0,-6.164376E-2,2.1E-2,6.67E-1,-1.977502E-2,4.991438E-2,1.7996741E-2,6.0126223E-2,-6.188634E-2,1.1195413E-2],"split_indices":[3,3,2,1,0,1,0,0,0,0,0,0,0],"split_type":[0,0,0,0,0,0,0,0,0,0,0,0,0],"sum_hessian":[1.3147688E1,4.4775906E0,8.670097E0,2.847769E0,1.6298217E0,3.124489E0,5.5456076E0,1.7067482E0,1.1410208E0,1.9599452E0,1.1645439E0,1.4286389E0,4.1169686E0],"tree_param":{"num_deleted":"0","num_feature":"5","num_nodes":"13","size_leaf_vector":"1"}},{"base_weights":[-1.2096869E-2,-2.7447677E-1,5.9967846E-2,2.479738E-2,-6.7448005E-2,-4.370906E-2,2.0499511E-1,2.9929712E-2,-2.9503023E-2],"categories":[],"categories_nodes":[],"categories_segments":[],"categories_sizes":[],"default_left":[0,0,0,0,0,0,0,0,0],"id":78,"left_children":[1,3,5,-1,-1,-1,7,-1,-1],"loss_changes":[2.82117E-1,8.373925E-1,9.4333225E-1,0E0,0E0,0E0,5.527068E-1,0E0,0E0],"parents":[2147483647,0,0,1,1,2,2,6,6],"right_children":[2,4,6,-1,-1,-1,8,-1,-1],"split_conditions":[5.6E-2,-7E-3,-7E-3,2.479738E-2,-6.7448005E-2,-4.370906E-2,5E-2,2.9929712E-2,-2.9503023E-2],"split_indices":[2,1,1,0,0,0,1,0,0],"split_type":[0,0,0,0,0,0,0,0,0],"sum_hessian":[1.3049744E1,2.206685E0,1.0843059E1,1.1216937E0,1.0849915E0,1.9942445E0,8.848814E0,7.782511E0,1.0663024E0],"tree_param":{"num_deleted":"0","num_feature":"5","num_nodes":"9","size_leaf_vector":"1"}},{"base_weights":[-1.720371E-2,-7.530231E-2,2.6907856E-2,3.7562415E-2,-3.6177424E-1,-2.7113054E-2,2.2700064E-2,2.4306772E-2,-7.4188456E-2],"categories":[],"categories_nodes":[],"categories_segments":[],"categories_sizes":[],"default_left":[0,0,0,0,0,0,0,0,0],"id":79,"left_children":[1,3,-1,5,7,-1,-1,-1,-1],"loss_changes":[2.5247723E-1,4.141063E-1,0E0,6.34183E-1,1.0068712E0,0E0,0E0,0E0,0E0],"parents":[2147483647,0,0,1,1,3,3,4,4],"right_children":[2,4,-1,6,8,-1,-1,-1,-1],"split_conditions":[8.33E-1,3.9E-2,2.6907856E-2,3.24E-1,3.47E-1,-2.7113054E-2,2.2700064E-2,2.4306772E-2,-7.4188456E-2],"split_indices":[4,1,0,3,3,0,0,0,0],"split_type":[0,0,0,0,0,0,0,0,0],"sum_hessian":[1.2961437E1,1.138742E1,1.5740172E0,8.7922945E0,2.595125E0,3.1796935E0,5.6126013E0,1.1406404E0,1.4544846E0],"tree_param":{"num_deleted":"0","num_feature":"5","num_nodes":"9","size_leaf_vector":"1"}},{"base_weights":[-1.7458292E-2,-1.5557662E-1,1.0819453E-1,-3.3665168E-1,5.8546335E-2,2.4084468E-1,-1.2104187E-1,-1.0941668E-2,-4.2860065E-2,3.0844986E-2,-2.8109405E-2,-5.0253202E-5,6.057462E-2,-3.3904817E-2,1.7465074E-2],"categories":[],"categories_nodes":[],"categories_segments":[],"categories_sizes":[],"default_left":[0,0,0,0,0,0,0,0,0,0,0,0,0,0,0],"id":80,"left_children":[1,3,5,7,9,11,13,-1,-1,-1,-1,-1,-1,-1,-1],"loss_changes":[2.5935712E-1,2.9372E-1,2.6959655E-1,3.620398E-2,4.3384713E-1,4.708763E-1,2.8895587E-1,0E0,0E0,0E0,0E0,0E0,0E0,0E0,0E0],"parents":[2147483647,0,0,1,1,2,2,3,3,4,4,5,5,6,6],"right_children":[2,4,6,8,10,12,14,-1,-1,-1,-1,-1,-1,-1,-1],"split_conditions":[7.5E-1,3.2E-2,6.95E-1,3.43E-1,1.67E-1,5E-3,8.23E-1,-1.0941668E-2,-4.2860065E-2,3.0844986E-2,-2.8109405E-2,-5.0253202E-5,6.057462E-2,-3.3904817E-2,1.7465074E-2],"split_indices":[0,1,3,3,2,1,3,0,0,0,0,0,0,0,0],"split_type":[0,0,0,0,0,0,0,0,0,0,0,0,0,0,0],"sum_hessian":[1.297437E1,6.067162E0,6.9072075E0,2.9772165E0,3.0899458E0,4.3432817E0,2.5639262E0,1.4885386E0,1.4886779E0,1.8330455E0,1.2569002E0,3.2152958E0,1.1279857E0,1.3914347E0,1.1724916E0],"tree_param":{"num_deleted":"0","num_feature":"5","num_nodes":"15","size_leaf_vector":"1"}},{"base_weights":[-1.6293406E-2,-2.666588E-1,5.451144E-2,-5.747772E-2,1.4333437E-2,2.3093541E-1,-8.721847E-2,-3.417343E-3,6.9172814E-2,-3.945991E-2,1.8319936E-2],"categories":[],"categories_nodes":[],"categories_segments":[],"categories_sizes":[],"default_left":[0,0,0,0,0,0,0,0,0,0,0],"id":81,"left_children":[1,3,5,-1,-1,7,9,-1,-1,-1,-1],"loss_changes":[2.6033092E-1,4.8997784E-1,3.111699E-1,0E0,0E0,6.9051576E-1,6.6909784E-1,0E0,0E0,0E0,0E0],"parents":[2147483647,0,0,1,1,2,2,5,5,6,6],"right_children":[2,4,6,-1,-1,8,10,-1,-1,-1,-1],"split_conditions":[5.83E-1,6.67E-1,3.59E-1,-5.747772E-2,1.4333437E-2,3.2E-1,8.33E-1,-3.417343E-3,6.9172814E-2,-3.945991E-2,1.8319936E-2],"split_indices":[0,4,3,0,0,3,0,0,0,0,0],"split_type":[0,0,0,0,0,0,0,0,0,0,0],"sum_hessian":[1.2865505E1,2.2265017E0,1.0639004E1,1.0417136E0,1.1847882E0,4.459036E0,6.179968E0,3.4182465E0,1.0407891E0,2.6773908E0,3.5025768E0],"tree_param":{"num_deleted":"0","num_feature":"5","num_nodes":"11","size_leaf_vector":"1"}},{"base_weights":[-1.4758101E-2,-2.632811E-1,5.4189194E-2,2.2966994E-2,-6.427985E-2,-4.123789E-2,1.8960014E-1,3.65202E-2,-8.973716E-3],"categories":[],"categories_nodes":[],"categories_segments":[],"categories_sizes":[],"default_left":[0,0,0,0,0,0,0,0,0],"id":82,"left_children":[1,3,5,-1,-1,-1,7,-1,-1],"loss_changes":[2.5037053E-1,7.394104E-1,8.120582E-1,0E0,0E0,0E0,5.079887E-1,0E0,0E0],"parents":[2147483647,0,0,1,1,2,2,6,6],"right_children":[2,4,6,-1,-1,-1,8,-1,-1],"split_conditions":[5.6E-2,-7E-3,-7E-3,2.2966994E-2,-6.427985E-2,-4.123789E-2,2.82E-1,3.65202E-2,-8.973716E-3],"split_indices":[2,1,1,0,0,0,2,0,0],"split_type":[0,0,0,0,0,0,0,0,0],"sum_hessian":[1.277903E1,2.163181E0,1.06158495E1,1.112719E0,1.0504619E0,1.9278648E0,8.687984E0,5.145772E0,3.5422122E0],"tree_param":{"num_deleted":"0","num_feature":"5","num_nodes":"9","size_leaf_vector":"1"}},{"base_weights":[-1.7445082E-2,-2.6469162E-1,5.2181058E-2,-4.826056E-2,1.0327994E-2,3.350809E-2,-3.599857E-2,-4.2767327E-2,9.14543E-3],"categories":[],"categories_nodes":[],"categories_segments":[],"categories_sizes":[],"default_left":[0,0,0,0,0,0,0,0,0],"id":83,"left_children":[1,3,5,-1,-1,-1,7,-1,-1],"loss_changes":[2.4930033E-1,3.0406857E-1,2.9916504E-1,0E0,0E0,0E0,5.2219284E-1,0E0,0E0],"parents":[2147483647,0,0,1,1,2,2,6,6],"right_children":[2,4,6,-1,-1,-1,8,-1,-1],"split_conditions":[5.83E-1,3.92E-1,2.43E-1,-4.826056E-2,1.0327994E-2,3.350809E-2,3.2E-1,-4.2767327E-2,9.14543E-3],"split_indices":[0,3,3,0,0,0,3,0,0],"split_type":[0,0,0,0,0,0,0,0,0],"sum_hessian":[1.26794E1,2.170437E0,1.0508964E1,1.1675063E0,1.0029308E0,1.8318857E0,8.677077E0,1.5520233E0,7.1250544E0],"tree_param":{"num_deleted":"0","num_feature":"5","num_nodes":"9","size_leaf_vector":"1"}},{"base_weights":[-1.8560218E-2,-7.467813E-2,2.5486663E-2,3.20838E-2,-3.4467083E-1,-2.4868038E-2,2.0504532E-2,2.2507198E-2,-6.937949E-2],"categories":[],"categories_nodes":[],"categories_segments":[],"categories_sizes":[],"default_left":[0,0,0,0,0,0,0,0,0],"id":84,"left_children":[1,3,-1,5,7,-1,-1,-1,-1],"loss_changes":[2.2833052E-1,3.5957587E-1,0E0,5.161828E-1,8.546033E-1,0E0,0E0,0E0,0E0],"parents":[2147483647,0,0,1,1,3,3,4,4],"right_children":[2,4,-1,6,8,-1,-1,-1,-1],"split_conditions":[8.33E-1,3.9E-2,2.5486663E-2,3.24E-1,3.47E-1,-2.4868038E-2,2.0504532E-2,2.2507198E-2,-6.937949E-2],"split_indices":[4,1,0,3,3,0,0,0,0],"split_type":[0,0,0,0,0,0,0,0,0],"sum_hessian":[1.26402235E1,1.1090831E1,1.5493928E0,8.579463E0,2.511368E0,3.103633E0,5.4758296E0,1.0892013E0,1.4221667E0],"tree_param":{"num_deleted":"0","num_feature":"5","num_nodes":"9","size_leaf_vector":"1"}},{"base_weights":[-1.8602176E-2,2.5465984E-2,-7.6501906E-2,-4.122837E-1,6.266515E-2,-6.827652E-2,4.81527E-3,5.772465E-2,-7.493771E-3],"categories":[],"categories_nodes":[],"categories_segments":[],"categories_sizes":[],"default_left":[0,0,0,0,0,0,0,0,0],"id":85,"left_children":[1,-1,3,5,7,-1,-1,-1,-1],"loss_changes":[2.3546402E-1,0E0,5.8814466E-1,4.884236E-1,7.0710653E-1,0E0,0E0,0E0,0E0],"parents":[2147483647,0,0,2,2,3,3,4,4],"right_children":[2,-1,4,6,8,-1,-1,-1,-1],"split_conditions":[2.02E-1,2.5465984E-2,3.2E-1,6.1E-2,3.59E-1,-6.827652E-2,4.81527E-3,5.772465E-2,-7.493771E-3],"split_indices":[3,0,3,2,3,0,0,0,0],"split_type":[0,0,0,0,0,0,0,0,0],"sum_hessian":[1.2650919E1,1.617713E0,1.1033206E1,2.6578486E0,8.375358E0,1.370115E0,1.2877336E0,1.092988E0,7.282369E0],"tree_param":{"num_deleted":"0","num_feature":"5","num_nodes":"9","size_leaf_vector":"1"}},{"base_weights":[-1.5870692E-2,-3.1189514E-2,3.8538255E-2,3.315206E-1,-6.1109442E-2,4.444238E-3,4.8401468E-2,-5.0672736E-2,7.1502374E-3],"categories":[],"categories_nodes":[],"categories_segments":[],"categories_sizes":[],"default_left":[0,0,0,0,0,0,0,0,0],"id":86,"left_children":[1,-1,3,5,7,-1,-1,-1,-1],"loss_changes":[2.3142964E-1,0E0,3.822043E-1,1.2304634E-1,6.3281363E-1,0E0,0E0,0E0,0E0],"parents":[2147483647,0,0,2,2,3,3,4,4],"right_children":[2,-1,4,6,8,-1,-1,-1,-1],"split_conditions":[-3.7E-2,-3.1189514E-2,2.6E-1,-0E0,3.2E-1,4.444238E-3,4.8401468E-2,-5.0672736E-2,7.1502374E-3],"split_indices":[1,0,3,1,3,0,0,0,0],"split_type":[0,0,0,0,0,0,0,0,0],"sum_hessian":[1.2622536E1,1.2250336E0,1.1397502E1,2.3020704E0,9.095431E0,1.2466402E0,1.05543E0,1.4389542E0,7.6564775E0],"tree_param":{"num_deleted":"0","num_feature":"5","num_nodes":"9","size_leaf_vector":"1"}},{"base_weights":[-1.5923664E-2,-1.4919676E-1,1.0240717E-1,-3.2120416E-1,5.5550463E-2,4.048061E-2,-8.563815E-3,-1.0088049E-2,-4.077072E-2,3.0561596E-2,-2.8168535E-2,-1.3130565E-2,3.2142058E-2],"categories":[],"categories_nodes":[],"categories_segments":[],"categories_sizes":[],"default_left":[0,0,0,0,0,0,0,0,0,0,0,0,0],"id":87,"left_children":[1,3,5,7,9,-1,11,-1,-1,-1,-1,-1,-1],"loss_changes":[2.2933158E-1,2.5699282E-1,2.6463115E-1,3.2013E-2,4.1942972E-1,0E0,3.1246415E-1,0E0,0E0,0E0,0E0,0E0,0E0],"parents":[2147483647,0,0,1,1,2,2,3,3,4,4,6,6],"right_children":[2,4,6,8,10,-1,12,-1,-1,-1,-1,-1,-1],"split_conditions":[7.5E-1,3.2E-2,5.3E-2,3.43E-1,1.67E-1,4.048061E-2,4.58E-1,-1.0088049E-2,-4.077072E-2,3.0561596E-2,-2.8168535E-2,-1.3130565E-2,3.2142058E-2],"split_indices":[0,1,2,3,2,0,2,0,0,0,0,0,0],"split_type":[0,0,0,0,0,0,0,0,0,0,0,0,0],"sum_hessian":[1.2573143E1,5.790548E0,6.782595E0,2.8377664E0,2.9527812E0,1.1099894E0,5.672606E0,1.4107604E0,1.427006E0,1.7493634E0,1.2034178E0,4.573515E0,1.0990909E0],"tree_param":{"num_deleted":"0","num_feature":"5","num_nodes":"13","size_leaf_vector":"1"}},{"base_weights":[-1.3600741E-2,-2.5499254E-1,5.2920308E-2,-4.580299E-2,8.31952E-3,2.2015657E-1,-8.0920614E-2,-1.964295E-2,4.105659E-2,-3.7402388E-2,1.7226426E-2],"categories":[],"categories_nodes":[],"categories_segments":[],"categories_sizes":[],"default_left":[0,0,0,0,0,0,0,0,0,0,0],"id":88,"left_children":[1,3,5,-1,-1,7,9,-1,-1,-1,-1],"loss_changes":[2.3045856E-1,2.503413E-1,2.7344537E-1,0E0,0E0,5.046807E-1,5.8945954E-1,0E0,0E0,0E0,0E0],"parents":[2147483647,0,0,1,1,2,2,5,5,6,6],"right_children":[2,4,6,-1,-1,8,10,-1,-1,-1,-1],"split_conditions":[5.83E-1,3.86E-1,3.59E-1,-4.580299E-2,8.31952E-3,-3.2E-2,8.33E-1,-1.964295E-2,4.105659E-2,-3.7402388E-2,1.7226426E-2],"split_indices":[0,3,3,0,0,1,0,0,0,0,0],"split_type":[0,0,0,0,0,0,0,0,0,0,0],"sum_hessian":[1.2511595E1,2.090893E0,1.0420701E1,1.0850796E0,1.0058136E0,4.3457317E0,6.07497E0,1.3533014E0,2.9924302E0,2.5943294E0,3.4806404E0],"tree_param":{"num_deleted":"0","num_feature":"5","num_nodes":"11","size_leaf_vector":"1"}},{"base_weights":[-1.5067372E-2,-7.064035E-2,2.529498E-2,4.7935065E-2,-2.9726416E-1,-9.6737705E-3,4.4361856E-2,-5.860153E-2,2.3633314E-2],"categories":[],"categories_nodes":[],"categories_segments":[],"categories_sizes":[],"default_left":[0,0,0,0,0,0,0,0,0],"id":89,"left_children":[1,3,-1,5,7,-1,-1,-1,-1],"loss_changes":[2.1723166E-1,3.3316603E-1,0E0,5.38223E-1,7.880051E-1,0E0,0E0,0E0,0E0],"parents":[2147483647,0,0,1,1,3,3,4,4],"right_children":[2,4,-1,6,8,-1,-1,-1,-1],"split_conditions":[8.33E-1,2.82E-1,2.529498E-2,1.69E-1,4.58E-1,-9.6737705E-3,4.4361856E-2,-5.860153E-2,2.3633314E-2],"split_indices":[4,2,0,2,2,0,0,0,0],"split_type":[0,0,0,0,0,0,0,0,0],"sum_hessian":[1.2385012E1,1.0867985E1,1.5170275E0,7.6524878E0,3.2154965E0,6.1568804E0,1.4956076E0,2.022698E0,1.1927987E0],"tree_param":{"num_deleted":"0","num_feature":"5","num_nodes":"9","size_leaf_vector":"1"}},{"base_weights":[-1.1809322E-2,-2.95718E-2,4.364438E-2,-2.6356751E-2,9.854776E-2,3.8761538E-2,-1.133833E-3],"categories":[],"categories_nodes":[],"categories_segments":[],"categories_sizes":[],"default_left":[0,0,0,0,0,0,0],"id":90,"left_children":[1,-1,3,-1,5,-1,-1],"loss_changes":[2.2287488E-1,0E0,2.2886188E-1,0E0,3.5166964E-1,0E0,0E0],"parents":[2147483647,0,0,2,2,4,4],"right_children":[2,-1,4,-1,6,-1,-1],"split_conditions":[5E-1,-2.95718E-2,-3.8E-2,-2.6356751E-2,2.6E-1,3.8761538E-2,-1.133833E-3],"split_indices":[0,0,1,0,3,0,0],"split_type":[0,0,0,0,0,0,0],"sum_hessian":[1.2336592E1,1.3078804E0,1.1028711E1,1.09592E0,9.932792E0,2.039701E0,7.8930902E0],"tree_param":{"num_deleted":"0","num_feature":"5","num_nodes":"7","size_leaf_vector":"1"}},{"base_weights":[-1.2069309E-2,-7.542304E-2,2.350557E-2,9.7446E-2,-2.3032318E-1,-1.9206E-2,3.9796766E-2,-3.730353E-2,2.120558E-2],"categories":[],"categories_nodes":[],"categories_segments":[],"categories_sizes":[],"default_left":[0,0,0,0,0,0,0,0,0],"id":91,"left_children":[1,3,-1,5,7,-1,-1,-1,-1],"loss_changes":[2.253483E-1,3.253565E-1,0E0,6.0269064E-1,4.7453627E-1,0E0,0E0,0E0,0E0],"parents":[2147483647,0,0,1,1,3,3,4,4],"right_children":[2,4,-1,6,8,-1,-1,-1,-1],"split_conditions":[8.32E-1,6.8E-2,2.350557E-2,3.24E-1,4.3E-2,-1.9206E-2,3.9796766E-2,-3.730353E-2,2.120558E-2],"split_indices":[3,2,0,3,1,0,0,0,0],"split_type":[0,0,0,0,0,0,0,0,0],"sum_hessian":[1.2261102E1,1.0312226E1,1.9488759E0,5.048734E0,5.263492E0,2.755321E0,2.2934132E0,4.098169E0,1.1653233E0],"tree_param":{"num_deleted":"0","num_feature":"5","num_nodes":"9","size_leaf_vector":"1"}},{"base_weights":[-8.7961815E-3,-2.4403131E-1,5.665927E-2,2.2594152E-2,-6.008615E-2,-3.835002E-2,1.8169281E-1,4.174837E-2,-7.8092347E-4],"categories":[],"categories_nodes":[],"categories_segments":[],"categories_sizes":[],"default_left":[0,0,0,0,0,0,0,0,0],"id":92,"left_children":[1,3,5,-1,-1,-1,7,-1,-1],"loss_changes":[2.1776812E-1,6.5088326E-1,6.846084E-1,0E0,0E0,0E0,4.2239353E-1,0E0,0E0],"parents":[2147483647,0,0,1,1,2,2,6,6],"right_children":[2,4,6,-1,-1,-1,8,-1,-1],"split_conditions":[5.6E-2,-7E-3,-7E-3,2.2594152E-2,-6.008615E-2,-3.835002E-2,4.4E-1,4.174837E-2,-7.8092347E-4],"split_indices":[2,1,1,0,0,0,3,0,0],"split_type":[0,0,0,0,0,0,0,0,0],"sum_hessian":[1.224517E1,2.0716887E0,1.0173481E1,1.0524027E0,1.0192859E0,1.7932982E0,8.380182E0,3.197984E0,5.1821985E0],"tree_param":{"num_deleted":"0","num_feature":"5","num_nodes":"9","size_leaf_vector":"1"}},{"base_weights":[-1.0635798E-2,-1.4204496E-1,1.04663335E-1,-3.0391937E-1,5.0118964E-2,2.536763E-1,-9.605698E-2,-1.0211129E-2,-3.77629E-2,2.917681E-2,-2.7405694E-2,-5.1741335E-3,5.243205E-2,-3.225605E-2,2.746732E-2],"categories":[],"categories_nodes":[],"categories_segments":[],"categories_sizes":[],"default_left":[0,0,0,0,0,0,0,0,0,0,0,0,0,0,0],"id":93,"left_children":[1,3,5,7,9,11,13,-1,-1,-1,-1,-1,-1,-1,-1],"loss_changes":[2.1434785E-1,2.1982877E-1,2.5134075E-1,1.665026E-2,3.8279045E-1,4.0983576E-1,4.2101297E-1,0E0,0E0,0E0,0E0,0E0,0E0,0E0,0E0],"parents":[2147483647,0,0,1,1,2,2,3,3,4,4,5,5,6,6],"right_children":[2,4,6,8,10,12,14,-1,-1,-1,-1,-1,-1,-1,-1],"split_conditions":[7.5E-1,3.2E-2,6.29E-1,3.43E-1,1.67E-1,3.2E-1,4.58E-1,-1.0211129E-2,-3.77629E-2,2.917681E-2,-2.7405694E-2,-5.1741335E-3,5.243205E-2,-3.225605E-2,2.746732E-2],"split_indices":[0,1,3,3,2,3,2,0,0,0,0,0,0,0,0],"split_type":[0,0,0,0,0,0,0,0,0,0,0,0,0,0,0],"sum_hessian":[1.2165876E1,5.577312E0,6.5885644E0,2.7115784E0,2.8657339E0,3.629917E0,2.9586473E0,1.3635793E0,1.3479991E0,1.6991289E0,1.166605E0,2.0853992E0,1.5445178E0,1.9172221E0,1.0414251E0],"tree_param":{"num_deleted":"0","num_feature":"5","num_nodes":"15","size_leaf_vector":"1"}},{"base_weights":[-9.919234E-3,-7.4592225E-2,2.3850402E-2,8.599655E-2,-2.1963884E-1,-1.8085163E-2,3.6709104E-2,-3.5656612E-2,2.0121466E-2],"categories":[],"categories_nodes":[],"categories_segments":[],"categories_sizes":[],"default_left":[0,0,0,0,0,0,0,0,0],"id":94,"left_children":[1,3,-1,5,7,-1,-1,-1,-1],"loss_changes":[2.2802326E-1,2.7846846E-1,0E0,5.169997E-1,4.2538878E-1,0E0,0E0,0E0,0E0],"parents":[2147483647,0,0,1,1,3,3,4,4],"right_children":[2,4,-1,6,8,-1,-1,-1,-1],"split_conditions":[8.32E-1,6.8E-2,2.3850402E-2,3.24E-1,4.3E-2,-1.8085163E-2,3.6709104E-2,-3.5656612E-2,2.0121466E-2],"split_indices":[3,2,0,3,1,0,0,0,0],"split_type":[0,0,0,0,0,0,0,0,0],"sum_hessian":[1.2085341E1,1.01442E1,1.9411416E0,5.007378E0,5.136822E0,2.751728E0,2.25565E0,3.991061E0,1.1457611E0],"tree_param":{"num_deleted":"0","num_feature":"5","num_nodes":"9","size_leaf_vector":"1"}},{"base_weights":[-6.9050356E-3,-2.903364E-2,4.7944546E-2,-2.5771428E-2,1.0160726E-1,3.9117645E-2,-8.6499256E-4],"categories":[],"categories_nodes":[],"categories_segments":[],"categories_sizes":[],"default_left":[0,0,0,0,0,0,0],"id":95,"left_children":[1,-1,3,-1,5,-1,-1],"loss_changes":[2.1713632E-1,0E0,2.1990928E-1,0E0,3.4704676E-1,0E0,0E0],"parents":[2147483647,0,0,2,2,4,4],"right_children":[2,-1,4,-1,6,-1,-1],"split_conditions":[5E-1,-2.903364E-2,-3.8E-2,-2.5771428E-2,2.6E-1,3.9117645E-2,-8.6499256E-4],"split_indices":[0,0,1,0,3,0,0],"split_type":[0,0,0,0,0,0,0],"sum_hessian":[1.20718565E1,1.2612281E0,1.0810629E1,1.0466285E0,9.764E0,1.9899437E0,7.7740564E0],"tree_param":{"num_deleted":"0","num_feature":"5","num_nodes":"7","size_leaf_vector":"1"}},{"base_weights":[-7.5176815E-3,-2.3785996E-1,5.6985363E-2,2.1241607E-2,-5.751098E-2,-3.6609273E-2,1.752543E-1,3.293583E-2,-6.7496137E-3],"categories":[],"categories_nodes":[],"categories_segments":[],"categories_sizes":[],"default_left":[0,0,0,0,0,0,0,0,0],"id":96,"left_children":[1,3,5,-1,-1,-1,7,-1,-1],"loss_changes":[2.067038E-1,5.8338463E-1,6.126965E-1,0E0,0E0,0E0,3.6803272E-1,0E0,0E0],"parents":[2147483647,0,0,1,1,2,2,6,6],"right_children":[2,4,6,-1,-1,-1,8,-1,-1],"split_conditions":[5.6E-2,-7E-3,-7E-3,2.1241607E-2,-5.751098E-2,-3.6609273E-2,2.82E-1,3.293583E-2,-6.7496137E-3],"split_indices":[2,1,1,0,0,0,2,0,0],"split_type":[0,0,0,0,0,0,0,0,0],"sum_hessian":[1.1999876E1,2.0372431E0,9.962632E0,1.0309422E0,1.0063009E0,1.7187612E0,8.243872E0,4.824427E0,3.419444E0],"tree_param":{"num_deleted":"0","num_feature":"5","num_nodes":"9","size_leaf_vector":"1"}},{"base_weights":[-1.0439113E-2,-1.4782625E-1,1.0907537E-1,-2.4725528E-1,1.1229512E-2,2.3492904E-1,-1.0483481E-1,-3.9535677E-3,-4.247212E-2,-9.013852E-5,5.7980087E-2,-2.9470703E-2,1.4747071E-2],"categories":[],"categories_nodes":[],"categories_segments":[],"categories_sizes":[],"default_left":[0,0,0,0,0,0,0,0,0,0,0,0,0],"id":97,"left_children":[1,3,5,7,-1,9,11,-1,-1,-1,-1,-1,-1],"loss_changes":[2.2832759E-1,1.9424608E-1,2.261838E-1,1.6638696E-1,0E0,4.0897867E-1,2.0943859E-1,0E0,0E0,0E0,0E0,0E0,0E0],"parents":[2147483647,0,0,1,1,2,2,3,3,5,5,6,6],"right_children":[2,4,6,8,-1,10,12,-1,-1,-1,-1,-1,-1],"split_conditions":[7.5E-1,4.91E-1,6.95E-1,3.47E-1,1.1229512E-2,5E-3,8.23E-1,-3.9535677E-3,-4.247212E-2,-9.013852E-5,5.7980087E-2,-2.9470703E-2,1.4747071E-2],"split_indices":[0,3,3,3,0,1,3,0,0,0,0,0,0],"split_type":[0,0,0,0,0,0,0,0,0,0,0,0,0],"sum_hessian":[1.1923664E1,5.4368625E0,6.486802E0,3.969152E0,1.4677103E0,4.022129E0,2.464673E0,2.39207E0,1.577082E0,2.9810276E0,1.0411017E0,1.3104439E0,1.154229E0],"tree_param":{"num_deleted":"0","num_feature":"5","num_nodes":"13","size_leaf_vector":"1"}},{"base_weights":[-8.739128E-3,-1.387125E-1,1.04811504E-1,-2.912459E-1,4.269703E-2,2.4248438E-1,-8.1012025E-2,-9.504719E-3,-3.63172E-2,2.7409961E-2,-2.6401613E-2,-4.817057E-3,5.0264973E-2,-3.014112E-2,2.7151117E-2],"categories":[],"categories_nodes":[],"categories_segments":[],"categories_sizes":[],"default_left":[0,0,0,0,0,0,0,0,0,0,0,0,0,0,0],"id":98,"left_children":[1,3,5,7,9,11,13,-1,-1,-1,-1,-1,-1,-1,-1],"loss_changes":[2.0442338E-1,1.9034895E-1,2.098904E-1,1.6575396E-2,3.4270465E-1,3.661668E-1,3.8596687E-1,0E0,0E0,0E0,0E0,0E0,0E0,0E0,0E0],"parents":[2147483647,0,0,1,1,2,2,3,3,4,4,5,5,6,6],"right_children":[2,4,6,8,10,12,14,-1,-1,-1,-1,-1,-1,-1,-1],"split_conditions":[7.5E-1,3.2E-2,6.29E-1,3.43E-1,1.67E-1,3.2E-1,4.58E-1,-9.504719E-3,-3.63172E-2,2.7409961E-2,-2.6401613E-2,-4.817057E-3,5.0264973E-2,-3.014112E-2,2.7151117E-2],"split_indices":[0,1,3,3,2,3,2,0,0,0,0,0,0,0,0],"split_type":[0,0,0,0,0,0,0,0,0,0,0,0,0,0,0],"sum_hessian":[1.1866076E1,5.429603E0,6.4364734E0,2.6206431E0,2.8089597E0,3.5221019E0,2.9143713E0,1.3257478E0,1.2948953E0,1.6616472E0,1.1473126E0,2.0484426E0,1.4736595E0,